GIS
1
0.0
2
No
Yes
3
2522 0
2125 0 1
2405 1
7052
之_-2w
安全_-1w
短期_-1w
喜讯_-1w
纪念_1w
东南海_-1w
军队_-3w
脱离_0w
炮弹_-3w
文职_-2w
取得_1w
发出_-2w
草案_-2w
号_-2w
应对_-2w
安全_-3w
设法_-1w
制_2w
否则_1w
联
逼_-1w
应对_-3w
波兰_-3w
谋杀_-3w
改革_-2w
宙斯盾_2w
双航母_2w
科技_2w
慰问电_-2w
演练_1w
关键_1w
垄断_2w
改革_-3w
拥核_2w
降_-3w
慰问电_-1w
供应_-2w
要求_-2w
游行_-1w
能_-2w
短期_-2w
卡车_-2w
要求_-3w
他们_-2w
930_-2w
冲_2w
击落_2w
陆战队_-3w
更_-3w
要求_-1w
大楼_-1w
冲_1w
禁_2w
关岛_2w
伊_-2w
纳米比亚_1w
伊_-1w
白宫_-1w
动用_1w
六代机_-1w
白宫_-2w
直击_1w
新舰_-1w
关岛_1w
偷偷_-1w
动用_2w
关岛_-3w
巡逻船_-1w
议长_2w
高原_1w
40_2w
急于_2w
致
言辞_-1w
巡逻船_-3w
舰空_-2w
公理_-3w
加密_1w
进攻_-2w
遇_-1w
研讨会_1w
人员_2w
中断_1w
海域_1w
公理_-1w
访_-3w
星_-2w
核心_-2w
、_-2w
311_-2w
祖父_1w
挑衅_2w
S300_1w
催促_-3w
、_-1w
311_-3w
逃脱_-3w
舰队_-3w
11_-1w
3日_-2w
食品_-2w
报告_-3w
死亡_-3w
项目_-2w
军用_-2w
权_-1w
间谍_1w
斯诺登_2w
武器_-2w
在于_2w
核武器_-3w
法媒_-1w
访华_-1w
美舰_2w
识别区_-1w
表态_-1w
失踪_-2w
夜间_-2w
表态_-2w
摧毁_1w
摧毁_2w
直击_-3w
访_-2w
阿勒颇_-2w
叙_-3w
亚_-3w
装甲_-2w
临时_-3w
360_1w
旅_-2w
公布_2w
理应_-1w
随时_-1w
青瓦台_1w
主动_2w
民众_-2w
裁军_2w
电站_2w
巴沙尔_-2w
武官_2w
进口_2w
港口_-3w
保证金_-2w
怎_2w
裁军_1w
项目_1w
挑战_2w
尼日尔_-2w
部队_-2w
受到_-2w
尽早_1w
卫星站_1w
任何_2w
银行_-3w
又_2w
临时_-2w
用于_-3w
印_2w
美监_1w
公开_-3w
凝成_2w
精确_-1w
出口_1w
银行_-1w
暗_-1w
尽早_2w
印_1w
Fa21
照常_-1w
战场_-1w
维持_-2w
实现_-3w
解决_2w
前沿_-1w
决心_-3w
等_-3w
激战_-1w
追随者_-1w
部队_-3w
阿方_-2w
认清_-2w
四_2w
行动_-3w
自由_1w
入侵_1w
追_-1w
允许_-1w
官方_-1w
黑客_2w
自由_2w
民调_2w
挡_1w
时_-2w
演习_1w
订立_0w
含_2w
困境_-1w
允许_-3w
恐袭_-2w
支持_-3w
船只_2w
太平岛_-1w
协调_2w
不安_-2w
昂山_2w
恐袭_-1w
收紧_-1w
释放_1w
军演_-3w
船只_1w
寸_1w
行动_-1w
B-21_-3w
区域_2w
肯尼亚_-1w
运输机_-3w
研发_2w
核爆_-2w
医院_2w
汽车_2w
条约_-2w
囚犯_-1w
哈马斯_-3w
打算_-3w
忧_1w
演习_-3w
四方_1w
对_-1w
忧_2w
外来_-2w
抓获_-3w
哈马斯_-1w
战时_-3w
屈服_2w
城市_-1w
反恐_2w
美舰_-2w
布防_-2w
急于_-1w
间谍_-1w
中情局_1w
入_2w
中心_-1w
煽动_2w
近平_2w
美舰_-3w
必将_-3w
大肆_-3w
急于_-2w
关切_2w
土地_2w
演习_-1w
环节_-2w
空识区_2w
传来_-2w
给予_1w
梦_-1w
增兵_2w
核爆_-1w
歼20_-3w
各地_-2w
部门_-2w
晋_-1w
印购_-3w
歼_-2w
越来越_1w
五角大楼_1w
机密_-3w
开_2w
马来西亚_-3w
组建_-3w
创新_2w
准备_-1w
研究_-3w
人权_-2w
系_-1w
展开_-3w
网络_-2w
西班牙_1w
取代_2w
网络_-3w
气温_2w
巴向_1w
撤离_1w
下届_-3w
技术_-3w
展开_-1w
援手_0w
实弹_1w
谋划人_2w
居民_-1w
创新_-1w
教育_-2w
肩_2w
人民军_-1w
法案_-1w
破例_-1w
他_1w
地方_-1w
但_-2w
部属_-3w
采购_-3w
砖_-1w
组建_-2w
东欧_2w
出动_-3w
编制_-1w
势力_-1w
附近_-1w
机密_-1w
建成_2w
余_-3w
快讯_-3w
领海_-3w
F16_1w
负责_2w
政军兵_-3w
变卦_-1w
柬_-3w
修_2w
反制_2w
埃_-1w
逮捕_2w
服役_-3w
动武_-3w
启示_-1w
最近_1w
内政_-3w
快讯_-1w
展会_-2w
出于_1w
倍_-3w
内政_-2w
独家_-1w
知道_2w
次位面_-3w
大于_-2w
六代机_1w
司令员_-1w
自行_1w
效果_-2w
逞强_-3w
台军_1w
澳方_1w
侵犯_-3w
高超_-3w
指手_2w
特朗普_1w
澳方_2w
防_-3w
出卖_-3w
q_1t
华_2w
百发百中_-3w
卫生_-1w
高铁_1w
撤资_-1w
q_0t
购_-3w
极端_-1w
购_-2w
致电_0w
协调_-1w
尚_2w
未雨绸缪_1w
12月_-3w
反对派_2w
千_1w
共识_1w
批评者_-1w
纽约_1w
安倍_-2w
自贸_1w
无人机_-2w
Ed04_s
干涉_-3w
油船_-1w
建设_1w
35年_2w
尚_1w
隐蔽_1w
无人机_-3w
系统_1w
奉_2w
卡斯特罗_-2w
抢滩_-3w
9·3_2w
影业_2w
封锁_1w
Ka05
1亿_1w
抢滩_-1w
大选_2w
南非_-2w
出手_2w
科纳克里_1w
现货_2w
抢劫_-1w
引渡_-3w
会_-3w
封锁_2w
港独_-2w
冷战_-2w
建_-2w
Ka19
阿塞拜疆_-1w
地中海_1w
成果_-2w
于_2w
拟派_2w
宣布_2w
会_-1w
应对_0w
泛民_-3w
圆桌_1w
试航_-1w
展现_1w
最后_1w
成报_-3w
心神非马鹿_1w
军备_2w
途径_1w
意味着_-3w
-35_2w
绝非_-1w
军备_1w
议员_2w
反对_-3w
网络战_-3w
无法_1w
柬埔寨_2w
自身_-1w
暗指_1w
指责_-3w
水面_1w
美台_-2w
外交官_1w
拟_2w
P3C_2w
强力_-1w
水面_2w
建设_-2w
照常_-3w
极其_1w
大幅_2w
革命_-2w
朱日_-2w
冲突_2w
恐怖主义_-2w
建设_-3w
容忍_2w
秩序_2w
国防部_2w
拉_1w
周玉蔻_-1w
Fc06
一定_2w
深度_-1w
国防部_1w
夺岛_-3w
尽快_1w
暂停_1w
歧视_2w
奉劝_1w
勿_-1w
寒区_2w
B-1B_-2w
陷入_2w
三_-1w
放弃_-1w
夺岛_-1w
促销_2w
武备_-3w
该
震慑_1w
三_-2w
否认_-2w
曼海_-2w
重要_1w
五角大楼_-3w
否认_-1w
伊拉克_-2w
防空区_2w
闯入_1w
直面_1w
炮击_-3w
军国主义_-1w
重要_2w
报道_-3w
商船_-1w
先进_1w
账户_-2w
停_-1w
报道_-2w
令_-2w
兵_1w
匈牙利_-3w
东海_-2w
朝方_-1w
雷达_-1w
图_-1w
汶川_-1w
法吁_-2w
规模_2w
爱_2w
炒作_-3w
打造_2w
活动_-3w
卫星_-2w
衰落_1w
爱_1w
恢复_2w
卫星_-3w
究竟_-1w
未_-3w
实拍_-1w
理解_-1w
被迫_0w
违反_-1w
横渡_-2w
态势_1w
未_-2w
安达_-3w
认为_-2w
接近_-1w
必要_-3w
坚持_1w
未_-1w
监听_2w
作战_-3w
论战_2w
手记_-1w
执行_-1w
军费_1w
边检_2w
局长_-3w
全力_-1w
揭秘_-3w
首都_-1w
背叛_-2w
号召_-2w
欢迎_1w
边检_1w
落网_-3w
希腊_1w
投机_2w
关注_-2w
核武库_-2w
久_-3w
规矩_2w
鼓动_-2w
沟通_2w
举行_-1w
反对派_-3w
遵守_2w
揭秘_-2w
沟通_1w
神盾舰_-1w
印尼籍_1w
生效_2w
加紧_2w
转业_-3w
发言人_-3w
牺牲品_1w
古巴_-2w
政府军_-3w
计划_1w
参会_-3w
助_2w
入_-1w
日元_-3w
参会_-2w
乱
承认_-1w
只要_-1w
扩_-1w
求_2w
再次_2w
是否_-1w
?_2w
入_-3w
亡
川_1w
四面佛_-1w
安保案_1w
网上_-3w
遇阻_2w
Hj24
台湾_2w
交流_-2w
袭_-3w
一印军_-2w
俄军_-3w
令
Hj16
攻击型_2w
交流_-3w
支出_-3w
歼_2w
大陆_-3w
没收_1w
受挫_2w
土耳其_2w
西方_2w
空袭_-1w
伤
腐败_-1w
强权即_-2w
真实_-2w
钱_2w
是否_-3w
因_1w
空袭_-3w
清算_-3w
无_-3w
是否_-2w
航空_-2w
例
安抚_1w
欧盟_2w
陈九霖_-3w
美菲_-2w
越方_2w
侦
美媒_-3w
境外_-2w
度_-2w
俄机_-1w
既_1w
比_1w
击沉_-3w
内战_-1w
情况_1w
B21_-2w
提供_2w
监控_2w
度_-1w
打造_-2w
B21_-3w
击沉_-2w
退群_1w
提供_1w
安抚_2w
出版_2w
忧虑_1w
长期_1w
巴勒斯坦_-2w
打破_-3w
正_1w
保持_-1w
违反_1w
东北亚_-1w
发言_-3w
重点_-2w
协议_-3w
港口_1w
厄瓜多尔_-3w
先_2w
巴勒斯坦_-1w
农业_-2w
正_2w
逻
量子_1w
650万_-2w
方面_-1w
一再_2w
经贸_-1w
原_-2w
可疑_2w
缺_1w
？_2w
严惩_1w
环_1w
时差_-2w
女_2w
之后_1w
贿赂_-2w
古迹_-2w
特种_-1w
发表_-1w
Hb05_s
公园_-3w
国家级_1w
特种_-2w
丹麦_-1w
6_-2w
主席_-3w
分散_-2w
发言_-1w
撤走_2w
蓝鳍_-3w
会议_2w
协议_-2w
防朝_-3w
绝不_1w
新加坡_-1w
担忧_-3w
装备_1w
继续_-3w
19_2w
Hn11_s
拟建_2w
号称_-2w
国内_1w
热血_-2w
砸_2w
加蓬_-1w
项_2w
期间_1w
体制_-1w
张_-2w
苏_-2w
环_2w
塔利班_1w
方面_-3w
苏_-3w
腾_-3w
远程_2w
干预_2w
冻
担忧_-2w
体制_1w
局势_2w
海警船_-2w
无力_-3w
总监_-1w
B-21_1w
黄炳誓_2w
争_-3w
建议_-2w
愿_-3w
议程_1w
合作_-3w
无力_-1w
徐光裕_-1w
不_-1w
外相_2w
都_-1w
妻_-2w
若_-1w
朱立伦_-2w
提供_-2w
主要_2w
廉政_-1w
国务卿_-3w
参与_-2w
后_2w
干部_2w
思维_-1w
吃_2w
提供_-1w
古巴_2w
按_2w
短程_-3w
绝对_-2w
谴责_-2w
表示_-3w
渔民_-1w
行_2w
谴责_-1w
劾
严重_1w
防长_-3w
南极_1w
勒
陷阱_2w
案_1w
推_-2w
正恩_2w
劝_2w
机器人_1w
激战_1w
谴责_-3w
维护_1w
划_-1w
疯了_2w
25_-2w
整肃_2w
７．２_1w
韩民团_-2w
针对_-2w
靠_-2w
海外_-1w
针对_-3w
转售_1w
协
联手_-2w
测试_-3w
悼念_1w
团体_-3w
靠_1w
替代_1w
10万_1w
系列_1w
连环_-1w
痛处_-3w
专员_-1w
P3C_-2w
利于_-3w
若_-2w
等于_-1w
提供_-3w
谈_-2w
合作_-1w
（_-3w
天_-3w
安巴尔_2w
同
中断_-2w
复员_-2w
领空_-2w
p_0t
进驻_2w
败_-3w
提及_-3w
俄罗斯_2w
大势_2w
“_-2w
特朗普_-3w
爆发_1w
手段_-1w
议会_-3w
动画_-1w
快_1w
哪个_1w
造成_2w
和平谈判_1w
戳_2w
卫军_-2w
议会_-2w
快_2w
肩负_-2w
不测_-3w
攻击_2w
军_-3w
架次_-2w
无关冀_-3w
出售_-3w
敲打_-2w
通过_1w
中捷_1w
很_1w
出现_-1w
平民_-3w
人_-3w
诸岛_-2w
马方_-3w
B52_-2w
说_2w
仅_-3w
展示_2w
期_2w
布鲁塞尔_-2w
未_2w
展示_1w
期_1w
击毙_2w
布鲁塞尔_-3w
67年_-1w
展开_1w
某部_-2w
大举_-1w
曾_1w
采取_-3w
师_-1w
贪污_-3w
集中_-1w
看_-1w
精兵_2w
原因_2w
指_-1w
贪污_-2w
吁_-2w
S400S300_-2w
采取_-1w
沉敌_2w
贪污_-1w
扩大_-1w
吁_-1w
看_-3w
成员_-3w
日_-1w
核_-1w
起_2w
反恐_-3w
寻滋_-1w
防长_2w
袭击_1w
南部_-3w
媒体_-3w
操作系统_-3w
核_-2w
撰文_-1w
回答_-2w
反恐_-1w
能_1w
总裁_-1w
东西_2w
少见_-1w
非洲_1w
彻查_0w
感激_2w
检方_-2w
官员_2w
示范_1w
事宜_1w
红旗9_-3w
音速_-2w
劝_-3w
口_-1w
军委_-2w
却_2w
雇
守卫_-2w
挑衅_-1w
快_-3w
击沉_2w
最后_-2w
德国_-1w
重新_-2w
无_2w
地震_-1w
领导者_-2w
418_-2w
本人_-3w
伤亡_0w
推迟_2w
奥巴马_2w
差不多_1w
之_1w
引_-2w
训练_2w
数字_1w
领导者_-1w
小布什_-1w
口_-2w
之_2w
面
马代_-1w
捷_-2w
侦察_0w
训练_1w
战机_-2w
和平_-1w
决定_-3w
加入_2w
引_-3w
杀伤_-3w
斩首_-1w
无_1w
包围_-2w
决定_-2w
和平_-2w
公投_1w
战车_2w
和谈_1w
能_2w
阿根廷_-3w
独家_-3w
决定_-1w
奥尼亚马_-3w
自由_-2w
保护_-2w
风险_-1w
非洲_2w
广岛_-2w
自由_-3w
洲际_-2w
使馆_-1w
反攻_1w
曝光_2w
公投_2w
质疑_-2w
洲际_-3w
广岛_-1w
发动_-2w
15日_1w
涉_-2w
并肩_-2w
专栏_-1w
停止_-1w
护航_1w
武力_1w
席卷_-3w
如何_-1w
侦查_0w
艘_-1w
停止_-2w
台海_-2w
生产_-3w
涉_-3w
为此_-2w
既_-2w
性侵_0w
官兵_-1w
参演_2w
排斥_2w
渔船_-2w
核_1w
申请_2w
阻止_1w
暴力_-1w
渔船_-1w
阻挠_-2w
食
妨碍_-2w
行为_1w
理应_2w
高官_1w
枪声_-3w
埃及_-3w
回_2w
士兵_-1w
联合_-3w
拿_-2w
反_-2w
如此_-1w
联合_-2w
核弹头_-1w
一切_-2w
改进_-2w
美媒_1w
官兵_-2w
现实_2w
总长_-2w
妥
难民潮_-1w
监察_-2w
现实_1w
水平_2w
哭_-2w
纳卡_-3w
军费_-1w
渺茫_1w
超级_1w
应当_-1w
反应堆_-3w
珍惜_2w
艘_-2w
达成_2w
纪行_-1w
先进_-2w
登_-3w
9·3_-2w
Hi11_s
为了_2w
伊朗_2w
会晤_-3w
投资_2w
越南_-2w
碾压_1w
械斗_-3w
遍_2w
发布_-1w
迫切_-2w
黎巴嫩_-3w
并_1w
内陆_-1w
-6_2w
水平_1w
阻_-2w
直升机_1w
退_1w
哥伦比亚_-3w
自始_-3w
日妄_-1w
开发_-3w
国际法_2w
周_-3w
机械化_-3w
添_-3w
代表_2w
帮_-2w
代号_-1w
阻_-3w
排除_-3w
核航母_1w
批土_-3w
示威_-2w
受伤_-2w
事务_-2w
满意_-2w
广东_-3w
分遣队_-1w
内陆_-3w
受伤_-3w
战争_-3w
人质_1w
性侵_-2w
单方_1w
叙媒_-1w
经济部长_-3w
状态_2w
邀_-3w
斡旋_-2w
约_2w
有关_-3w
申请_-1w
战争_-1w
2015_1w
后勤_-3w
戳_1w
战争_-2w
华阳礁_-3w
爆_-1w
机器人_-2w
30万_-2w
选民_-1w
自娱_2w
官员_-3w
30万_-1w
Ed49
勒索_0w
宵
海洋法_2w
扣留_2w
赴_-3w
军火_1w
守护_1w
做出_-1w
财政部长_2w
海警_-2w
察
加大_2w
呼应_1w
敦促_1w
财政部长_1w
无需_-1w
加剧_1w
座_2w
语言_2w
洪源_-1w
俄方_-3w
强度_1w
边界_-2w
加剧_2w
媒_-2w
战轰_2w
解除_-1w
无需_-3w
分支_-1w
购买_1w
南沙_1w
俄方_-1w
台办_-1w
购买_2w
国防长_-2w
任务_-1w
探讨_-3w
再_-3w
抨击_-2w
东京_1w
敢_2w
此前_-3w
好_-1w
指导员_-1w
尚未_-1w
紧急_-2w
钻井_-3w
失去_2w
引_2w
战略_-2w
部署_-2w
了解_1w
（_2w
削减_2w
战果_-1w
31_1w
狂_2w
东部_-1w
半岛_1w
外国_-3w
增强_-2w
22_-3w
刑事_-2w
核监查_-2w
文工团_-1w
空中_-1w
驱逐舰_-1w
安倍_2w
大国_-3w
提防_-3w
F-35_-2w
隐私_2w
可用_2w
海里_-2w
驱逐舰_-3w
怂恿_-3w
真_1w
越_-1w
机场_2w
共同_1w
剩_-3w
造岛_2w
草案_1w
让步_-2w
阿桑奇_-2w
让步_-3w
北约_2w
1.2亿_2w
骚乱_0w
坚强_2w
回_-1w
阿桑奇_-3w
崛起_-1w
邀请_-1w
就是_-2w
收敛_2w
报复_-3w
巡逻_0w
深刻_-3w
邀请_-2w
失_-2w
做_-2w
一个_-2w
填_1w
东瀛_1w
确实_2w
听_-2w
频频_-1w
接受_1w
巨型_2w
言论_-1w
Ee14
民事_2w
细节_-1w
工业_-1w
不断_-2w
干涉_2w
5代机_1w
反_-1w
警惕_2w
增夺岛_-3w
之后_-2w
芝加哥_1w
政策_2w
来临_-2w
武装_1w
工业_-3w
早报_-1w
措施_-2w
危险_2w
武装_2w
弹
打击_-2w
宪法_-3w
高官_-3w
胡_-2w
污蔑_-1w
进驻_-1w
政策_1w
加莱港_2w
预算_-2w
政要_-1w
断然_-2w
改革_-1w
宪法_-2w
进驻_-2w
彻
苏丹_2w
Hb09_s
线_-1w
终于_-3w
行动_1w
宪法_-1w
引台_-2w
我们_2w
d_0t
符合_2w
列出_-1w
防务_1w
忧
8_2w
北约_-2w
优势_-3w
恐怖主义_2w
收回_2w
李绍先_-1w
由_-3w
恐怖主义_1w
性
自己_-1w
夜间_1w
达到_-1w
祖国_1w
还要_2w
救_-2w
妥善_2w
下辖_-3w
T-90_-3w
发出_1w
希望_-1w
转业_1w
远程_-2w
策略_2w
达成_-3w
成就_2w
希望_-3w
核武_-2w
废弃_1w
概念_-1w
武力_-1w
达成_-1w
今年_1w
做_1w
赦免_-2w
核武_-1w
出_-2w
临行_-3w
Ka23_s
汽车_-1w
再次_-2w
试飞_2w
军机_2w
500_-3w
监视_1w
改_1w
旅游_1w
集会_2w
平台_-1w
声援_1w
重型_-2w
并_-1w
愿_1w
干预_-3w
影响_2w
刑警_-2w
并_-2w
四川_-3w
愿_0w
及_-3w
争端_-2w
种族清洗_-1w
刑警_-1w
Ia11
对象_2w
投入_2w
支持率_1w
警告_-1w
数_2w
南_1w
2/3_1w
评卡特_-3w
致_-3w
显其_-1w
响_2w
行_-3w
刘_-2w
计划_-2w
评卡特_-2w
致_-2w
警告_-3w
境内_-3w
怂恿_1w
这_1w
想到_2w
刘_-3w
评卡特_-1w
组_-2w
警告_-2w
科考船_-2w
升级_2w
单边_2w
看_1w
弃_1w
政界_-1w
改用_2w
举行_2w
藏_2w
看_2w
位_-3w
印军_-1w
突破_-3w
出口_-1w
轮_-1w
岛屿_2w
莫迪_-1w
扬
第二十三_-1w
航空_2w
示弱_-3w
放弃_1w
横行_2w
大批_1w
提议_-3w
核能_-2w
领事_-1w
来_2w
元首_-1w
原则_-2w
美派_1w
名家_-2w
示弱_-1w
图像_-1w
慌_-2w
洪秀柱_2w
藏区_-2w
年_2w
参议院_-1w
担
前线_1w
31_2w
不会_1w
如_1w
跃_2w
屈服_-2w
没有_-2w
习_1w
王牌_-2w
自杀式_-2w
捕鱼_2w
没有_-1w
黄炳誓_-3w
海外_1w
嫌疑人_-3w
遏制_1w
核武_-3w
大学生_-1w
无限期_1w
兰德_-3w
两用_2w
海外_2w
调查船_2w
破冰船_-2w
盘点_2w
韩防长_-1w
55_1w
阿玛塔_-3w
携手_-2w
法_1w
变化_2w
核试_1w
进入_-2w
前夕_-3w
毒剂_-1w
医院_-2w
购美_-2w
立法_-1w
决赛_2w
韩国_-1w
对待_1w
B-2_-3w
T-90_-1w
作出_1w
百_-2w
清真寺_-1w
罚_-2w
大学生_-2w
请_-3w
重视_2w
做出_2w
巡航_1w
清真寺_-2w
正式_-3w
当_-2w
吉布提_2w
首尔_-1w
属_2w
侵犯_2w
全球_-3w
华泄密_2w
信任_2w
船长_-3w
座_-2w
连_-3w
提_-2w
企业_-2w
闯_-3w
鹰击_2w
通信_2w
反导_2w
未果_-1w
第2_-3w
难民_-3w
思远_-1w
学_1w
航行_1w
高超_1w
市场_-2w
局面_1w
后果_2w
砸_-1w
周边_-2w
核峰会_-3w
财长_-1w
将军_-3w
轰_1w
下_-3w
转运_2w
缴_-3w
队长_-3w
-20_-2w
以_-3w
谈判_1w
企业_-3w
旅游_-1w
洗衣机_-1w
以_-2w
避免_-3w
连_-1w
说_-2w
发射_2w
一路_-3w
以_-1w
买_2w
４１_1w
撤销_-1w
法_-1w
发射_1w
旧_-2w
频繁_-1w
首度_-1w
买_1w
对决_2w
马鼎盛_-1w
核航母_-1w
总_-2w
后果_1w
枪击_-2w
了_2w
历史_1w
将军级_1w
当天_-2w
台_-1w
何_-2w
首相_2w
试射_2w
代表_-2w
扬言_-1w
种族
在野党_2w
同时_-3w
同意_2w
震惊_1w
台_-3w
2016年_1w
需_-3w
习近平_-3w
一切_1w
洗脱_2w
辞职_1w
S_1w
撤销_-3w
同意_0w
天基_2w
示好_-1w
积贫积弱_2w
怕_-1w
集会_-1w
巴铁_-1w
勿_1w
穆加贝_-2w
反思_-1w
嫌犯_-3w
证实_-1w
示好_-3w
强烈_1w
方_-2w
救援_1w
网络_2w
吉_-2w
取消_1w
反思_-3w
签订_-2w
该_2w
人民币_1w
机场_-2w
暗
改口_-3w
该_1w
曝_-3w
匮乏_-1w
亚美尼亚_-3w
倾向_-3w
地区_2w
绝不_-1w
不爽_-2w
30万_2w
拒绝_2w
主权_-3w
地区_1w
大规模_-3w
军方_2w
推动_1w
军方_1w
研坦克_2w
连_1w
极_2w
平台_1w
枭_1w
重兵_1w
大规模_-2w
签_-3w
罗塞夫_2w
忌惮_2w
荒唐_2w
扫雷艇_1w
码头_1w
列出_1w
今年_-2w
评论_0w
文物_-3w
今日_-1w
引发_2w
签署_-3w
一_-1w
演练_-1w
戒备_1w
理会_-2w
试飞疑_-3w
应派_2w
声称_-2w
韩媒_-3w
活动_1w
反舰_-1w
演练_-2w
突击_-1w
声称_-1w
针对_2w
引发_0w
疑犯_2w
禁止_-1w
没_-3w
给_2w
发射_-3w
正当_-1w
军长_-2w
东海_2w
裁军_-2w
尽早_-3w
四十_-3w
凶手_2w
没_-1w
我们_-1w
卢宇光_-1w
我们_-2w
埃媒赞_-3w
凶手_1w
几_2w
投_1w
公布_-2w
争议_2w
能力_-1w
乌_-3w
公布_-3w
了_-1w
双重_1w
降温_-1w
..._1w
最后通牒_-2w
052D_2w
出席_2w
海上_2w
声明_-1w
兵役_-2w
专门_1w
最后通牒_-1w
挑事_2w
-35_-1w
内幕_-1w
一起_-2w
防务_-1w
生效_-3w
动用_-2w
一起_-1w
当选_-2w
兼容_-2w
更迭_2w
嫌犯_2w
批准_2w
脱欧_-1w
完成_-2w
当局_-1w
搜救_-3w
调整_-3w
火箭弹_-3w
还_-1w
奥运会_2w
视频_2w
动用_-3w
继续_2w
574_2w
直_1w
出现_1w
呼吁_-2w
军火_-1w
射星_2w
恢复_-3w
度_2w
单位_-2w
朴_1w
还_-2w
呼吁_-3w
寻求_-2w
抱团_-3w
制约_2w
T50_-2w
17_2w
斯里兰卡_-3w
鼓舞_-3w
政治_1w
调查_-1w
摩苏尔_1w
冻结_0w
抗议_-1w
不能_2w
难_-2w
联手_0w
暗杀_0w
造成_-2w
护送_-2w
抗议_-2w
难_-1w
联手_1w
De01
控场_1w
,_-2w
一定_-2w
拒绝_-2w
抗议_-3w
近平_-3w
英语_2w
作_2w
极大_-3w
拒绝_-1w
稍纵即逝_2w
军民_1w
沙特_-2w
宣传_-3w
恢复_-1w
发生_-1w
２０１６_-3w
拒绝_-3w
务实_1w
欧_1w
论证_1w
Cb07
既然_-2w
所有_2w
难_-3w
即将_1w
释放_-1w
搅局_2w
过剩_-3w
,_1w
印度洋_-2w
丝绸之路_-2w
致命_-1w
投放_-1w
讨论_2w
奉若_2w
维持_1w
代表团_1w
效应_2w
王牌_1w
交易_-1w
袭击_-3w
资金_-1w
巨额_1w
海上_-2w
遣送_-2w
华示_-2w
扭转_-1w
查击沉_-3w
有关_2w
破例_0w
机遇_1w
小国_1w
隐轰_-3w
奥巴马_-3w
逮捕_-1w
意外_-1w
禁运_2w
学者_-2w
调查_2w
韩军_-1w
正式_2w
检阅_2w
处_1w
一个_2w
仿佛_1w
推升_2w
爆发_-3w
里_-3w
5500万_-3w
土_2w
200_2w
爆发_-2w
修改_1w
叙军_1w
接受_-3w
逮捕_-2w
300_-3w
隐形_-3w
韩称金_-2w
当地_-3w
运_-3w
辛丑_-3w
逮捕_-3w
设法_1w
访_2w
屠杀_1w
接受_-1w
增派_-3w
种族清洗_0w
自己人奖_2w
当地_-2w
秘密_-3w
不法_1w
主权_1w
反制_-3w
主权_2w
支持_2w
党风_-2w
缅_-1w
屈服_-3w
延缓_-3w
改_-3w
依赖_1w
停战_0w
望_-1w
分子_-2w
塞内加尔_-1w
打响_-2w
圆桌会_1w
顾_-3w
停战_1w
还_1w
马方_1w
光电_-2w
最后通牒_1w
分子_-3w
立即_-1w
中立_1w
宵禁_0w
海警船_2w
美韩_1w
不满_-3w
支_2w
模式_2w
已经_-2w
填充_-2w
军方_-2w
拆除_1w
类型_-1w
捐_-2w
领导人_-2w
无条件_-1w
提反_-1w
改_-1w
会面_0w
透露_1w
改_-2w
探访_1w
数量_-1w
游客_-2w
加拿大_-3w
事态_1w
加拿大_-2w
国务卿_2w
加拿大_-1w
会_1w
创_-2w
借_-2w
暗示_1w
会谈_2w
大批_-1w
诈骗_-2w
Ef01_s
希腊_-3w
制裁_-1w
援手_-1w
18.5亿_2w
岛_2w
直攻_2w
菲日_-2w
顺利_-1w
伊斯坦布尔_-2w
试飞_-1w
CF-18_-2w
柬埔寨_-1w
保法_-1w
不知_1w
阿方_2w
正轨_1w
资_-1w
训练_-1w
不要_1w
庆祝_1w
日南海_1w
内陆_2w
马尔代夫_-1w
商讨_-1w
期盼_-1w
解放军_-3w
陆续_-1w
商讨_-3w
诉讼_-3w
自杀式_1w
合作区_-1w
引导_2w
东西_-2w
海峡_-1w
伤害_0w
磋商_2w
事实_2w
引导_1w
著名_1w
满_-2w
举_2w
韩婉_-1w
外相_-2w
生命_1w
元_-3w
也_1w
嘉宾_-1w
祝贺_1w
伊斯兰国_-3w
战争_2w
中菲_1w
香港_-1w
下水_-1w
修宪_2w
造岛_-2w
深意_2w
F16_-1w
罕见_-2w
海滩_-2w
Ie08
龙_2w
第２１_-1w
总统府_-1w
Hb09
进行_2w
国外_2w
系_2w
同意_-3w
特使_-3w
伤塔利班_-1w
７_-3w
解雇_0w
同意_-2w
研究_2w
解雇_1w
特意_2w
2014_-3w
解雇_2w
国外_1w
栖_-3w
基辅_-1w
所谓_-3w
远东_-1w
大势_-1w
弹劾_1w
委员会_2w
划红线_-2w
弹劾_0w
战果_1w
印尼_2w
槿惠_2w
搅乱_2w
总体_2w
出手_-3w
陆基_2w
警告_2w
出手_-2w
造_-3w
抓获_2w
牺牲_2w
不足_-2w
洲际_2w
遣台_-2w
缺_-2w
解除_1w
巴黎_-1w
美台_1w
完成_2w
巴_2w
双龙_-2w
亮相_2w
东_-2w
双龙_-3w
普天间_-2w
头目_-3w
拦截_-3w
发动机_-1w
舰空_1w
研制_2w
报道_1w
拦截_-2w
抨击_1w
旨_2w
日军_-2w
抨击_2w
拦截_-1w
巨舰_-1w
为何_1w
婉拒_-2w
联邦_-2w
轰炸_-3w
交易所_-1w
事件_-1w
力劝_-1w
强调_-3w
和谈_-2w
调查局_-1w
军事_-2w
没法_-1w
事件_-3w
选_1w
超_1w
加沙_2w
潘基文_1w
狂言_-1w
发展_-3w
35_2w
激光_1w
F-16_-2w
驱逐舰_1w
通过_-1w
运用_1w
海滩_-1w
7.2_-2w
无限期_-3w
意图_1w
不要_-1w
单独_-1w
编队_2w
利比亚_-1w
何种_-2w
专家_-2w
登陆_-2w
稳健_2w
停止_2w
意外_2w
机密_1w
沈阳_-2w
不要_-3w
部长_1w
不断_2w
抛弃_-2w
侵略_0w
研制_-2w
If18
突然_-1w
》_-2w
16_2w
共_-3w
收复台_-2w
If21
正在_1w
》_-1w
援助_-2w
科学家_2w
共_-1w
强烈_-2w
证据_-3w
强制_0w
德穆尔_-1w
竞赛_2w
法国_2w
援助_-1w
永暑礁_1w
乌方_-2w
特使_2w
沉_1w
理性_-2w
军备_-1w
危地马拉_-2w
Hc26
关税_-2w
战斗_2w
恐袭_1w
方式_-1w
2_-3w
波_-1w
白宫_2w
任何_-2w
驶离_2w
创造_1w
需要_-1w
步骤_-3w
的_-3w
也_-2w
卡梅伦_-1w
需要_-2w
延迟_1w
电
无可非议_1w
需要_-3w
金正_-3w
加速_-3w
声速_2w
略
抗日_-1w
宣传_2w
无人机_1w
考虑_1w
经验_1w
妥协_0w
无人机_2w
扣押_-2w
太平洋_-3w
干_1w
炸弹_2w
赔偿_2w
鲜血_1w
捕捞_-3w
即使_-3w
空战_1w
很多_2w
互联网_-1w
无关_2w
印军_1w
能力_2w
搜寻_-2w
争议_-2w
打_-2w
能力_1w
推迟_-1w
达_-3w
强硬_-2w
坐_2w
推迟_-2w
感谢信_-1w
大臣_-1w
击_1w
土豪_1w
Gc03_s
核武器_1w
管理_1w
恐怖_-2w
推迟_-3w
卫星站_-2w
官方_2w
情报_-2w
参加_2w
拟派_-3w
威胁_2w
双航母_-3w
Ia11_s
泰国_-3w
联合国_-1w
无视_-2w
论坛_-1w
试验_1w
情报_-3w
配合_-1w
开战_-3w
兵力_-2w
北极圈_-3w
回答_1w
难_2w
妨碍_2w
购俄制_-3w
数千_-3w
谁_-3w
具备_-1w
潜航_-2w
批_-1w
Ga12_s
地区_-3w
建筑家_-1w
吉斯坦_-2w
30_-3w
批_-2w
声速_-2w
鸟礁_-3w
”_2w
防止_-2w
4万_1w
赞成_-3w
F22_-2w
坦克_-3w
F22_-1w
坦克_-2w
部队_2w
震慑_-3w
经济_-2w
青春_1w
坦克_-1w
逐步_-1w
模拟_-2w
赞成_-2w
提出_-3w
西方_-1w
转移_1w
F-16_2w
阿_-2w
拒_-3w
火箭军_-3w
欧_-1w
核电站_-1w
采购_-2w
录音_-2w
让步_2w
竟_2w
拒_-2w
指控_-1w
七_-2w
总部_-2w
欧_-3w
没收_-2w
超级_-1w
穷_-1w
关注_2w
F-22_-1w
太空_-3w
驳斥_-3w
很_-1w
议长_-3w
赞_0w
合同_-3w
报怨_-1w
东南海_1w
冲突_-3w
超级_-3w
包机_-3w
论战_-1w
配_2w
射击_2w
开展_-1w
不得_1w
力度_2w
拒_-1w
榜样_-1w
竟疑_-2w
合同_-2w
回应_2w
公司_-2w
周年_2w
乌女_1w
巴铁_1w
技术_1w
深化_-2w
南苏丹_1w
应该_0w
外交_-3w
威胁_-1w
访问_-3w
军力_1w
利用_-2w
依然_-2w
应_0w
巴铁_2w
高层_-2w
访问_-2w
救助_0w
Di04
其_-3w
空降兵_2w
车臣_1w
航空兵_-3w
进展_-1w
安理会_1w
容_-1w
1.5万_2w
Di24
遇害_2w
曼谷_-2w
招金_-2w
策划_-1w
作战_1w
信息_-1w
指控_0w
折磨_-1w
提出_0w
出逃_1w
恐吓_-3w
分_-2w
录音_-3w
虽_-1w
新安_-2w
助_-2w
金_1w
分_-3w
怎么_-1w
毫米_-2w
庇护_2w
提高_2w
先发制人_1w
入役_-3w
威胁_-2w
航线_-1w
百万_2w
遭日_-3w
敌人_-2w
揭开_1w
印尼_-1w
使命_-1w
态度_-1w
内政_2w
决心_1w
菲签_-2w
剑拔弩张_-2w
乘客_-2w
霸权主义_1w
燃料_2w
埃媒赞_1w
局长_2w
专利_-1w
医疗队_-1w
法院_-1w
不满_2w
太_-2w
乌方_2w
苏_2w
协定_2w
恩发_-2w
目标_2w
伤_1w
扣留_-2w
纪念_-2w
开启_-2w
金枪鱼_-2w
沦为_2w
承诺_-2w
能否_-1w
为什么_2w
最近_-2w
延伸_1w
全民_1w
12_-3w
承诺_-3w
抗议_2w
禁售_-2w
）_-1w
韬光养晦_1w
必须_1w
中巴合_1w
绝食_1w
代总统_-1w
放_2w
圈_-2w
6K_2w
绝食_0w
延伸_-1w
世界杯_1w
边境_1w
时间_2w
抗战_-1w
S400_-1w
6月_-2w
重兵_-2w
边境_2w
时间_1w
加大_-1w
俞正声_-3w
赞扬_0w
船体_2w
制约_-2w
试验_-2w
正面_-1w
停火_-1w
力量_-3w
加强_0w
制约_-1w
第25_-3w
你_1w
讨论_-2w
阿根廷_1w
He08
讨论_-1w
警力_-1w
想象_-3w
峰会_-2w
周_2w
力量_-1w
外国_2w
才_-3w
出卖_2w
９·３_-2w
超越_-2w
短期_1w
索尼_1w
－磨丁_-3w
舰艇_1w
双边_1w
正当_2w
抵达_-2w
备战_1w
双方_-2w
白皮书_-3w
承认_2w
挪威_-3w
涉弊案_-3w
派_2w
请求_-2w
局势_-3w
系统_-1w
选举_-1w
北部_-3w
远_2w
记者_-2w
请求_-3w
反省_-2w
布雷顿_2w
阿_2w
６．８_1w
局势_-1w
缺乏_2w
救人_-1w
猜测_2w
信号_2w
成果_2w
4月_2w
缺乏_1w
武装力量_-1w
前_1w
对方_-1w
局势_-2w
强制_-3w
造反_0w
取消_-1w
贵金属_-3w
取消_-2w
表示_2w
北部_-2w
列装_-3w
杀伤力_1w
认清_1w
我军_-2w
缓和_-3w
取消_-3w
环_-3w
抓捕_-2w
我军_-3w
不如_2w
保护_1w
成员_1w
建立_-1w
科技委_-1w
警方_2w
下令_0w
人工岛_-2w
高铁_-1w
遇难_2w
洛·马_-3w
领土_2w
下令_2w
亚_2w
武官_-1w
Gc01_s
空军_1w
死_-3w
22_1w
希望_2w
蔡英文_1w
国防_-2w
不再_-1w
希望_1w
单_2w
作_-3w
马航_2w
练_-3w
海_-3w
印欲_1w
演_-3w
担忧_0w
政治_-1w
保留_1w
停火_2w
-30_-2w
反应_2w
辞职_-1w
隔离_1w
古_-2w
海岛_-2w
－２０１６_-3w
结
选举_1w
经济_1w
抛弃_2w
客机_-3w
嘴炮_-1w
单边_-3w
飞越_-3w
众怒危地马拉_1w
尽快_-1w
盛赞_-1w
首日_1w
试图_-3w
通_-3w
拟购_2w
派_-1w
飞行_-3w
加入_-1w
发_-2w
首席_1w
登舰_-1w
弃_-3w
平安_1w
正色_-1w
军迷_-3w
红旗9_1w
发_-3w
追_2w
防空区_-2w
单边_-2w
特意_-1w
巡航_-2w
早已_2w
国际_-2w
友好_2w
曝光_-1w
巡航_-3w
淡化_1w
清洗
寒冬_2w
直接_2w
调解_-3w
友好_1w
不得_-1w
方面_1w
"_-2w
增加_-2w
受害者_-1w
款_2w
军机_-2w
永暑礁_-3w
战士_-1w
类_-2w
菲律宾_1w
情报_1w
从_-3w
Hj28_s
ns_-3t
:
叙_-1w
技术_-1w
发出_-1w
技术_-2w
演练_0w
游行_-2w
胁
能_-1w
军队_-1w
纪念_0w
飞行_2w
Ib21_s
伊_-3w
Dk14
脱
击落_0w
更_1w
更_2w
分子_2w
Hb01_s
别_1w
公开_0w
关岛_-2w
舰_2w
转向_0w
Hg04_s
朝_-1w
Hi57_s
报告_-1w
航
质疑_0w
朝_-3w
朝_-2w
爆炸案_0w
战机_1w
5_1w
a_0t
5_2w
驻_-3w
挑衅_0w
、_-3w
战机_2w
反对_1w
a_2t
a_-2t
反对_0w
a_1t
a_-3t
外交_2w
武器_-1w
不安_0w
Hg08
Hg06
Hg10
反对_2w
公布_0w
朝鲜_-1w
旅_-1w
IS_-2w
Hj64_s
裁军_0w
Hg14
侦察_-3w
Hg17
民众_-1w
中_-2w
叙_-2w
中_-3w
IS_-3w
ns_-2t
的_2w
遭_-2w
朝鲜_-3w
美舰_1w
Hi31_s
遭_-3w
的_1w
ns_-1t
1_s
遭_-1w
朝鲜_-2w
民众_-3w
a_-1t
IS_-1w
武器_-3w
Fa06
永兴岛_-1w
大_2w
国产_-3w
欧洲_-2w
等_-1w
喝彩_0w
部队_-1w
承诺_0w
欧洲_-3w
落
Fa01
Fa17
国会_-1w
以色列_-1w
Hm01_s
国会_-2w
一致_1w
以色列_-2w
挑战_0w
掌握_0w
名_-3w
望_1w
名_-2w
印度洋_1w
解决_1w
Hi09_s
大_1w
澳大利亚_-3w
日本_2w
无法_2w
韩_-1w
澳大利亚_-2w
Gb19_s
演习_2w
四_1w
行动_-2w
在_1w
已_2w
反恐_0w
Gb06_s
在_2w
已_1w
前_-3w
前_-2w
日本_1w
演习_0w
外媒_-1w
释放_2w
中国_-3w
军演_-2w
土_-2w
中方_-3w
推销_0w
中方_-1w
研发_0w
中方_-2w
释放_0w
Hb02_s
中国_-1w
中国_-2w
土_-1w
Fa01_s
没有_2w
对_-2w
确保_0w
欲_-2w
但_-3w
Hi45_s
对_-3w
欲_-1w
斯诺登_-1w
阻挠_0w
突击_0w
海军_-3w
反恐_1w
null_-3t
null_-3w
韩_-2w
联合_1w
海军_-2w
入侵_0w
null_-2t
突击_2w
null_-2w
坚决_1w
联合_2w
韩_-3w
海军_-1w
F35_-3w
军情室_-1w
null_-1w
null_-1t
Hh01
答_0w
警戒_0w
增兵_0w
望_0w
等_2w
地方_1w
Je04_s
wp_1t
i_-3t
wp_2t
i_-2t
附近_-2w
Hi32_s
i_-1t
附近_-3w
搞_1w
wp_0t
Dk17_s
损害_0w
次位面_-1w
俄_-2w
衅
行
wp_-3t
运_1w
表
俄_-1w
wp_-2t
负责_1w
损害_2w
逮捕_0w
:_0w
拟_-1w
:_1w
极端_-2w
d_-3t
空袭_0w
俄_-3w
被
袭
部署_2w
澳_1w
d_-2t
空袭_1w
裁
心神非马鹿_-1w
至少_1w
部署_1w
千_2w
空袭_2w
部署_0w
至少_2w
Ib10_s
战区_-2w
Hb03_s
首_-3w
捕食者_2w
q_2t
战区_-3w
首_-2w
无人机_-1w
安倍_-1w
新_2w
首_-1w
级_-1w
d_-1t
对_2w
新_1w
安倍_-3w
系统_2w
要
赞成_0w
建设_0w
Hc10_s
wp_-1t
对_1w
见
观
视
Ka01
Ka09
高清_2w
Ka08
Ka07
Ka06
人_2w
解
Hc23_s
言
Ka23
Ka24
Ka29
出售_0w
Ka12
Ka11
宣布_0w
Ka16
Ka15
Ka14
Ka18
Ka17
个_-3w
美方_-3w
建_-3w
Ka30
实现_0w
Ka33
Ka32
Ka31
个_-2w
Ka35
Hg06_s
无法_-1w
乌_1w
军_2w
Hi02
无法_-3w
Hi05
Hi03
Gb04_s
境内_2w
如果_2w
最_2w
Hi21
Hi27
Hi25
Hi29
“_2w
修建_0w
Hi31
Hi12
Hi14
Hi18
拟_-3w
美国_-3w
普京_2w
Hi53
Hi34
Hi32
拟_-2w
Hi39
Hi36
警
Hi37
东海_-1w
大国_2w
以色列_1w
普京_1w
Je05_s
Hi41
Hi40
Fc04
轰炸机_2w
美国_-1w
美方_-1w
冲突_0w
Fc10
上_2w
Hi56
Hi57
订
认
美国_-2w
讨
让
：_-1w
训
议
许
论
设
访
证
评
诉
：_-2w
防_1w
试
：_-3w
“_1w
说
请
组建_0w
诺
读
是_1w
调
美智库_-1w
谈
非法_2w
谋
Dn04
Dn08
Dn09
匈牙利_-2w
谢
伊拉克_-1w
谴
五角大楼_-2w
缅甸_1w
五角大楼_-1w
作战_-1w
打造_0w
必要_-1w
越南_2w
潜艇_2w
恢复_0w
越南_1w
作战_-2w
用_-2w
明年_-1w
是_2w
用_-3w
雷达_-2w
华_-1w
外交_0w
撤军_2w
最后
举行_-3w
华_-2w
nh_2t
杀害_1w
国际_2w
责
举行_-2w
质
武装_-1w
购
华_-3w
nh_1t
杀害_0w
威慑_2w
国际_1w
撤军_0w
Hg07_s
雷达_1w
Hb04_s
武装_-2w
军费_2w
ns_1t
赞
武装_-3w
赴
起
呼吁_0w
ns_2t
反对派_-1w
Kb02
Kb01
Kb07
Kb06
Kb05
局长_-1w
崛起_2w
Hc11_s
因_-3w
西北风_2w
Di23_s
英_1w
威慑_0w
反_1w
导弹_-3w
战略_2w
南海_2w
Hi34_s
下
不
Gb03_s
计划_2w
ws_-2t
德_-2w
严
南海_1w
反_2w
记者_1w
ws_-3t
举
生效_0w
4_1w
下水_0w
参观_0w
收复_0w
华媒_-1w
习
买
游行_0w
Hh01_s
巴_-2w
Hj03
为_-3w
事
采购_0w
v_0t
交
亮
大陆_-1w
交战_0w
Hj26
Hj27
Hj25
介
Hj29
架_-2w
承认_-3w
歼_1w
付
Kb01_s
纳土纳_-2w
发言人_-1w
v_2t
土耳其_1w
Hj12
Hj10
Hj19
谴责_0w
发言人_-2w
v_1t
任
ws_-1t
Hj44
Hj42
Hj49
访问_0w
军演_0w
会
Hj51
Hj36
Hj40
Hj41
Hj67
He03_s
作
美媒_-1w
转
防空_-2w
Hm04_s
轰
西方_1w
Hj63
使
Hj61
提供_0w
致_1w
国家_1w
供
航空_-3w
欧洲_1w
Hi21_s
Fc04_s
国家_2w
侵
Je06_s
达
促
过
返
进
导弹_-1w
军演_2w
保
迟
军售_2w
领海_-2w
迫
修
美菲_-1w
导弹_-2w
和平_2w
年_-2w
选
透
逐
通
造
年_-1w
逮
r_-3t
Je08_s
逼
五_-2w
严惩_0w
r_-2t
道
停
领先_0w
遭
r_-1t
？_1w
邀
台湾_-3w
对峙_0w
对峙_-2w
次_2w
台湾_-1w
协议_-1w
部
Hj19_s
Dk12_s
Hc12_s
空军_-2w
接收_0w
空军_-3w
Di20_s
允
先
光
日_2w
配
日_1w
Kc01
Kc04
入
绝不_2w
公
关
兵
起诉_0w
国务卿_-1w
军
商讨_0w
轰炸机_-3w
Kc09
Kc08
兵_-2w
冲
决
Kc10
交付_0w
港口_2w
采
释
重
轰炸机_-1w
Ig02_s
继续_-1w
出
击
空军_-1w
阅兵_2w
后_1w
危机_-1w
建议_-1w
判
制
Gb15_s
拒_0w
合作_-2w
参与_-1w
请求_0w
不_-2w
爆炸_-1w
不_-3w
都_-2w
岛礁_2w
表示_-1w
Hi22_s
美军_1w
艘_2w
加
美军_2w
舰艇_-2w
动
助
防长_-1w
媒称_-3w
正恩_-1w
服役_0w
防长_-2w
包
海外_-3w
成功_-1w
总统_2w
俄媒_-1w
总统_-3w
总统_1w
华
卖
总统_-2w
国家_-1w
海外_-2w
维护_0w
提高_-1w
总统_-1w
建议_1w
若_-3w
国家_-2w
援助_0w
压
建议_0w
Eb22
国家_-3w
援助_1w
谈_-3w
Hm05_s
强调_0w
去
参
阅兵_0w
避难_-1w
反
发
上将_-1w
取
援助_2w
受
Hj42_s
美军_-2w
上将_-2w
美军_-3w
吁
合
美军_-1w
安保法_2w
向
“_-1w
扭转_2w
避难_2w
否
曝_0w
巴基斯坦_-3w
启
“_-3w
告
爆发_2w
允许_0w
巴基斯坦_-1w
Je09_s
俄罗斯_1w
呼
p_2t
军_-1w
和
爆发_0w
击毙_0w
议会_-1w
p_1t
Hc26_s
Hb06_s
通过_0w
军_-2w
岛礁_-1w
出动_0w
销
工程_-2w
攻击_0w
300_2w
Kd02
Kd01
Kd05
Ig03_s
售
商
击毙_1w
感谢_0w
展示_0w
机群_-3w
有_1w
看_-2w
喝
土耳其_-3w
有_2w
Jd11_s
曾_2w
Ja04
中方_1w
布鲁塞尔_-1w
土耳其_-2w
人_-1w
实施_0w
展开_0w
说_0w
问
闯
是否_1w
指_-3w
人_-2w
阅
访华_1w
日_-2w
开始_-2w
Hi23_s
广岛_1w
访华_0w
袭击_2w
阻
日_-3w
陆
韩国_2w
媒体_-1w
帮助_0w
媒体_-2w
袭击_0w
斯里兰卡_1w
Hi36_s
击沉_0w
ni_-3t
称_-3w
集
回
称_-2w
共享_2w
围
称_-1w
战机_-1w
震
萨德_-3w
附近_2w
奥巴马_1w
曝光_0w
三_1w
萨德_-2w
将_-3w
阅兵式_1w
地
露
个_2w
ni_-2t
满意_0w
战机_-3w
萨德_-1w
将_-2w
坏
视频_-2w
声称_0w
ni_-1t
Ec06
将_-1w
Ie11_s
革
德国_-2w
和谈_0w
军人_2w
训练_0w
阿根廷_-2w
推进_-2w
核_-3w
发动_-1w
Hm06_s
正在_-1w
推迟_0w
最新_1w
ws_2t
护航_0w
埃及_-1w
对抗_2w
Bk13
陆军_2w
求购_0w
b_-1t
ws_1t
要_2w
渔船_-3w
领
对抗_0w
核_2w
Hc14_s
增
改革_0w
黑客_-1w
第3_1w
参演_0w
飞
细节_2w
改革_2w
阻止_2w
声
Hc27_s
两_2w
备
政府_2w
反_-3w
半岛_-1w
复
施压_0w
外
为_1w
阻止_0w
与_2w
联合_-1w
失
内_-3w
为_2w
官兵_-3w
Hi37_s
半岛_-3w
与_1w
政府_1w
Jb01
Jb04
50_2w
达成_0w
名_2w
Hm01
Hm05
Hm04
Hm09
(_1w
艘_-3w
两_1w
3_1w
(_2w
威
菲_-1w
j_0t
3_2w
合作_1w
Hm07_s
日军_1w
u_-1t
菲_-2w
合作_0w
伊朗_1w
u_-2t
越南_-3w
越南_-1w
菲_-3w
印度_-3w
Jc05_s
j_2t
人道主义_-1w
u_-3t
u_1t
j_1t
合作_2w
协调_1w
Ih10_s
驱
驳
驻
建_0w
验
为何_-2w
骚
司令_2w
尹卓_-1w
u_2t
关系_-2w
示威_-1w
nl_1t
打击_2w
澳_-2w
Ga06_s
nl_2t
持续_-1w
建_1w
Hj57_s
后_-1w
Kb06_s
约_1w
nt_-1t
伊斯兰国_1w
Ed20
驱逐_0w
Ed01
Ie12_s
澳_-3w
nt_-2t
伊斯兰国_2w
华阳礁_-1w
状态_1w
Da06
官员_-1w
开放_0w
Da12
要_1w
韩_1w
Da01
印度_-1w
Da26
b_-2t
Da27
安
敦促_0w
韩_2w
伊拉克_2w
Ed61
实
b_-3t
审
印度_-2w
宣
赴_-2w
船员_-1w
害
Ed52
nt_-3t
要闻_-2w
对
寻
射
南沙_2w
j_-2t
扣留_0w
紧急_-1w
就
j_-3t
渔船_2w
战略_-1w
禁止_0w
大使_-3w
Hb08_s
今日_1w
展
称_2w
媒_-1w
nl_-3t
上_-2w
称_1w
上_-1w
部署_-3w
关系_1w
和_1w
科莫_2w
巴基斯坦_1w
nl_-1t
Kf02
再_-2w
关系_2w
安倍_1w
Da09_s
nl_-2t
突破_0w
Ia08_s
峙
印度_1w
东部_-3w
Kf14
印度_2w
再_-1w
外国_-2w
钓鱼岛_1w
打击_0w
警方_-2w
（_1w
打击_1w
严重_-1w
Jc01
Jc05
缓和_0w
潜艇_-3w
和_2w
潜艇_-2w
Hn02
Hn03
越_-2w
进入_0w
IS_2w
潜艇_-1w
称_0w
恶化_-3w
IS_1w
指责_0w
进入_2w
张召忠_-1w
巡
Hn11
布
希
Id06_s
带
席
帮
警惕_0w
北约_1w
干
应
干涉_0w
Hn02_s
接受_0w
Hi25_s
加强_-1w
日本_-1w
南海_-3w
闯_0w
证实_0w
Hi12_s
加强_-2w
士兵_1w
南海_-2w
Ee05
Ie13_s
加强_-3w
成_-3w
破坏_0w
建
闯_2w
南海_-1w
开
弃
Ee36
基地_-1w
鼓
失去_0w
引
村庄_-1w
Ee40
Ee43
打击_-3w
弱
强
道歉_0w
基地_-3w
日本_-2w
必要_2w
彩
日本_-3w
肯尼亚_1w
役
已_-1w
没_2w
大使_-1w
澳媒_-1w
北约_-3w
高官_-1w
已_-2w
没_1w
被_-1w
大使_-2w
"_1w
行动_0w
优势_-1w
被_-2w
Bm13
8_1w
被_-3w
念
行动_2w
j_-1t
我们_1w
反驳_0w
态
巡航_2w
nd_-2t
新闻_-2w
辽宁舰_1w
d_2t
Hc16_s
境内_-1w
缅甸_-1w
nd_-1t
共同_-1w
日方_2w
d_1t
恐
人员_-1w
被_1w
恢
将_2w
人员_-3w
Hc03_s
被_2w
逼_0w
Ja03_s
Jd08
Jd07
Jd06
爆炸案_-3w
惕
扣押_0w
Jd11
Jd10
nd_-3t
将_1w
惩
激光_-3w
海盗_-1w
Jd01
Jd03
军人_-1w
意
制裁_0w
数千_1w
感
军人_-2w
美_2w
紧急_1w
太_2w
愿
军机_1w
监视_0w
美_1w
慑
制裁_2w
p_-1t
试飞_0w
p_-3t
制裁_1w
p_-2t
延长_-1w
外交部_-1w
及_-2w
叙利亚_1w
对象_1w
英媒_-3w
叙利亚_2w
英国_-3w
这_2w
Jd01_s
计划_-3w
设_0w
集会_0w
海军_2w
成
戒
战
永兴岛_1w
敲打_0w
Hj20_s
截
从_2w
横行_0w
要求_2w
手
打
韩国_-3w
问_2w
要求_1w
扣
弃_2w
批
舰_-1w
承
要求_0w
阻_0w
美_-1w
Hi13_s
Hm09_s
向_-2w
抗
抛
放弃_0w
从_1w
护
Ie14_s
向_-3w
抵
敌机_1w
押
他们_1w
Dc01
美_-3w
举行_0w
拒
乌克兰_1w
美_-2w
拦
发生_0w
秘书长_-1w
乌克兰_2w
持
指
政府_-1w
挑
核试_0w
挠
政府_-2w
参与_1w
捕
损
攻击_-3w
无视_0w
成_2w
或_-3w
T-90_-2w
掌
正式_-2w
发出_0w
进入_-1w
医院_-1w
接
控
或_-2w
推
韩国_-2w
舰_-3w
巡航_0w
或_-1w
司令_-1w
提
司令_-2w
政府_-3w
握
援
Ib03_s
nz_-3t
大_-3w
高超_2w
韩媒_-1w
网络战_0w
难民_-1w
连_-2w
首_2w
triggerType:6
triggerType:7
triggerType:4
triggerType:5
triggerType:2
triggerType:3
triggerType:1
大_-2w
盟友_-1w
携
triggerType:8
爆炸_0w
triggerType:9
大_-1w
Fc10_s
Hc17_s
15_-2w
难民_-2w
航行_0w
同时_-1w
爆炸_2w
巡洋舰_-2w
首_1w
Je08
Je06
Je05
实施_-1w
问题_-3w
Je11
Je10
Je14
Je13
Je12
撤
问题_-2w
推进_2w
Je04
寻求_0w
Je02
Je01
nz_-1t
盟友_-3w
实弹_-1w
下_-2w
Fd08_s
窃取_0w
Ib01
Ib03
辆_2w
nz_-2t
谈判_0w
Hc04_s
批_0w
了_1w
Ib21
Hi27_s
会晤_0w
支
收
改
攻
放
Hi14_s
发射_0w
效
伊朗_-2w
救
伊朗_-3w
实施_-2w
敦
于_-2w
通牒
敲
Ja04_s
2_1w
美韩_-1w
炮击_0w
习近平_-1w
少将_-3w
新
国务院_-2w
或_1w
施
钓岛_-1w
i_1t
或_2w
买_0w
无
试射_0w
英国_1w
少将_-1w
扬言_-3w
i_0t
二战_2w
取消_0w
决议_2w
i_2t
遭_2w
代表_-1w
外交部_-3w
m_-1t
晤
外交部_-2w
英媒_-1w
救援_0w
拒绝_0w
造_2w
不_2w
Top10_-1w
m_-3t
不_1w
牵制_0w
机场_-1w
就任_0w
国_-3w
m_-2t
国_-2w
批_2w
遭_1w
曝
Hi01_s
国_-1w
金_-2w
携手_0w
嫌犯_-1w
推动_0w
服
望
大规模_-1w
评_0w
欧盟_-3w
夺_2w
杀
问题_-1w
今年_-3w
核武_1w
来
Bo27
欧盟_-1w
一_-3w
保持_2w
Hc18_s
应_-3w
今年_-1w
回应_-2w
保持_1w
应_-2w
架
-20_2w
回应_-3w
Hf03_s
应_-1w
查
战区_2w
绑架_0w
发射_-2w
Hc05_s
核
裁军_-3w
转向_-2w
triggerType:20
重_1w
能源_-2w
遭袭_0w
triggerType:13
triggerType:14
triggerType:11
triggerType:12
triggerType:17
triggerType:18
时隔_-3w
triggerType:15
triggerType:16
triggerType:10
副_-2w
triggerType:19
仍_-1w
出席_0w
Ic05
声明_-3w
导弹_1w
参议员_-1w
挑事_0w
海上_1w
导弹_2w
航母_-3w
航母_-2w
也门_-3w
就_-1w
也门_-2w
完成_-3w
阅兵_-1w
世界_-1w
斯里兰卡_-1w
就_-2w
使用_0w
Ih02_s
使用_1w
完成_-1w
30_1w
乌_-2w
仲裁_-2w
某_-2w
也门_-1w
Je10_s
就_-3w
示弱_0w
四方_-2w
审判_0w
Ha01_s
欲_2w
但_2w
沙特_-3w
欲_1w
横
发生_-3w
提议_0w
Ie03_s
沙特_-1w
每年_-1w
Hj22_s
和_-2w
Hi02_s
和_-1w
和_-3w
Fa31_s
抵达_0w
军媒_-1w
正式_1w
Bp17
罗援_-1w
调查_0w
韩军_1w
多_2w
王牌_2w
歉
止
步
奥朗德_-1w
毁_0w
编队_-1w
n_0t
c_1t
海上_-1w
排除_2w
增加_0w
n_2t
军舰_-1w
毁
调查_1w
Hc19_s
尽早_-1w
毙
Hn05_s
Ga02_s
n_1t
邀请_0w
c_2t
奥巴马_-1w
好_2w
水
同_-2w
组织_2w
求
同_-3w
乌克兰_-1w
Id04
Hc06_s
炸_1w
Fb01_s
Id18
null_2t
Id16
null_2w
”_-1w
沉
Id21
签署_0w
Id23
Id07
Id08
null_1t
Id06
null_1w
Id10
Id11
Id14
”_-3w
”_-2w
注
图_2w
及_2w
分子_-1w
军评_-3w
还_2w
派
访_0w
测
最后通牒_0w
炸弹_-1w
军评_-1w
Hi03_s
吁_0w
在_-2w
消
涉
乌克兰_-3w
Hi29_s
在_-3w
乌克兰_-2w
军方_-1w
透露_0w
印_-2w
在_-1w
印_-1w
军方_-3w
Ie04_s
要_-3w
最_-2w
轰炸_0w
登陆_0w
游
会_2w
：_2w
Ha02_s
希腊_-1w
要_-1w
制裁_-3w
谋杀_0w
：_1w
希腊_-2w
：_0w
级_2w
简氏_-3w
获_-1w
If11_s
军官_-1w
保法_-3w
制裁_-2w
Hj10_s
简氏_-1w
仍_1w
满
航母_-1w
演
参加_-2w
支持_0w
打_2w
德国_1w
防空_1w
Gb21_s
增强_2w
印媒_-1w
战力_1w
否决_0w
基地_2w
巴西_-3w
防空_2w
基地_1w
公民_-3w
Hc07_s
我_1w
首相_-2w
解读_0w
磋商_0w
介入_0w
Id21_s
c_-2t
9月_-3w
造岛_-1w
Ie02
抵_-3w
c_-3t
罕见_-3w
进行_0w
中巴_1w
火
警告_0w
Ie10
Ie13
出击_0w
俄_1w
架_2w
国_2w
解放军_-1w
俄_2w
Hd01_s
炮
进行_1w
炸
Hb04
Hb05
Hb02
特使_-1w
地震_0w
c_-1t
研究_0w
印尼_1w
发展_2w
俄罗斯_-1w
俄罗斯_-2w
1_1w
听_2w
俄罗斯_-3w
1_2w
为_-1w
:_-3w
为_-2w
新型_1w
新型_2w
用_2w
n_-1t
隐形_2w
爆
火箭_-2w
仲裁_2w
陈虎_-1w
巴_1w
岛屿_-1w
火箭_-3w
菲_1w
11_1w
中_1w
Hb10_s
先_-1w
亮相_0w
Je12_s
中_2w
危机_2w
火箭_-1w
美国_1w
牵
王毅_-1w
研制_0w
v_-2t
美国_2w
:_-1w
v_-1t
:_-2w
购_0w
军报_-1w
需要_1w
解放军_1w
军事_-1w
Ka15_s
v_-3t
购_2w
Hj11_s
Ga13_s
Hi53_s
猜
受_-1w
通过_-2w
Fa07_s
发展_-2w
停止_0w
中国_2w
开启_0w
现
中国_1w
炒作_2w
专家_-1w
鼓动_0w
埃及_1w
决议_-1w
战争_1w
Ih05_s
英_-3w
If24
恐袭_0w
G7_1w
Hc06
Hc09
Hi18_s
大学_-2w
If26
俄军_1w
英_-2w
Hc03
Hc04
美方_1w
武器_2w
次_-2w
Hc18
Hc19
Hc16
Hi40_s
强烈_-1w
Hc22
武器_1w
Hc20
Hc23
军事基地_1w
近_-2w
危地马拉_-3w
Hd02_s
近_-3w
群岛_-1w
次_-1w
军武_-2w
世界_1w
加速_-1w
生
有_-2w
用
政府军_2w
总理_-1w
带来_0w
Hj12_s
新_-2w
有_-3w
凤凰_-2w
留
是_-1w
的_-1w
新_-1w
总理_-3w
疑
被捕_0w
是_-3w
新_-3w
数万_-3w
开展_0w
Ha04_s
Hi05_s
军援_0w
宪法_2w
航母_2w
Da03_s
组织_-1w
Hg14_s
Hb11_s
强硬_-1w
登
联合国_-3w
试验_0w
新型_-2w
港媒_-1w
联合国_-2w
设施_-3w
核武器_2w
恐怖_-1w
-2016_-2w
泰国_-2w
新型_-3w
Hf07_s
会见_0w
监
试验_2w
巨头_-3w
参加_0w
威胁_0w
回答_0w
相
模拟_-1w
主张_-1w
6_1w
批_-3w
经济_-1w
对付_2w
打破_0w
大规模_1w
地区_-2w
腐败_2w
m_1t
向_2w
b_1t
”_1w
b_2t
向_1w
Hi41_s
对付_0w
两_-2w
Ig01
m_2t
两_-3w
西方_-3w
肩_-3w
伊斯兰国_-1w
Ig02
经济_-3w
伊斯兰国_-2w
事件_1w
大陆_1w
录音_-1w
请_1w
研
Hd14
破
太空_-1w
Hd01
售_0w
Ga03
Ga02
联合国_2w
大陆_2w
让步_0w
确
配_0w
q_-3t
回应_0w
赴_0w
Ga16
议长_-1w
q_-2t
其_1w
磋
警戒_2w
日方_-1w
两岸_2w
q_-1t
Ed44_s
Kc08_s
火箭军_-2w
射击_0w
越_2w
其_-1w
死_2w
军事_1w
协议_1w
其_-2w
nt_1t
示
袭_0w
边境_-1w
宣布_-2w
军事_2w
赴_2w
禁
若_1w
Di25
进行_-2w
边境_-3w
菲律宾_-1w
若_2w
Di10
Di11
进行_-3w
关注_0w
Hb12_s
ni_2t
离
菲律宾_-2w
作战_0w
菲律宾_-3w
与_-2w
先发制人_2w
nt_2t
称
与_-3w
协议_2w
台媒_-1w
钓鱼岛_-2w
外国_1w
重返_0w
钓鱼岛_-1w
印尼_-2w
承诺_-1w
来_-1w
台媒_-3w
太_-3w
进行_-1w
钓鱼岛_-3w
究
空
突
窃
表示_0w
来_-3w
Hf08_s
叙_1w
军队_1w
可_1w
苏_1w
叙_2w
立
印尼_-3w
涉嫌_-1w
Je14_s
国产_1w
军队_2w
可_2w
普京_-3w
进攻_0w
签订_0w
抗议_0w
普京_-1w
Jd07_s
重兵_-1w
答
抗议_1w
恐怖_2w
指_0w
签
新建_0w
加强_1w
军工_2w
恐怖_1w
Id23_s
Ih03
Ih01
Ih02
Ih05
指_2w
He03
He09
停火_-2w
He10
加强_2w
全面_-1w
朝_2w
Gb04
国防部_-1w
Gb03
朝_1w
国防部_-2w
难民_1w
Hd04_s
Hi07_s
难民_2w
备战_0w
Gb12
Gb14
美元_-1w
否认_0w
发_-1w
驻_0w
系统_-2w
安理会_-1w
承认_0w
就_2w
控制_0w
近_2w
捕食者_-3w
就_1w
前_2w
安理会_-3w
驻_2w
多_-2w
曾_-1w
涉嫌_1w
？_-2w
猜测_0w
索
多_-3w
直升机_-1w
我军_-1w
曾_-2w
？_-3w
转_-1w
怕_2w
派_0w
r_2t
r_1t
亚_1w
朝鲜_2w
朝鲜_1w
不满_0w
萨德_1w
马尔代夫_1w
日媒_-1w
出卖_0w
希望_0w
萨德_2w
Hb13_s
可_-1w
n_-3t
nh_-3t
n_-2t
空军_2w
军舰_2w
35_-3w
撤出_0w
Hc20_s
拦截_0w
选举_0w
护卫舰_-2w
Hg03_s
Hi56_s
保留_2w
10_1w
一_2w
点_-1w
一_1w
表态_0w
谈_0w
La03
派_-3w
外长_-1w
停火_1w
包围_0w
抛弃_0w
纪
Je02_s
确认_0w
练
组
极端_1w
磋商_-2w
外长_-3w
nh_-1t
自卫队_2w
绑
绝
技术_2w
宙斯盾_-3w
选举_2w
外长_-2w
应_2w
nh_-2t
维
Hi30_s
缓
波音_-1w
：
飞越_-2w
叙利亚_-1w
法国_-3w
Hj63_s
叙利亚_-2w
派_-2w
署
停火_0w
叙利亚_-3w
Hf03
法国_-1w
国际_-3w
Hf07
Jd08_s
军机_-3w
西沙_-2w
nz_2t
nd_2t
Ih07_s
法国_-2w
核潜艇_2w
东部_1w
nd_1t
"_-1w
Hf01
军机_-1w
什么_2w
军舰_1w
国防部_-3w
Gc01
Id11_s
发言_0w
nz_1t
耀
实力_-1w
却_-2w
菲律宾_2w
乔良_-1w
结盟_1w
射星_-2w
情报_2w
民兵_-3w
草案_-1w
号_-3w
邻近_1w
回击_-3w
从_-2w
安全_-2w
海洋_1w
军队_-2w
壮观_1w
五_1w
8_-3w
职
钓岛_1w
阿桑奇_1w
旅_-3w
争_1w
号_-1w
外出_-2w
填充_0w
核潜艇_-2w
能_-3w
核潜艇_-3w
野鸭子_2w
Dk05
搞_-2w
蓄谋_-3w
时间_-1w
培训_2w
留尼汪岛_1w
炮弹_-1w
核潜艇_-1w
收敛_-1w
之_-3w
锁定_0w
搞_-3w
坚决_-1w
盛赞_0w
军情室_-2w
Hb14_s
增进_2w
安全_2w
恐吓_0w
军情室_-3w
2万_-2w
更_-2w
政治_-2w
Dk30
增夺岛_1w
住_2w
撤船_2w
保释_0w
接触_-3w
抱怨_0w
窥探_0w
解决_-3w
介绍_0w
创下_1w
Di11_s
船长_1w
中断_2w
除掉_-1w
If04_s
杨洁篪_1w
动武_0w
扫射_0w
海参_-1w
今天_-1w
科摩多_2w
遣送_0w
舞
7月_-1w
到底_-1w
建厂_0w
国展_-1w
倾向_2w
变性人_-3w
营地_2w
F22_1w
热线_2w
首访_0w
生产_2w
舰队_-1w
利益_-2w
动物园_2w
死亡_-2w
项目_-1w
外困_2w
巨舰_2w
Hg17_s
生产_1w
舰队_-2w
3日_-1w
禁_1w
布防_0w
F-22_1w
做好_-1w
识别区_-2w
建造_2w
接装_1w
直击_-2w
短缺_-1w
权_-2w
间谍_2w
斯诺登_1w
搜索_0w
G7_-1w
潘_-2w
水上_2w
写入_-2w
核武器_-1w
见_2w
Hg11
维和_2w
核武器_-2w
亚_-2w
巴沙尔_-1w
贯彻_2w
投_-2w
Hg16
Hi44_s
获
港口_-1w
摧毁_0w
穆加贝_1w
Jd09_s
港口_-2w
Ih08_s
迫于_1w
阿勒颇_-3w
同声_-1w
任何_1w
促_0w
调_-2w
等_-2w
出口_2w
行刑式_-1w
肯尼亚_-3w
公开_-1w
霸道_-3w
尼日尔_-1w
早已_-1w
飞行员_-1w
叙军_-2w
美监_2w
社交_1w
外媒_-3w
军演_-1w
临时_-1w
承诺_2w
示好_0w
示威_2w
柬_2w
一致_2w
澳大利亚_1w
陆委会_-1w
重_-3w
以色列_-3w
陆上_1w
北斗_-2w
正视_-3w
移送_-2w
恐袭_-3w
不用_1w
开工_-1w
部属_0w
人道主义_2w
美舰_-1w
官方_-3w
６．８_-2w
尹卓_-3w
攻击型_-2w
东风_2w
传达_2w
诉讼_0w
土_-3w
积极_-3w
东风_1w
约谈_0w
推销_2w
表明_1w
挣脱_0w
海槽_-2w
议会_1w
布局_-2w
新安_1w
汽车_1w
核爆_-3w
拉拢_1w
建成_0w
对准_2w
议会_2w
新安_2w
斯诺登_-3w
白俄罗斯_-1w
政策_-3w
史无前例_2w
汶川_1w
追加_-1w
核弹_2w
出兵_0w
平壤_-1w
昂山_1w
客机_2w
给予_0w
工人_-1w
白俄罗斯_-3w
抢劫_0w
梦_-2w
核弹_1w
制造_-1w
太平岛_1w
城市_-2w
佐科_-1w
禁令_1w
城市_-3w
陆战队_-1w
特种部队_1w
越来越_2w
霍姆斯_-1w
Hh04
压制_-1w
亚洲_-3w
认为_2w
地方_2w
研究_-2w
煽风_-3w
犹太_-3w
非盟_1w
阅兵式_-1w
开_1w
网络_-1w
宣称_-2w
人民日报_-1w
开_-2w
卫星_2w
抢走_2w
会谈_-1w
政权_2w
紧张_2w
准备_-3w
侵彻_-2w
迫降_0w
融
海_2w
4000_-2w
双方_2w
用于_-1w
但_-1w
五_2w
清真寺_2w
出动_-2w
欲_-3w
F15_2w
C-802_2w
援手_2w
刊讽_-2w
基辛格_-1w
科技委_2w
军网_-1w
公报_-2w
夏季_-2w
大校_-1w
天堂_1w
考虑_-1w
至_-3w
进展_2w
返回式_2w
被迫_-1w
梦想_2w
出于_2w
第四_1w
大马_-2w
精锐_2w
Dm03
Dm04
第25_2w
外交部_2w
汉_-2w
外交部_1w
/_2w
特朗普_2w
7.2_1w
司令员_-2w
９·３_2w
极端_-3w
:_2w
侵犯_-2w
报_-3w
装
某国_1w
考虑_-3w
报_-1w
正_-1w
长剑_1w
大韩民国_2w
抢滩_1w
观察家_-1w
射_1w
艇_-1w
12月_-1w
AGM-154_1w
射击_-1w
面临_-1w
攻防_2w
停_1w
巡逻机_-1w
卡斯特罗_-1w
停_2w
态度_1w
Ka04
强化_1w
无需_1w
正_-2w
突然_2w
零星_-2w
政军兵_-2w
互相_-1w
吴胜利_-1w
生化武器_1w
S-400_1w
封锁_0w
甲板_2w
发声_-1w
指导_-2w
安插_-3w
领导人_2w
争夺_0w
摩洛哥_-1w
蔡英文_-1w
相关_2w
深度_-3w
枚_2w
蔡英文_-2w
美方_-2w
蔡英文_-3w
疑_2w
叙现_1w
誉
罕见_1w
暴徒_-1w
地雷_1w
国家级_-3w
展现_0w
水火
40万_1w
手_-3w
平安_-1w
深刻_2w
柬埔寨_1w
最_1w
美刊_-1w
运用_-1w
霸_-2w
数十_2w
本人_2w
Hi24
震慑_0w
只顾_2w
Hi28
Hi26
Hi10
邀_1w
拟_1w
扶持_0w
Hi20
苏丹_-2w
印度尼西亚_-1w
清单_1w
大战_2w
Hj40_s
囚犯日_-3w
Hi52
Hi33
-11_2w
加媒_-1w
自信_1w
暗指_2w
极其_2w
欲派舰_-1w
Hi42
暂停_0w
三_-3w
应对_1w
高_-3w
剽窃_0w
金珍镐_-1w
低空_1w
逾_2w
７．２_-2w
讼
讽
建制_-1w
保障_-3w
不久_-2w
资料_-1w
解密_-1w
获得_2w
戈兰_1w
Hi20_s
元_2w
基文_-1w
欧洲_-1w
搜集_2w
伊拉克_-3w
西北风_1w
放宽_0w
称赞_0w
查案_2w
维和_-1w
奉劝_0w
互联网_2w
大黄蜂_2w
炮击_-2w
前往_2w
尼泊尔_1w
武装论_-1w
箭_2w
前沿_1w
死亡_2w
防卫省_-1w
肩负_1w
防朝_1w
朝方_-2w
领海_1w
破冰船_1w
26_2w
外交_1w
合研_0w
死亡_1w
票_-1w
运送_-2w
离任_0w
参联会_-2w
刺疼_2w
印尼籍_2w
国防部长_-1w
公斤_-2w
科考_-3w
贺
呼吁_2w
2/3_-3w
赏
实拍_-3w
德奥默克尔_-1w
赠
欢迎_0w
5500万_1w
久_-1w
杀害_2w
Hn10_s
发现_2w
手记_-2w
警卫队_2w
当_1w
越
博科_-3w
停_-2w
核武库_-3w
Ig01_s
当_2w
首都_2w
中情局_-2w
国企_-2w
产品_-3w
希腊_2w
反对派_-2w
专家_1w
中情局_-3w
顺利_2w
首脑_2w
因_-2w
记者_2w
战略_1w
日元_-2w
幼狮_2w
办_2w
古巴_-1w
超出_1w
政府军_-2w
难民营_2w
核能_1w
4_2w
?_1w
政府军_-1w
判处_0w
谈判_-1w
迅速_-3w
予
攻击型_1w
争
承认_-2w
台湾_1w
岸防_2w
入_-2w
Hj23
逃脱_2w
迅速_-1w
Hj28
安保案_2w
中老_-1w
重点_2w
没收_0w
巴_-3w
驱散_0w
Hj43
佩服_-1w
Hj47
红场_1w
形成_-2w
防空_-3w
约翰·基将_-1w
清廷_-1w
安保_1w
新加坡_1w
5万_1w
因_2w
不容
住
054A_-2w
Hj59
Hj58
欧盟_1w
翻脸_1w
054A_-3w
韩籍_-3w
逐步_1w
海豚湾_2w
3_-3w
乌女_-2w
装备_-1w
出版_1w
演日_-2w
辞
枪击_0w
致_2w
到_2w
辩
尔_1w
辱
北朝鲜_-2w
欧洲_2w
迎
推出_0w
运
46_-2w
比_2w
初步_-3w
还
定期_-2w
俘
访问_2w
远
陈九霖_-1w
信
航空_-1w
出境_1w
最高_-3w
刚_1w
成立_0w
追
1.2亿_-2w
德_-3w
退
送
重点_-1w
盘旋_-1w
遇
点明_-1w
远程_1w
下台_2w
东北亚_-3w
叫停_0w
遣
撞沉_0w
疑犯_-1w
方面_-2w
撤资_2w
黄岩岛_1w
内阁_2w
加拿大_2w
护送_0w
遗憾_-2w
催
钾肥_-2w
前线_-1w
鼻祖级_-3w
台湾_-2w
级别_-2w
换上_2w
装备_2w
阿基诺_2w
中航_-3w
逾_-3w
违反_2w
主席_-2w
飞机_-1w
声明_2w
揭秘_0w
阿富汗_-3w
赞誉_0w
地_-1w
继续_-2w
主席_-1w
延缓_0w
再生_-2w
供应_0w
喀布尔_-1w
失信_0w
充
行不通_1w
新加坡_-3w
抗衡_1w
Kc07
Kc06
起_-3w
阿富汗_-2w
砸_1w
战术_-3w
Jd10_s
Hc25_s
预算迫_2w
火箭炮_-1w
中企_1w
内战_1w
班机_-2w
国务卿_-2w
抛开_0w
中企_2w
练兵_0w
轰炸机_-2w
叛军_-2w
直接_-1w
黄炳誓_1w
贵金属_2w
减
降_2w
担忧_-1w
洗衣机_1w
开始_-3w
劳师_-2w
胜利_2w
空降兵_-1w
列
B21_1w
都_-3w
激励_1w
超强_-1w
参与_-3w
非常规_-2w
当事方_-1w
短程_-1w
朱立伦_-1w
又_-3w
主要_1w
设施_2w
剽
表示_-2w
舰艇_-3w
东南亚_1w
团体_-2w
又_-1w
力
劝
办
发文_-1w
劫
种族冲突_2w
蓉领事_-3w
推_-1w
贿赂_2w
归还_0w
舰艇_-1w
素季_2w
缓解_0w
激战_0w
愿_-1w
国令_-2w
正恩_-3w
《_2w
齐_-3w
未来_2w
靠_2w
美菲_1w
洪森_-1w
正恩_-2w
参军_1w
攻占_0w
即将_-3w
轰_-3w
近海_-1w
信赖_-3w
韩民团_-1w
建议_2w
6K_-3w
录音_2w
野牛_-2w
占
卦
违_-2w
有利_-3w
未来_1w
即将_-1w
《_1w
卸
联手_-1w
厂
件_2w
替代_2w
实验室_-1w
担心_2w
砍_-2w
那_-3w
转售_0w
面战_-3w
重申_0w
军警_-2w
重用_0w
专员_-3w
变
参演_-3w
Eb25
10万_2w
叫
谈_-1w
召
CF-18_1w
自_2w
号
监视器_-2w
新兵_-1w
朝方_1w
中捷_-2w
成员_-2w
北部_2w
巴基斯坦_-2w
吓
领空_-1w
全体_-2w
安保法_1w
开进_0w
特朗普_-1w
舟山_1w
改造_2w
马晓霖_-1w
派出_0w
Dk26_s
戴旭_-1w
北部_1w
造成_1w
斩首_2w
证监会_-3w
范围_1w
特种_2w
出动_2w
赶快_2w
性能_-2w
子_-3w
联邦_1w
褐皮书_-2w
覆盖_2w
锁
陆克文_-2w
绝食_-1w
通过_2w
疑建_2w
转_1w
工程_-1w
攻击_1w
诉苦_-1w
余_2w
法案_2w
并购_0w
体现_1w
印调_-2w
Hc13_s
鼓舞_0w
OPEC_-1w
炸毁_0w
上级_2w
未_1w
负_2w
进驻_0w
金正_2w
中方_2w
入境_2w
举措_1w
Ja06
花展_-3w
以_2w
机群_-1w
担忧
大举_-3w
掩护_0w
是否_2w
霸气_2w
土耳其_-1w
密集_-1w
闭
很_2w
利于_1w
反恐_-2w
质问_0w
现代化_-2w
嘲
防
开始_-1w
相当_2w
叫嚣_0w
降
检方_-1w
Hi10_s
轻易_2w
除
韩国_1w
Gb14_s
能量_2w
F35_1w
示威者_1w
总裁_-3w
几乎_1w
夫_2w
隔
嚣
信奉_2w
F35_2w
示范_2w
助力_2w
隶
会面_-1w
海防团_-1w
挂弹_-1w
难
借_2w
官兵_1w
14亿_1w
20_1w
官兵_2w
军事基地_-2w
围堵_0w
套_2w
20_2w
三_2w
洛马_1w
时_1w
据称_1w
发难_0w
引_-1w
核弹头_1w
6_-3w
2014_1w
重新_-1w
安巴尔_-3w
关心_2w
殴打_-2w
现行_2w
小布什_-2w
辱骂_0w
坐
德国_-3w
批准_-3w
静
两万_1w
最后_-1w
风险_-3w
赤膊上阵_-3w
阿根廷_-1w
淘汰_0w
远东_1w
月球_1w
11日_-3w
图书馆_2w
哈萨克斯坦_-3w
数量_2w
敢_-3w
政界_2w
经验_-2w
台海_-1w
国事访问_-3w
下令_-3w
反安_-3w
堵
中东欧_-3w
逼近_-2w
其亮_-1w
独立日_-2w
重要_-2w
想_-1w
填
频对_-2w
生产_-2w
劫持_0w
立陶宛_-2w
改革_1w
黑客_-3w
Ia07_s
独臂_1w
毒剂_1w
运载火箭_-2w
枪声_-1w
敏感_2w
清单_-2w
性侵_2w
责任_-2w
细节_1w
下令_-2w
过后_2w
埃及_-2w
经济部长_-1w
Ke01
媒体_2w
性侵_1w
黑客_-2w
香港_1w
利比亚_2w
处
损坏_0w
突访_0w
预警机_2w
原_2w
9_-2w
阿尔及利亚_-1w
夺
美媒_2w
尼日利亚_1w
奉
内_-2w
核试验_1w
Ig04_s
高地_2w
磨憨_1w
半岛_-2w
扶植_0w
内_-1w
S400_1w
好
应该_-3w
首
达成_1w
答问_0w
第21_-2w
飞行员_1w
Ih11_s
强化_-3w
9_-3w
Hm03
核弹头_-2w
Hm07
Hm08
原本_2w
发布_-2w
自杀_-2w
数_-3w
利比亚_1w
宣誓_-1w
纳卡_-2w
自杀_-3w
专栏_-2w
总长_-1w
军费_-2w
迫切_-1w
福岛_-1w
丹麦_2w
9·3_-3w
先进_-3w
实录_2w
化学武器_1w
婉
登_-2w
第三_-2w
周_-2w
立功_2w
示威_-3w
骂
公然_-1w
小时_-2w
广东_-1w
媲
小时_-1w
分遣队_-3w
邦_-1w
2016年_-3w
建_2w
外_2w
维州_-3w
席卷_1w
内陆_-2w
酿_-1w
Hi24_s
促进_1w
澳_-1w
日妄_1w
规矩_-1w
特遣部队_2w
Ed15
合并_-1w
机器人_-3w
表现_2w
大亚湾_1w
守护_2w
首尔_1w
做出_-2w
25_1w
延长_1w
哥伦比亚_-1w
Da09
后_-3w
开发_-1w
国会_-3w
云南_1w
官员_-2w
届_2w
定
Ed48
遇阻_-2w
伊拉克_1w
3万_-3w
宽
加大_1w
条约_2w
折磨_0w
疑似_2w
电子展_2w
启动_2w
确实_-2w
说话_2w
雅加达_-3w
海警_-3w
封
将军级_-2w
边界_-1w
鸣枪_0w
少
斡旋_1w
设计_2w
环节_2w
山寨版_1w
休整_-2w
媒_-3w
渔船_1w
巴勒斯坦_1w
导航_-1w
购买_0w
部长_-1w
上_-3w
局
疑遭_-1w
攻击力_-3w
用于_2w
分配_2w
任务_-2w
发酵_-3w
问题_2w
属
令人
列装_0w
屠
联网_-1w
沙特_1w
加尼_-1w
敢_1w
TB3215-E_-1w
投入_-2w
突破_2w
禁止_2w
守卫_1w
工业_2w
内忧_1w
道歉_2w
阿基诺_-1w
40_-2w
别有用心_1w
叛军_2w
战略_-3w
逼退_0w
紧急_-3w
弹仓_-2w
湘潭舰_1w
好_-3w
候选人_-1w
语言_1w
增强_-3w
东部_-2w
模拟_1w
市委_-2w
钻井_-2w
使用_-1w
052D_-1w
半岛_2w
握手_-2w
Dk11_s
钱_-1w
沪_-1w
18_2w
马泰_-2w
共同_2w
警方_-1w
旅_2w
真_2w
Hn05
机场_1w
枪杀_0w
陆空_-3w
党报_-1w
外媒_1w
赞赏_0w
易_-2w
合同_1w
挪威_1w
让_-2w
美元_2w
工
渗透_-1w
外媒_2w
进入_1w
准_-2w
黎巴嫩_-1w
门表_-3w
嘴炮_2w
同类_2w
鸣
独立_2w
接连_-1w
Hm08_s
变身_-3w
幕
331_2w
韩舰_-1w
全境_1w
全球_1w
阿桑奇_-1w
并
提交_-1w
再现_-3w
到_-1w
战_2w
之后_-1w
言论_-2w
阿拉伯_1w
废
成_-1w
宣传片_2w
俄方_2w
罪行_-3w
追杀_0w
举办_0w
Ee04
常万_1w
档案_-2w
审查_-2w
不断_-1w
代表团_-1w
士兵_2w
延
回_-3w
审查_-1w
猎手_2w
政要_-2w
断然_-1w
Aj08_s
现代化_2w
措施_-3w
前景_-2w
前途_2w
D_-2w
会议_-3w
火箭_2w
If20_s
帮_0w
基地_-2w
加莱港_1w
VD-200_1w
火箭_1w
威慑_-2w
澳媒_-3w
骚扰_0w
归
终于_-1w
意图_-1w
原子弹_-3w
获释_0w
待审_1w
待
撞机_2w
突击炮_2w
韩启德_-1w
微重力_1w
第3_-2w
激光墙_1w
发_2w
调查局_2w
高官_-2w
敌坦克_1w
已_-3w
心
忌
华人_2w
农民_-1w
"_2w
31_-3w
北约_-1w
快
盟友_2w
接连_-3w
怀
做_2w
日方_1w
省_-2w
易名_2w
核电站_1w
怨
行_-2w
核电站_2w
转隶_0w
辽宁舰_2w
恳
恶
——_-1w
骚乱_-1w
南沙岛礁_-1w
废弃_0w
频_-1w
收回_0w
便携式_2w
右翼_-1w
重大_1w
惮
爆炸案_-2w
咋_1w
Jd05
防展_-1w
Jd04
Jd02
旅游_2w
垂直_2w
太_1w
Ia07
设_2w
汽车_-2w
扩大_1w
老挝_-2w
面板_-3w
再次_-1w
第五_-2w
解读_-3w
四川_-2w
接纳_1w
争端_-1w
慌_-3w
Ia08
Hi26_s
穆兄会_-2w
干预_-2w
归国_-3w
Ia10
声音_1w
赣州市_-1w
数_1w
走向_-2w
审核_2w
十_2w
在野党_-3w
越过_0w
计划_-1w
俄智库_-1w
Hi39_s
施加_-2w
指挥_1w
声援_0w
南苏丹_-1w
英国_-2w
登陆_2w
走向_-1w
怀疑_0w
出口_-3w
电力_-2w
数百_2w
轮_-3w
令_2w
海军_1w
全面_1w
闹_1w
菲方_-2w
名家_-3w
舰_-2w
Hn03_s
敲打_2w
海岸_-2w
扩建_0w
扩
扫
立法_-2w
扰
扶
演讲_-1w
Ef14
护航_-2w
原则_-3w
飞机_2w
抓
约_-3w
折
韩青瓦台_-1w
放弃_2w
藏区_-1w
警_2w
抢
Ef04
抨
披
二_2w
抱
前夕_-1w
拆
参与_2w
正恩者_-3w
记_-2w
图像_-3w
找_1w
家_-3w
嫌疑人_-2w
拟购_-3w
遏制_2w
一带_-3w
王牌_-3w
挣
Gb11_s
射程_1w
放逐_0w
捐
韩方_-2w
习_2w
约旦_-1w
教学_2w
予以_-1w
防卫_2w
反课纲_-3w
韩方_-1w
马_-3w
克里米亚_2w
B-2_-2w
京_-1w
正式_-1w
助打_2w
探
掩
吨_2w
温压弹_-1w
实控线_2w
教科文_2w
Ak03
囚犯_2w
大学生_-3w
加紧_-3w
揭
自杀式_-3w
司令_-3w
炫耀_0w
兰德_-1w
外长_2w
搅
特殊_-3w
青年_-1w
企业_-1w
搜
煽动_-2w
闯_-2w
实弹_-2w
开闸_-3w
谈判_2w
引渡_1w
?_-3w
伊_2w
皆_-3w
水_-1w
可用_-3w
阿尔及利亚_1w
将军_-1w
爆炸_1w
措施_1w
摧
反导_1w
东帝汶_1w
思远_-3w
这样_2w
撞
基辅_1w
撰
上任_-3w
教授_-3w
300亿_-3w
航行_2w
核峰会_-2w
法_-2w
767万_1w
他国_-1w
提_-1w
金刚_-2w
-20_-3w
待发
失地_-2w
下_-1w
?_-1w
转运_0w
Fb03_s
否决_-1w
才_2w
核航母_-3w
即使_1w
Ih01_s
Ib08
请愿_0w
入伍_2w
撤销_2w
Ib17
刘延东_-1w
历史_2w
石油_-3w
散
一路_-2w
军民_-1w
机场_-3w
650万_1w
非法_-3w
突袭_0w
文
特赦_-1w
朴_-2w
确认_-2w
安倍提_-1w
辞职_0w
明确_-2w
台_-2w
斥
不可避免_1w
而_2w
伊朗_-1w
发动机_2w
制导_-3w
需_-2w
全_2w
英国_2w
一切_2w
入役_0w
国务院_-1w
炮击_2w
频繁_-2w
花_1w
式_-2w
频繁_-3w
首度_-3w
确认_-3w
决议_1w
获救_0w
本扬_-1w
证实_-2w
中铁_-3w
美联储_1w
制造_2w
取消_2w
Ga16_s
改口_-1w
30万_1w
证实_-3w
曼苏尔_-2w
蓄势
国王_2w
也门_1w
改口_-2w
暂
炮舰_-2w
Ie02_s
近日_2w
逃生_2w
网络_1w
出人意料_1w
前往_-2w
不惜_-1w
巴东_-1w
金_-3w
不法_-2w
Dd15
顾问_2w
充公_0w
忌惮_0w
人机_1w
期
2日_1w
使命_2w
意料之中_-2w
驻华_-2w
核武_2w
今日_-2w
Bo29
来宾_-1w
识破_2w
签署_-1w
白皮书_2w
寻求_2w
回应_-1w
12_1w
重大_-1w
!_-3w
析
倍_2w
弹射器_1w
12_2w
枪
集体_-1w
掌控_2w
远行_-1w
重大_-3w
连_2w
活动_2w
一_-2w
污蔑_2w
4_-2w
缅甸_-2w
塔利班_-3w
飞行物_1w
副_-3w
几内亚_1w
静坐_0w
机构_-1w
校
彭丽媛_-1w
-6_-2w
长期_-1w
银行_1w
军长_-1w
可能_1w
东海_1w
意大利_-3w
长三甲_1w
结构_2w
青年党_-2w
司令部_-2w
7_-2w
银行_2w
勤务员_1w
深度_2w
索马里_1w
能源_-1w
瞄准_2w
重_2w
声明_-2w
引进_0w
了_-2w
Ic01
大使_2w
教育_2w
战力_-2w
参议员_-2w
毫无_2w
议员_-1w
上台_-2w
铁杆_-2w
现场_1w
数字_-3w
孟建柱_-1w
Ic09
抗战_1w
罢工_0w
学生_-2w
奥运会_1w
交通_-2w
植
型_-3w
嘲讽_0w
陷_2w
42_1w
重组_1w
无条件_1w
30_2w
有望_-2w
轮渡_-2w
世界_-3w
调整_-2w
红旗9_-1w
悍匪_-3w
仍_-3w
企业_2w
朴_2w
婉拒_0w
撰文_0w
马英九_-3w
致死_1w
塔利班_-1w
马航_-1w
单位_-1w
为由_-1w
Hi28_s
英雄_2w
但_1w
马英九_-1w
集团军_-1w
女_-2w
先发制人_-2w
病人_2w
军区_-1w
一印军_1w
软盘_-2w
战场_2w
很快_-1w
基本_-1w
暗杀_1w
De04
持_-1w
轮船_-2w
神庙_-3w
政治_2w
一定_-3w
俄语_2w
既然_-1w
群_-2w
韩核_-2w
近平_-1w
火箭弹_-1w
极大_-1w
停飞_-2w
海试_0w
招_-1w
兼容_-3w
李嘉诚_-1w
群_-1w
开幕_0w
现代_2w
登_2w
密谋_2w
奥朗德_-2w
捐赠_0w
乳制品_-1w
资金_-2w
２３_2w
讨论_0w
10_-3w
Cb25
欢
过剩_-2w
多_1w
Bp29
Hg11_s
罗援_-2w
副_2w
书记_-1w
毁_2w
配备_0w
搅局_0w
大会_-1w
罗援_-3w
编队_-2w
武
强征_2w
,_2w
维持_2w
舰船_-3w
机遇_2w
军舰_-3w
院长_-1w
奥巴马_-2w
特种部队_-1w
拯救_2w
商议_0w
合影_-1w
超_-3w
邀请_2w
械斗_2w
日领海_1w
处_2w
对地_-1w
军舰_-2w
弥补_1w
把握_-3w
德媒_-1w
学者_-3w
备忘录_1w
吴建民_-1w
比利时_-1w
土_1w
200_1w
复兴_-3w
北海_-3w
一个_1w
小镇_2w
养成_-3w
闭幕_0w
Id20_s
纵深_2w
组织_1w
Id03
媒量化_-1w
爆发_-1w
汰
隐形_-2w
华侨_1w
水枪_-1w
宵禁_1w
Ih03_s
规划厅_-2w
Id22
没
屠杀_0w
格鲁吉亚_-2w
种族清洗_1w
编队_-3w
马来西亚_1w
610亿_2w
支持_1w
气候_-2w
秘密_-1w
气候_-1w
日南海_-1w
订立_-3w
强盗_-2w
高调_-1w
南海军_-2w
想_2w
狂言_0w
缅_-3w
吁_1w
塞内加尔_-2w
访_1w
马方_2w
停战_2w
国土_1w
控诉_0w
捷_2w
海
友好_-1w
透露_2w
拆除_0w
月_-1w
习_-2w
叙军_2w
下周_-1w
印_-3w
Hi16_s
让_1w
怎么_2w
军某_-2w
淘
岛屿_-3w
现_2w
不满_-2w
模式_1w
提反_-2w
敛_2w
辽宁_1w
Df02
谋杀_2w
国防_1w
恳求_0w
海岛_1w
温
技研院_-1w
轰炸_1w
响_-3w
国防_2w
日巡_-3w
卡52_1w
会谈_1w
领导人_-3w
面临_1w
火箭军_1w
最_-3w
东欧_-1w
提速_2w
保法_-2w
签_0w
机敏级_-2w
柬埔寨_-3w
蓄势待发_0w
360_-3w
获_-2w
如果_-1w
波罗的海_-2w
融合_0w
9战机_-2w
代_2w
不知_2w
Hj23_s
探访_0w
仍_2w
美研_1w
事态_2w
第5_-2w
强_-3w
第22_1w
防空兵_-1w
马_1w
参加_-3w
青瓦台_-3w
多方_2w
元_-2w
盟军_2w
打_1w
部分_1w
公民_-2w
18_-3w
航班_2w
陆续_-2w
选_-3w
激
巴西_-1w
歼教_-3w
马尔代夫_-2w
首相_-3w
B52_1w
我_2w
说三道四_-1w
不要_2w
进步_2w
催促_0w
财产_-1w
修宪_1w
抓获_0w
违宪日_2w
祝贺_0w
F-16C_1w
小心_1w
罕见_-1w
效率_2w
境界_-2w
各地_1w
警告_1w
哈萨克斯坦_1w
扫雷艇_-2w
下水_-3w
断定_-3w
交付_-2w
哈萨克斯坦_2w
9月_-2w
缩减_0w
过_1w
吉斯坦_-1w
交付_-3w
Hb14
地震_2w
如厕_-2w
拦住_0w
炫
解放军_-2w
点
披露_0w
地铁站_-1w
Jb01_s
参会_2w
机上_1w
点评_0w
只_2w
显其_1w
同意_-1w
水面_-2w
热
权益_2w
狂_-1w
远海_-1w
解除_0w
华人_-3w
多种_-2w
福特_2w
Hi04_s
弹劾_2w
可能_-3w
减少_0w
远东_-2w
东北亚_1w
库尔德_-2w
物资_1w
成功_1w
战舰_1w
抵制_0w
改变_2w
陆基_1w
吴廷觉_-2w
用_1w
卸任_0w
保障_1w
洲际_1w
悬赏金_-2w
抵_-2w
出手_-1w
远东_-3w
古迹_2w
不足_-1w
新增_0w
Hf06_s
加共体_-1w
实践_1w
王毅_-2w
海警_2w
东_-3w
抨击_0w
王毅_-3w
媲美_0w
－磨丁_2w
陈虎_-3w
安保_-1w
发动机_-2w
美台_2w
驻军_0w
海域_-1w
亮_-3w
东_-1w
非正式_1w
颗_2w
为何_2w
委内瑞拉_-1w
喝_2w
中业岛_-3w
爆买_-1w
致电_-1w
队友_-3w
大棒_-2w
该国_1w
受_-2w
退役_-3w
未来_-2w
海自_-2w
亚丁湾_-1w
BBC_-1w
狂
陆自坦克_2w
未来_-3w
坦克_2w
委内瑞拉_-3w
障碍_1w
订购_0w
人数_2w
电邮_2w
公共_2w
军事_-3w
刀_-1w
决议_-3w
边界_2w
施工队_2w
沿海_-2w
拟建_-3w
驱逐舰_2w
单独_-3w
，_1w
F16_-3w
利比亚_-2w
潘基文_-3w
专家_-3w
11_2w
农业_1w
潘基文_-1w
部长_2w
加沙_1w
国会_1w
A321_2w
西班牙_-1w
登陆_-3w
大法院_-1w
23_1w
长城_2w
If19
16_1w
法国_1w
分散_2w
白宫_1w
纠结_2w
军事基地_2w
大学_-1w
而_-1w
中小学生_-1w
证据_-2w
卓怡_-2w
而_-3w
纽约州_-2w
Hc13
一代_2w
中联部_1w
》_-3w
谨慎_2w
距_1w
试航_0w
T-50_1w
遇袭_0w
知事_-1w
高压_-2w
群岛_-3w
次_-3w
饱受_2w
大阅兵_2w
差_2w
群岛_-2w
17万_1w
美方_2w
严厉_-1w
增派_0w
目标_-1w
恐袭案_-3w
政府军_1w
目标_-2w
带来_1w
毒品_-1w
步骤_-2w
执法_2w
申
挥舞_-3w
总理_-2w
台军_-1w
协会_-1w
安倍晋三_-3w
单方_-1w
41_2w
遣返_0w
是_-2w
连续_-1w
数万_-2w
自卫队_-3w
捕捞_-2w
军援_2w
昼夜_-3w
坦克群_-3w
被捕_1w
安倍晋三_-2w
确定_-1w
涌入_-2w
索马里_-1w
止血带_2w
使馆_2w
基础_-2w
中菲_-2w
太平洋_-1w
力劝_0w
校阅_0w
4万_-2w
非盟_-2w
场_2w
航母_1w
默克尔_-1w
安抚_-2w
战斗_-2w
组织_-3w
压倒性_-2w
加快_0w
点火_-2w
激辩_0w
塔吉克斯坦_-2w
港媒_-3w
泽曼_-2w
美术馆_-1w
炸弹_1w
形势_-1w
海盗_2w
战斗_-3w
组织_-2w
北极_1w
094型_2w
12万_-2w
抗日_-3w
点火_-1w
达_-2w
抓捕_0w
下届_1w
盛
打_-1w
苍龙_1w
会见_1w
大阪_2w
参加_1w
威胁_1w
Jd06_s
着眼_2w
调解_0w
数千_-2w
地区_-1w
B-1B_1w
自民党_1w
谁_-2w
巴控克什米尔_1w
土库曼购_2w
兵力_-1w
妨碍_1w
台_1w
弗吉尼亚级_-3w
建筑家_-2w
设施_-2w
准备_2w
船_-2w
北极圈_-1w
双航母_-1w
再_2w
秘鲁_-3w
支援_0w
船_-1w
严词_-1w
k_-2t
Fa19_s
鸟礁_-2w
新疆_-2w
5万亿_-3w
提出_-1w
准备_1w
远离_0w
期间_-2w
主动_-3w
新西兰_-3w
提出_-2w
事件_2w
萨勒曼_-3w
预算_2w
纽约_-3w
昔日_1w
Hd29_s
绝非_2w
建立_0w
战备_2w
加装_0w
寒区_-3w
F-22_-3w
反舰_1w
两岸_1w
阿_-1w
微信_-2w
罗马尼亚_-1w
南_-3w
集团_-1w
Hd26
联合国_1w
超级_-2w
警官_-3w
Ga01
槿惠_-3w
关键_-2w
期待_0w
Hd20
东南海_2w
欧_-2w
夸大_1w
精度_1w
金日成_2w
江西_-2w
加速_2w
议长_-2w
强大_2w
安卡拉_-1w
商船_1w
力度_1w
姿态_-3w
宣判_0w
火箭军_-1w
公司_-1w
磨
F-16_1w
民间_-3w
瞬间_-2w
日菲_-1w
中心_2w
应_1w
Ie08_s
禁售_0w
纳扎尔巴耶夫_-1w
日菲_-2w
拒捕_-3w
铁教_2w
神秘_1w
实战_1w
警察_-1w
军力_2w
高端_2w
宣布_-1w
150万_-2w
文工团_1w
ni_1t
非洲_-2w
祝
专利_2w
越_1w
乘客_-3w
作战_2w
绕_2w
海滩_1w
宣布_-3w
槿惠_-1w
受到_2w
1.5万_1w
Di15
朱日_2w
练_-1w
边境_-2w
秘
管材_2w
挟持_2w
英军_-3w
一致_-1w
救助_2w
揭开_0w
军委_1w
涉嫌_-3w
太_-1w
南海成_1w
百万_1w
作恶_0w
改进_0w
中将_-1w
方案_-2w
玻利维亚_-1w
遭日_-1w
法院_-2w
武警_-2w
开启_-3w
华阳礁_1w
刺猬_-2w
决心_2w
反击_0w
希拉克_-1w
个性化_1w
圣地_-2w
试探_0w
启动_-3w
表示_1w
俘获_0w
王云飞_-1w
窥
劣质_1w
号召_0w
沙_2w
令人担忧_0w
金灿荣_-1w
具备_2w
马里_-2w
从来不_2w
误炸_-2w
七国集团_1w
落网_0w
民众_2w
延伸_-3w
战舰_-1w
6月_-1w
包围网_-1w
128_1w
油市_1w
领事_1w
希拉里_1w
Hi42_s
加大_-3w
协同_-2w
鸠山_-1w
1964年_2w
核试验_-2w
长绕_-3w
普京_-2w
进攻_1w
Ih07
Ih06
出_2w
试验_-3w
新建_2w
Ih10
全面_-3w
妇女_-3w
黑手党_-3w
短程_2w
侨报_-1w
两千_2w
客轮_2w
停火_-3w
开始_2w
捐助_0w
着急_-1w
布雷顿_1w
十_-2w
热议_0w
占领_0w
6.85亿_1w
记者_-1w
塞浦路斯_-2w
2017年_-3w
刑警_2w
块_-3w
风险_1w
落幕_0w
交火_0w
无限期_-2w
Gb10
记者_-3w
存在_2w
中亚_1w
重兵_-3w
误炸_1w
通航_-2w
中亚_2w
陆军_-1w
派_1w
冲绳_-3w
改造_-3w
环_-2w
信号_1w
陆军_-2w
索尼_2w
安理会_-2w
强制_-1w
派遣_0w
塞尔维亚_1w
连续_2w
控制_2w
走_-3w
索契_-1w
保护_2w
国联军_-1w
运兵港府_-3w
背叛_2w
视_2w
专门_-1w
致电_-3w
曾_-3w
吉布提_-1w
专门_-2w
Df03_s
库工党_-2w
保法_2w
利益_-3w
水火不容_0w
领袖_-3w
李克强_-1w
批评_0w
辩护_0w
可_-3w
谈_2w
2016军费_1w
重构_2w
天_2w
货车_2w
海岸_1w
村庄_2w
表态_1w
纪行_0w
明年_2w
古_-1w
表态_2w
海_-1w
战士_-3w
这么_-1w
马航_1w
平板_-3w
下_1w
护卫舰_-1w
重直_1w
La04
冲绳县_-2w
指出_0w
助战_0w
隔离_0w
工作_-3w
极端_2w
约
驳斥_0w
经济_2w
三番_-3w
台德穆尔_2w
绍
危地马拉_1w
起航_0w
给
揭幕_0w
演_-1w
Hg16_s
再次_-3w
变卦_0w
永暑礁_-2w
缩
永暑礁_-1w
以军_1w
吐槽_1w
驻军_-1w
吸取_1w
网
迫击_-2w
斯特拉霍夫_1w
单边_-1w
恶心_0w
罢
许_-2w
埃_2w
否认_2w
首席_2w
谨言慎行_2w
美
5_-3w
解析_0w
乘其不备_2w
森林_2w
西沙_-1w
科考船_2w
就是_1w
军迷_-1w
受害者_-2w
东部_2w
Gc02
34_1w
西沙_-3w
日货_1w
降温_0w
0.22198736519893675
0.2523830647002286
0.31759592488135374
0.21525221400699637
0.28235100797958607
0.21995269884808377
0.23707103118486061
0.3691143597578889
0.25933335655128725
0.22955236787776573
0.18698696149816005
0.4739733457988642
0.22311128852516202
0.3165211261294712
0.21995269884808377
0.1749536208080034
0.37660420180041015
0.377673514207301
0.29282435338215135
0.2283900236746659
0.28400217356556434
0.2855212345857047
0.22967160806074222
0.28756248857573496
0.3326053299776608
0.4001865355949293
0.6509589190219094
0.37914370643482703
0.18670752479711764
0.2011582925414536
0.2967480519400653
0.25390272845336254
0.18332096610839774
0.43316459163187393
0.22440058426953033
0.1532507020137492
0.21182527880570495
0.15311769518353727
0.2454438146158805
0.2884798364100289
0.164504760803366
0.1857993375077424
0.32942311188003737
0.1634425905679365
0.2181743040713879
0.099669759263554
0.3869394999847191
0.36075306128925
0.19646000363122035
0.2808877977165739
0.22239274740617032
0.26839840884698235
0.12056612950389575
0.15565360152027316
0.39375471088305986
0.3446678735075811
0.25945615832202407
0.3696946049546155
0.3602032991679624
0.3612108877342264
0.19799414772106094
0.23980680814313682
0.20236449259179562
0.23625248863667137
0.6257495998045874
0.28354512044049895
0.11465774435672155
0.11297788062273585
0.20301704477871566
0.2813807939482527
0.2173368449272357
0.18000812794401946
0.40571247526406656
0.1458322817931987
0.2134213130190108
0.2707878983706031
0.35024453924936993
0.37660420180041015
0.3073861178416371
0.3739420091899511
0.2851874863663188
0.21155689358582858
0.2120344869133205
0.4591211228712122
0.24497607820732098
0.22086733752474688
0.3134295544001942
0.25390272845336254
0.19074739811417876
0.21349859791290637
0.23709404332388043
0.14517210718260937
0.2668054897279889
0.3570936198008793
0.2690445893139073
0.2612647081795292
0.19012966864998024
0.3712406382423229
0.12208620783822337
0.6837515468185891
0.35779657027496414
0.3804365997496346
0.1540706389679446
0.2015275767894928
0.6227775698495045
0.37657714440238166
0.1773888611711942
0.3329146992750561
0.31987496335584115
0.18008364053404158
0.17482495978822735
0.332977687903743
0.36469237337368227
0.5136092238870053
0.2422181079434681
0.1636656906921329
0.2890587353802303
0.183759355444851
0.2730847489259136
0.20300482745718232
0.291750324383049
0.21254515144812647
0.3701472726436382
0.35177118535138224
0.16326861821787234
0.16075934957395246
0.37583433406609057
0.3241551105404304
0.23123747721557275
0.2441306969085042
0.35365540688713293
0.20130593050754614
0.25900878423557977
0.2941930028344603
0.5716264457806216
0.24453016309181874
0.4478954164349643
0.1606120458194481
0.2821713170936854
0.36541689706699465
0.40970760554676033
0.18646249603913598
0.3111325703650055
0.17331938226205976
0.4500597437039657
0.18031406128758118
0.11837252605865452
0.21044759409995917
0.31903367333887644
0.3886782621934129
0.17842071253286054
0.29390275226104545
0.2771608950164852
0.25318705887234594
0.29412224158749933
0.2570800087537432
0.41306310375978295
0.3989559800069921
0.3599349570674725
0.25880885142792404
0.24444583637584721
0.3058733860520542
0.16613184505180909
0.39375471088305986
0.35024453924936993
0.17934677915357342
0.28400217356556434
0.23808989776275227
0.3225700698538592
0.19197379316745875
0.20177183556182152
0.2707878983706031
0.18386134254362313
0.37947394312968813
0.288601718263042
0.24760691484308847
0.1996533454284502
0.24439969323667915
0.29238881883117
0.17043994097130843
0.4554556489947275
0.4248207540218361
0.6496916150298362
0.21140983943090677
0.22198736519893675
0.4484843470396787
0.26030386123536003
0.2926743778766602
0.3074666732516403
0.22730814385198547
0.16613184505180909
0.36084343547105435
0.4235191699985855
0.36075306128925
0.7485542175901905
0.21724357965638424
0.16092293799882776
0.1402815812228992
0.22277806623014096
0.2529400468686869
0.4460034699620036
0.42716294831230095
0.28876431543314046
0.19526625749224022
0.3941739632766608
0.19174596795977927
0.19500303703170416
0.2137327648161443
0.3193720625288124
0.3605739498480363
0.18508962473696505
0.20300482745718232
0.17466894079707193
0.19729409907725975
0.4058537127630079
0.27703506148890356
0.36873692692718346
0.28876431543314046
0.36077513035289394
0.36254283537968873
0.42342960539411034
0.39562190398836106
0.12036436179559573
0.3730211450168893
0.28910067697174924
0.19230735887346026
0.24672746527026101
0.17174594881395602
0.30053438211090683
0.3221924183433071
0.2810612994367345
0.4575966356678371
0.27879346831455937
0.26366702828283733
0.4118707319628424
0.37118704990873586
0.3066202031677338
0.20498845592162263
0.2114537888691518
0.16147547172884252
0.4650331700983013
0.21865638494644116
0.2035067293042793
0.16147547172884252
0.4065346017462702
0.18477686369008012
0.3177143604747748
0.36635496038709103
0.2676357992641152
0.22021392510823917
0.36560665610476023
0.20372117757457817
0.292126910204417
0.27113471153797336
0.21525221400699637
0.3329146992750561
0.22198736519893675
0.5441531984604444
0.21279235859735082
0.21211786032584562
0.6156205054282528
0.25111176973846083
0.24745525008165142
0.2659985453419251
0.12208620783822337
0.4420378603527717
0.23270189006830602
0.3881526856488556
0.2969313661838428
0.29999556602613153
0.37914370643482703
0.29156335014118334
0.2662191997184819
0.20739765904891522
0.45169675556488864
0.3592480441173991
0.1008189797548005
0.6707437555425361
0.19360791433686786
0.16305100925276642
0.37660420180041015
0.4221776166714116
0.2130848011715743
0.13112712534629375
0.23278041820482384
0.21681345602641935
0.3326893757171414
0.23320401238278823
0.183759355444851
0.3592480441173991
0.25927666473106137
0.172372631777128
0.3137703087796205
0.6912387592309914
0.33628115665768876
0.2179722086161532
0.3070483592277161
0.20130593050754614
0.1402815812228992
0.26523339454310024
0.543208316819024
0.2281017786246945
0.27232311548390675
0.4059754287647184
0.23278041820482384
0.10339468648230848
0.34813085386742787
0.38270455952416393
0.4706450465767386
0.1941353503046046
0.30210053629938466
0.3707494184615761
0.18407138778807933
0.15649814636339907
0.5694309003815154
0.12036436179559573
0.16436327760939629
0.16727650052019932
0.5609003728224675
0.39305648521421754
0.24836802069155134
0.29687994181766936
0.33076698547624594
0.33907980655335035
0.35974323171554007
0.19513350083569908
0.45595209452211916
0.12891532856933552
0.37874214382433113
0.24756614199811142
0.2876139018504614
0.3112213065477079
0.26591760477884485
0.2482395290852526
0.20783939876094515
0.30402256826839014
0.2926743778766602
0.36873692692718346
0.3373009844280521
0.18569694609874146
0.16654529624679354
0.2376609050581231
0.2756553181103651
0.16739535566997152
0.24673363538572063
0.18458567942341042
0.24830809681381327
0.2532700427220988
0.28155185810932537
0.24605892858164446
0.2668054897279889
0.22202958967657882
0.3618354933629073
0.2441306969085042
0.2851874863663188
0.15318984596974947
0.3020515345881101
0.19955329361026167
0.26550533056053544
0.14887021504915454
0.14672879917496195
0.40571247526406656
0.09547372342330332
0.2527927220736546
0.17646010835027934
0.5164851343551218
0.21022539520651995
0.37583433406609057
0.27837494377881444
0.1899368990577238
0.24439969323667915
0.45980331117328244
0.34777386814469563
0.2809217425078877
0.20264163340059121
0.20093446077616248
0.2148362019509777
0.46507940463066855
0.30585550007166595
0.22807714034896423
0.3990230248234896
0.3292356958490984
0.3116443932059922
0.19983741843059605
0.29761617728161976
0.25522082650962014
0.2805479027686673
0.33024322482223567
0.12356782199768422
0.1855340091819007
0.29871823311323514
0.20547574398310514
0.2926287534144769
0.3259567342495704
0.23959118825940764
0.47199919220160497
0.16356732056685494
0.3655767862747249
0.15168152513547373
0.3416499551442633
0.36177589741326605
0.4581436068453767
0.20896676158668973
0.2354475773023173
0.25718477138623097
0.35154208198758646
0.33907980655335035
0.22243609933303532
0.172372631777128
0.17023938719242276
0.19906590707867136
0.20804810400883622
0.21831944344020646
0.15097018565101
0.2475221054891622
0.38942253474886124
0.28574168088103
0.3257053480145708
0.17317767673606246
0.2800166193804692
0.11465774435672155
0.18203391824755458
0.3495600682446936
0.2029913202301465
0.38901470005901756
0.19526625749224022
0.40018848772908594
0.21896036980036798
0.3602032991679624
0.379329582268237
0.22198736519893675
0.22681837815162315
0.24292226518715787
0.16025096159264085
0.2707878983706031
0.3238244778329743
0.616866754844537
0.2446634467405968
0.4543480736177906
0.19923119608831846
0.1919128079534962
0.3220098024082605
0.20393890463410147
0.2821713170936854
0.3697000001380658
0.21637975125999317
0.3908375267978592
0.31857686873661656
0.16092293799882776
0.23203187718203763
0.19174596795977927
0.24497607820732098
0.5529543086024883
0.29299701468438294
0.2756553181103651
0.31658747850839997
0.3815125211960215
0.25886945316825516
0.23433230947054653
0.17105141581900693
0.5431331579675657
0.17317767673606246
0.1899368990577238
0.23750996414843414
0.4385938880346314
0.2813807939482527
0.543208316819024
0.3886340225739579
0.11499763352413762
0.3599349570674725
0.41733971246759977
0.22353858117816935
0.19500303703170416
0.1487602407319895
0.28238135485122345
0.25062439498098665
0.13112712534629375
0.1019526175165486
0.2948735009889809
0.2997979555672834
0.36077513035289394
0.2688050527346723
0.24276827770360168
0.2148362019509777
0.4574919019299665
0.17354162523345748
0.2082753978245131
0.19796516907121417
0.2331299116792687
0.27466753407601413
0.29276680688050455
0.25318705887234594
0.2668054897279889
0.22061215211447102
0.36255289928887974
0.40472790848220624
0.28248100645291263
0.20562965249282994
0.20814292564258652
0.293438513504812
0.2886145113996548
0.30402256826839014
0.24439969323667915
0.42754477814521324
0.38771079000961806
0.2125803496452561
0.24683018852993588
0.4891959716506824
0.3829972692207456
0.37286372374730575
0.1728173936645322
0.15057228696604502
0.21381342304720327
0.319642779689673
0.28400217356556434
0.326156067432331
0.23087827913271544
0.214530192612924
0.16025096159264085
0.20343267717809269
0.264562725379656
0.17660221534256
0.1019526175165486
0.39637608632379046
0.4870008000713835
0.4235191699985855
0.1991440538755181
0.21908698095550574
0.25111176973846083
0.1909579292891958
0.40472790848220624
0.2462125262619933
0.3233800364917072
0.4471235515263913
0.26987432221951185
0.4194616395742582
0.2817686901400475
0.1919128079534962
0.3618354933629073
0.21402034619031965
0.5130455151960525
0.2391489479129896
0.09508033705339589
0.26987432221951185
0.20343267717809269
0.3264075326119505
0.21383420511067064
0.249739810271909
0.20155873388427534
0.7485542175901905
0.3382652431508507
0.2507158463424893
0.16383387971542557
0.1444470781645777
0.40286266126449616
0.11250682726279969
0.3241551105404304
0.5374822340193084
0.2551339103945475
0.3000027380380747
0.21279235859735082
0.22008181209463212
0.2311959183378378
0.24846894292390817
0.21172440000144185
0.40187902691958105
0.2163314032952807
0.3070483592277161
0.15168152513547373
0.3165211261294712
0.46919143264768526
0.20264163340059121
0.25718477138623097
0.2014192030399358
0.16380140059640577
0.2470243509768407
0.36635496038709103
0.3000000303588353
0.30699018770473296
0.22955236787776573
0.2400061676881695
0.21818879896277693
0.305366652787876
0.2948735009889809
0.17056887469457263
0.3760968058097244
0.4250416474007362
0.3203094906336165
0.2636310666488511
0.2690445893139073
0.34219523590953194
0.16147547172884252
0.22353858117816935
0.23078041095683108
0.3825204740170892
0.3576498846075619
0.19074739811417876
0.2926743778766602
0.18408425307138962
0.33395091907432467
0.15760228634002652
0.19538130470192988
0.19064124024288148
0.12604867025026043
0.44700161411442235
0.19820772501148082
0.20656410881814782
0.24497607820732098
0.2664089150332603
0.1295233554499452
0.27048036816370385
0.23413719427630889
0.21022539520651995
0.19407512795157789
0.22243609933303532
0.24827335221602995
0.2864487813161841
0.20264163340059121
0.24355421797317328
0.2001709257311672
0.15929072542603337
0.7104974951520483
0.20753204955486823
0.21813515238093514
0.16817711660198895
0.2446634467405968
0.18805965980046693
0.3872123828700289
0.25977667156565953
0.1942053005847632
0.2091406036228461
0.28996811740465495
0.4891959716506824
0.15005348557948117
0.2079346063316586
0.3881526856488556
0.3448742360408615
0.37947394312968813
0.28769038742998543
0.31234082145014863
0.22773470180661734
0.2582309085822926
0.17091825740166566
0.17317767673606246
0.12891532856933552
0.25111176973846083
0.2987578462721599
0.19781036813574257
0.26200878824547963
0.264562725379656
0.22828486653764846
0.1842536339724996
0.32278294090468446
0.26445358013097653
0.11045062793716957
0.22130366752504635
0.3329146992750561
0.41368804439825424
0.28021004418134376
0.2195666962147859
0.34632631940936254
0.2882459666198429
0.26736490932548795
0.275458371135087
0.2604540268378339
0.2914204653457031
0.24752210548916218
0.28262135919870407
0.42270261503656403
0.26014143198209644
0.24426582755323023
0.2720787269476505
0.3301936687785723
0.49182904911662173
0.7387711853541671
0.2641867875113025
0.1859502611108926
0.25927666473106137
0.20739765904891522
0.22061215211447102
0.2882459666198429
0.2121717348674418
0.37118704990873586
0.3112414507565516
0.2599700320017459
0.776861655730929
0.3771747002113875
0.19729409907725975
0.20104222905209526
0.1724399494262918
0.23399641882921735
0.3189107938599649
0.1786543140859053
0.29345247176616773
0.1831443710708743
0.15929072542603337
0.15447362457707686
0.21363063486950046
0.3754887145418471
0.3739420091899511
0.19781036813574257
0.28497562839424856
0.41188245737843443
0.2935509608320963
0.2935509608320963
0.15760228634002652
0.3709912543687739
0.21381342304720327
0.21788972291732708
0.2454826042031331
0.16305100925276642
0.27952654995931275
0.20393890463410147
0.2973663556464618
0.31759592488135374
0.16419368330376552
0.2817686901400475
0.3045998365185073
0.3041204252726833
0.25318705887234594
0.5029810351031274
0.23573173289271268
0.30658589379544593
0.18721027606291132
0.1816284041411481
0.249150045226684
0.2861940851369037
0.5082701996697344
0.15304391874923326
0.31251244578972975
0.27732976612776894
0.5843600267627036
0.21507151763319032
0.14517210718260937
0.29517755827764547
0.25703665603475595
0.1398026455159697
0.2751484993357399
0.1899368990577238
0.39637608632379046
0.41770700494528196
0.235519784686764
0.2810612994367345
0.36505363267173013
0.36560665610476023
0.5162160506840151
0.296687655001381
0.2058975350730363
0.0996253814227991
0.21331756387364761
0.3904483233571861
0.2782331392782447
0.2015275767894928
0.22152223143322183
0.27984021966384887
0.19174596795977927
0.22076733148710284
0.17400431168457967
0.3933584553005263
0.45061939218494423
0.2427443128761564
0.24401058971992245
0.21063506485497638
0.09996730397933831
0.19781036813574257
0.1939160891657646
0.288138182584882
0.16436327760939629
0.2399086904157005
0.25900878423557977
0.3072229102231022
0.35177118535138224
0.18373142724679833
0.3373009844280521
0.21535855604217177
0.2649836687249518
0.20799501031554346
0.22724295970946526
0.466618423844117
0.2120344869133205
0.3308320457008922
0.33006937630630656
0.10559940425479485
0.11039701327311933
0.37657714440238166
0.22497664105117382
0.33024322482223567
0.2456439735651497
0.49812655244052373
0.17056887469457263
0.2220818748203715
0.38942253474886124
0.2496609380482763
0.2035067293042793
0.2111742815366269
0.20980122723858627
0.29433848169991905
0.16737432660801635
0.23087827913271544
0.3138487231649445
0.21378053083481807
0.23723249068599161
0.24836802069155134
0.26465047509988676
0.22422370649732254
0.3448742360408615
0.23615391223475893
0.17198014911954285
0.32942311188003737
0.22008181209463212
0.34395921128120194
0.23955934832839254
0.4102572983885972
0.22681837815162315
0.20562965249282994
0.14036388226927615
0.15929072542603337
0.2530356777697671
0.23491489991311038
0.2322122571965112
0.2978634230074548
0.17361547368005475
0.17105141581900693
0.1576954127085014
0.23203187718203763
0.21089463849137727
0.1851147113723
0.21347827434186747
0.3056849770441419
0.22239274740617032
0.23237475951410003
0.27888151963076696
0.3897565127217983
0.20569370481091767
0.3149454835165504
0.25260630316974064
0.1775065285067242
0.17131320630908212
0.22296220072420073
0.23006525706631065
0.3530010945263796
0.2014192030399358
0.2691743975273873
0.34876495004145436
0.2402369410333073
0.7910783754825395
0.2820088010022883
0.10339468648230848
0.2510363416410289
0.4001865355949293
0.4118707319628424
0.2322122571965112
0.2111742815366269
0.33550135161865446
0.275681477193396
0.19464884629993548
0.4069330493498803
0.22277806623014096
0.27343675532609646
0.28876431543314046
0.3445054614197761
0.16072534827997953
0.1941353503046046
0.1236861638942932
0.21211786032584562
0.26714183308434264
0.41154619754786553
0.22328235333445795
0.2496609380482763
0.15600702270768205
0.338675466449835
0.18611449628980656
0.264562725379656
0.1909628730258473
0.10660185766493538
0.27343675532609646
0.26694267712148395
0.3094644094059572
0.09508033705339589
0.16719143150155918
0.6453924791190263
0.3041959997361187
0.30433904575328885
0.277027894920798
0.31903367333887644
0.2309804704817385
0.3506533658203288
0.18250136060388705
0.3373009844280521
0.31823883820282794
0.40970760554676033
0.3247928460498001
0.1958292834878112
0.2524840818827464
0.3427064710135187
0.26986986804366464
0.3362405196506343
0.18152156656729165
0.35847869801889637
0.3275137576378228
0.19914984666325747
0.18117729841293373
0.34804069728943426
0.2071692703789392
0.3782935430258175
0.30545809600454715
0.2776536781940654
0.21890017625305055
0.22602145600434415
0.24734218739374852
0.37914370643482703
0.3221924183433071
0.26714183308434264
0.18508962473696505
0.18928478650373076
0.1632709735097405
0.43111630800758494
0.20806357257678854
0.5332114757313853
0.26371131276805965
0.23249863475591034
0.2612647081795292
0.2451343997326243
0.6977054104807541
0.4005591460498996
0.21818879896277693
0.2641867875113025
0.317367881578339
0.1842536339724996
0.20252177958641182
0.2091817886780328
0.1906611693410585
0.2926743778766602
0.16075934957395246
0.317367881578339
0.26405381651698817
0.26839840884698235
0.28876431543314046
0.3127978053470464
0.24752210548916218
0.18947036412666973
0.2968396909006028
0.1882009863094766
0.21225236569921524
0.3841554004133016
0.3565598751987731
0.18016587238200513
0.21861800325743513
0.10183882662010252
0.24560715215184178
0.23753352349857215
0.21307063716521332
0.28095228319117355
0.2454826042031331
0.32976922634892786
0.43125757317220714
0.26442882561958214
0.46138572892594654
0.22084312179076304
0.11725359470266641
0.23453052267625896
0.1041900840180081
0.29412224158749933
0.5527198213946233
0.30319091303380286
0.38901470005901756
0.21378053083481807
0.24355421797317328
0.2810612994367345
0.23615391223475893
0.2731025817028071
0.28689670547485663
0.18016587238200513
0.42396437287271455
0.3830567587260635
0.283261276518096
0.21380721990887736
0.28155185810932537
0.4889838122011724
0.22485608760053868
0.38560490946354675
0.23486599712150677
0.21216272826851892
0.19538130470192988
0.17129713435253052
0.31110655306590096
0.6977054104807541
0.11045062793716957
0.3904483233571861
0.22544073608106785
0.1811168697711924
0.3177143604747748
0.48889304466807026
0.2636638518136644
0.1906611693410585
0.151677660469466
0.26956804926700484
0.25754360202139837
0.2456439735651497
0.31194747569871006
0.16817711660198895
0.12891532856933552
0.27241182674023495
0.24560715215184178
0.31658747850839997
0.235777132436323
0.2875777208735791
0.2121717348674418
0.3189107938599649
0.12186818731260984
0.22384498136997252
0.2502394377979995
0.2343576033100111
0.31708686043679335
0.23398855064773996
0.312540022088623
0.25976199875808564
0.22543631313578452
0.18445696103115927
0.2978634230074548
0.2002867997414275
0.2776536781940654
0.18771142231318358
0.2333519766727708
0.2496609380482763
0.22497664105117382
0.23227010935744102
0.29433848169991905
0.4581436068453767
0.2884798364100289
0.4434576934041618
0.2457242962930418
0.1334396206399049
0.18155021335969188
0.24372137916587192
0.17422026667288842
0.25390272845336254
0.16739535566997152
0.153731967264214
0.3985691505546044
0.24924027436358007
0.18520256436305121
0.22807714034896423
0.28574168088103
0.40571247526406656
0.21745219255033213
0.6562180887494033
0.183257874911371
0.2035067293042793
0.29100834132540004
0.46566500012928874
0.21202186123603683
0.22632889272162734
0.28122374945293327
0.2997979555672834
0.28996811740465495
0.3360340925053183
0.2775439366794743
0.25256353250648855
0.41188245737843443
0.2273911253124283
0.27649149501708337
0.42270261503656403
0.22631620878782857
0.15170348006262266
0.24511833320835796
0.3409389579283362
0.22828486653764846
0.42270261503656403
0.13160025707436468
0.2173368449272357
0.21995269884808377
0.18843418546447516
0.2861940851369037
0.11601081551638923
0.28396581671261295
0.14517210718260937
0.2284785324595296
0.2329041751442097
0.4005591460498996
0.30001648256727154
0.26509489715311546
0.1773888611711942
0.3448328612013899
0.2532769266536563
0.45061939218494423
0.338675466449835
0.40698239376613404
0.22724295970946526
0.2581335246947957
0.2121717348674418
0.44658847585564393
0.2748519664356827
0.4024999528008778
0.2729001059684985
0.16737432660801635
0.37504052039949837
0.286781996282046
0.28422053429011923
0.2301412324950345
0.35779657027496414
0.41897092748164977
0.13160025707436468
0.293438513504812
0.29152187435220245
0.09996730397933831
0.2058975350730363
0.24568309452009646
0.20093446077616248
0.15057228696604502
0.13740184556421178
0.22497664105117382
0.19781036813574257
0.26371131276805965
0.21224552768611116
0.3152451818756146
0.2795265742272332
0.3570936198008793
0.21553939144247405
0.22497664105117382
0.18611449628980656
0.20236449259179562
0.18947036412666973
0.1144106791014427
0.39562190398836106
0.3185086145860386
0.26714183308434264
0.15541803011091157
0.16419368330376552
0.18843418546447516
0.3730211450168893
0.315782547873861
0.3150763725210032
0.3697000001380658
0.22735190943949762
0.7219112822343193
0.29802426439626195
0.5394266544251751
0.2969612170960907
0.3830567587260635
0.1540706389679446
0.22254810429876942
0.17400431168457967
0.21359404803648493
0.15600702270768205
0.5650620387615056
0.11725359470266641
0.2777743364849937
0.2523830647002286
0.19264554280665344
0.25880885142792404
0.24594826672381467
0.41733971246759977
0.19923119608831846
0.23709404332388043
0.22773470180661734
0.19799414772106094
0.21804923121695235
0.1724399494262918
0.3190258388095425
0.22130366752504635
0.12752958330863787
0.24361131009861914
0.21224552768611116
0.22182712242229238
0.21566846260031836
0.15894944301474478
0.27879346831455937
0.30000483964629204
0.40187902691958105
0.3667343692814403
0.21828465050663187
0.21524429644239815
0.3134295544001942
0.35694581803804926
0.24342345204082527
0.2502524763897967
0.30182852461338644
0.09749042094919504
0.2449799409266785
0.22982848596998842
0.2874851291854258
0.2041627640676629
0.2768015965643265
0.2935935971040783
0.19617578012635964
0.32638910217061934
0.10217366728943622
0.24924027436358007
0.48268142686759086
0.5612694123791155
0.28303725252850725
0.28121486160283693
0.42443659103133774
0.4008939217189369
0.31759592488135374
0.34507503134553336
0.164504760803366
0.3126521729372774
1.0414645975088512
0.25718477138623097
0.15304391874923326
0.16142075237590728
0.11250682726279969
0.2309599596263605
0.36654066043282446
0.15030373087698873
0.1458322817931987
0.4362856703220261
0.2882459666198429
0.2082753978245131
0.6236540256242673
0.3968020275290337
0.2633104965306919
0.14735899226229132
0.33149889231701785
0.349416524028016
0.23731036882297546
0.5113078432453518
0.2813807939482527
0.27913474516479564
0.34268280950928864
0.20060680014514937
0.29761617728161976
0.2876139018504614
0.28336978720079214
0.24049311111130814
0.3115412499196103
0.18754155718337034
0.366166651422905
0.26352309366989346
0.2800166193804692
0.292126910204417
0.17354162523345748
0.42396437287271455
0.3073857059527633
0.17646010835027934
0.17424827203390494
0.15311769518353727
0.19299441235926226
0.21359404803648493
0.2821713170936854
0.29997100649911357
0.2427443128761564
0.2261575695295405
0.2943570463959944
0.15808837491392566
0.283830280065779
0.19703568267005986
0.19094296601849067
0.25880885142792404
0.1992170726552162
0.6639172132114806
0.21828465050663187
0.36077513035289394
0.23006525706631065
0.2296532168778762
0.2776536781940654
0.19914984666325747
0.24946245241559262
0.18947036412666973
0.24407400395586296
0.22470790779775984
0.39738189399959783
0.16451023141197268
0.3747864264570099
0.30053839411073796
0.214530192612924
0.17131320630908212
0.2479066315570322
0.16484457424846533
0.3203094906336165
0.22254810429876942
0.3058733860520542
0.2592836224468748
0.1532507020137492
0.28121486160283693
0.3433431466661585
0.42269168468243
0.18670752479711764
0.2636638518136644
0.24498946079357498
0.33628115665768876
0.2884798364100289
0.1966854508840764
0.22757842274409681
0.17382993012022058
0.1851147113723
0.34813085386742787
0.1576954127085014
0.4492925273727822
0.2997979555672834
0.22955236787776573
0.18698190828508504
0.29557477242827934
0.18155021335969188
0.29687994181766936
0.1851147113723
0.29345247176616773
0.14845041701022957
0.21861800325743513
0.1765237063427472
0.23178172196823651
0.21246115142102232
0.1882893024410327
0.38333011754756025
0.28396581671261295
0.3233572772074001
0.28401297949188337
0.2283900236746659
0.21089463849137727
0.16727650052019932
0.3890978110997513
0.22152223143322183
0.25260630316974064
0.5149235832134207
0.2840031019704812
0.09786666781578383
0.6156205054282528
0.29827769321077846
0.2038111844347201
0.26014143198209644
0.34367623747598147
0.24471780561333722
0.3904483233571861
0.33247019205570094
0.09508033705339589
0.23453052267625896
0.24924027436358007
0.21807794237151587
0.41770700494528196
0.22538341207340384
0.30365969392182596
0.26987432221951185
0.25318705887234594
0.37657714440238166
0.3072229102231022
0.29156335014118334
0.2109737692147408
0.2975826693334154
0.24946245241559262
0.30319091303380286
0.1728173936645322
0.18670752479711764
0.5683317438325121
0.1348758761843828
0.26349954761110217
0.21347827434186747
0.2709983026856274
0.38771079000961806
0.1532507020137492
0.21745219255033213
0.35001729063040243
0.4194616395742582
0.22218925411149767
0.2343580475410701
0.41897092748164977
1.0251156567360873
0.2402464755499181
0.20198640871236345
0.2539960203633686
0.3116443932059922
0.21637975125999317
0.3748977655365609
0.3020515345881101
0.18649886246550768
0.2958041015317632
0.16142075237590728
0.305366652787876
0.36505363267173013
0.1043898341873615
0.1019526175165486
0.15565360152027316
0.22353858117816935
0.3074155974028364
0.1497965889734339
0.19538130470192988
0.3825204740170892
0.24431292406269778
0.21432569473309732
0.3448644520296804
0.3630582315536407
0.322639183023674
0.22152223143322183
0.4362425262804348
0.18151184596468445
0.38662004126632227
0.281958801724466
0.3909173395277368
0.22254810429876942
0.21995269884808377
0.22485608760053868
0.27257009745663074
0.28434880394496853
0.20695394717786578
0.41770700494528196
0.24924027436358007
0.3604429167552014
0.17466894079707193
0.3203094906336165
0.43701225354812123
0.24606382777084715
0.21447039156871223
0.3203834151008214
0.2002867997414275
0.22982848596998842
0.2943570463959944
0.4065346017462702
0.15894944301474478
0.21089463849137727
0.17400431168457967
0.2296532168778762
0.20264163340059121
0.17583488448837828
0.20806357257678854
0.26613516110609803
0.44891350364237315
0.26685791106393897
0.21637975125999317
0.32935052986670427
0.24756614199811142
0.35585360270077004
0.34294705607297127
0.2281017786246945
0.2771598589917298
0.37118704990873586
0.3434903561305033
0.15158924558054013
0.22324455972733945
0.2634419641824933
0.4891959716506824
0.2954793659573534
0.3367046429540589
0.20547574398310514
0.25933335655128725
0.15705302917099917
0.36635496038709103
0.12056612950389575
0.3707494184615761
0.3558825127012086
0.3421882367169992
0.12752958330863787
0.24465233351649165
0.3468896152637588
0.22851885017916385
0.2202186911715711
0.5527198213946233
0.2449799409266785
0.25174824997211354
0.26896025544995295
0.21525221400699637
0.42545690223320287
0.5762664581649594
0.4413632185627142
0.15304391874923326
0.13112712534629375
0.3073861178416371
0.20060680014514937
0.2158484845606686
0.2758303313126501
0.2712230210801064
0.20896676158668973
0.1859502611108926
0.18117729841293373
0.1615791581288789
0.1724399494262918
0.19094296601849067
0.5931513116970196
0.329954851971285
0.26736490932548795
0.5302298502226989
0.3788855462121941
0.2425244049910045
0.20343267717809269
0.283830280065779
0.16719143150155918
0.22730814385198547
0.2997979555672834
0.21415844564538794
0.34216022199601265
0.29282435338215135
0.32779251021017014
0.4413516819698249
0.44070705087321876
0.25435850006215627
0.37605135834711323
0.2421004996763887
0.16553229971280964
0.3445054614197761
0.3111325703650055
0.4434576934041618
0.2813807939482527
0.2756184363098479
0.23573772342887983
0.3446678735075811
0.18141753725887985
0.32745947446845913
0.2851874863663188
0.25827781126169397
0.22632889272162734
0.15057228696604502
0.47867023410487014
0.3782935430258175
0.24365922734998127
0.2707636954844324
0.28996811740465495
0.2774582555263892
0.2001709257311672
0.40756193725163525
0.0996253814227991
0.331516581084859
0.40291699857747265
0.21175354973262298
0.366166651422905
0.3082235056457409
0.1816284041411481
0.21211786032584562
0.2524840818827464
0.21952323519001307
0.27008432592506715
0.2082753978245131
0.23485157219225505
0.319642779689673
0.18754155718337034
0.19513350083569908
0.23707362293228865
0.2504079825766307
0.12431992969925557
0.19485474056922106
0.23808989776275227
0.24292226518715787
0.20409088375006929
0.2587683538720396
0.19781036813574257
0.45688874744701674
0.20393890463410147
0.3995499462607629
0.5479166222665257
0.30888836222345306
0.6236540256242673
0.34370512653858926
0.21182527880570495
0.2840031019704812
0.17198014911954285
0.4174518168532647
0.2539151450446785
0.2664089150332603
0.3723914311600923
0.24927863525847835
0.2809217425078877
0.2506558508177354
0.183257874911371
0.2827264667538064
0.2100495161327928
0.2556863839921371
0.34216022199601265
0.20562965249282994
0.27790208939809563
0.21349859791290637
0.3131133609923749
0.3360340925053183
0.35124537484614415
0.1295233554499452
0.2368069651465311
0.20806357257678854
0.1024993390641698
0.20753204955486823
0.29761617728161976
0.15541803011091157
0.2125803496452561
0.21788054102122983
0.6639172132114806
0.35154208198758646
0.18203391824755458
0.16419368330376552
0.2376609050581231
0.4369181441195188
0.4500597437039657
0.2901376233940154
0.11521852836898931
0.40187902691958105
0.26694267712148395
0.3452592937824849
0.2001709257311672
0.11499763352413762
0.21415844564538794
0.2510363416410289
0.3605739498480363
0.3112414507565516
0.19217370758924712
0.19485474056922106
0.3884254889923564
0.2768015965643265
0.2427443128761564
0.29491677445728515
0.6143024085607495
0.24306335227905457
0.42716294831230095
0.47904035579532717
0.2553828270124031
0.22061215211447102
0.29412224158749933
0.17317767673606246
0.36255289928887974
0.18151184596468445
0.20180471067183034
0.2532769266536563
0.1019526175165486
0.30995967075163716
0.3112414507565516
0.2756553181103651
0.19147579375941007
0.3382652431508507
0.4114389907983971
0.23698919553814796
0.23578541694708705
0.3185985017555814
0.29802426439626195
0.19407135588410945
0.20277989927231416
0.43408813496583726
0.2943570463959944
0.3221924183433071
0.2331299116792687
0.3149501352399331
0.11521852836898931
0.2237173897724846
0.18070814702504714
0.13740184556421178
0.18445696103115927
0.46566500012928874
0.2720787269476505
0.41368804439825424
0.1295233554499452
0.2975826693334154
0.24336366397963718
0.29687994181766936
0.37184069823960947
0.18477686369008012
0.1295233554499452
0.16613184505180909
0.5668945743214131
0.1362893475906855
0.28778742477234603
0.5370777369256052
0.20695394717786578
0.1939160891657646
0.22538341207340384
0.35694581803804926
0.16553229971280964
0.30273216846540574
0.2592425087488082
0.5144868580187929
0.3322996419490033
0.19012966864998024
0.18301881711498533
0.3098836538883291
0.3775455455796363
0.27952654995931275
0.27984021966384887
0.49618063076273694
0.2573554791921669
0.23433230947054653
0.28396581671261295
0.43283655922876385
0.23491489991311038
0.24465233351649165
0.20814292564258652
0.31817022908741277
0.17466894079707193
0.2333519766727708
0.2333519766727708
0.3747864264570099
0.4940790870285896
0.249739810271909
0.31206389091897335
0.6143024085607495
0.4872846165009267
0.28122374945293327
0.2978634230074548
0.21495002188702578
0.6977054104807541
0.099669759263554
0.15170348006262266
0.4489303204150232
0.16854462700369355
0.4080941600640783
0.2121367048654602
0.23123747721557275
0.2343580475410701
0.3909173395277368
0.29871823311323514
0.21103105838510614
0.26230063377696955
0.1939160891657646
0.3804365997496346
0.6440345019845845
0.49768624858184707
0.20226709680880542
0.2748519664356827
0.18229942467647653
0.2917173918480612
0.3592480441173991
0.25318705887234594
0.1724399494262918
0.23806118159668888
0.2441274965190687
0.2283900236746659
0.29761617728161976
0.15972423506057656
0.27466753407601413
0.17361547368005475
0.49182904911662173
0.2838000640354451
0.2636638518136644
0.21202186123603683
0.3592480441173991
0.3495600682446936
0.26268760744850267
0.45038899293272505
0.2651684219470053
0.2521789184981116
0.11601081551638923
0.26509489715311546
0.3332270867909958
0.2237173897724846
0.24756614199811142
0.38403770032225204
0.24355421797317328
0.22903035962174742
0.2720152014230195
0.44334429069841474
0.29440323562968007
0.3409389579283362
0.45343662486851805
0.40907665840902163
0.26371131276805965
0.22757842274409681
0.3330992729913784
0.2273911253124283
0.28747380377856924
0.7387711853541671
0.2389103906198801
0.19094296601849067
0.17354162523345748
0.2148886527444724
0.3760968058097244
0.15972423506057656
0.35779657027496414
0.35700130152424503
0.2284785324595296
0.22311128852516202
0.21681345602641935
0.3782935430258175
0.21254515144812647
0.2868856610360449
0.21052855351537345
0.3137703087796205
0.4870008000713835
0.1919128079534962
0.18085340219167187
0.23709404332388043
0.34216022199601265
0.3605739498480363
0.2753392588346203
0.20264163340059121
0.2237173897724846
0.20383867103389375
0.15005348557948117
0.4385938880346314
0.293760824916532
0.3450834296928257
0.3322067217717757
0.2827264667538064
0.2607388116615588
0.18407138778807933
0.7707715495620118
0.27888151963076696
0.10559940425479485
0.21108171411361729
0.2343576033100111
0.29211860816596097
0.3127687808712657
0.16380140059640577
0.3137703087796205
0.24495634287370702
0.2111742815366269
0.1996533454284502
0.2358294851910834
0.2214744051925488
0.1620796007820235
0.3138712627486396
0.14006936628933137
0.21363063486950046
0.1882893024410327
0.18771142231318358
0.2813807939482527
0.42342960539411034
0.16147547172884252
0.17091825740166566
0.22910247103267922
0.2936219863837868
0.14409800375917423
0.14735899226229132
0.23808989776275227
0.18016587238200513
0.1906611693410585
0.4059754287647184
0.21211786032584562
0.36635496038709103
0.31110655306590096
0.22169565062701402
0.2302178039763191
0.36505363267173013
0.1606120458194481
0.2593480239830964
0.29211860816596097
0.244975052644205
0.172372631777128
0.20196031278737495
0.20196031278737495
0.49066773092650245
0.275681477193396
0.3434903561305033
0.2475221054891622
0.21787331491545292
0.14222295921488723
0.2663696138135327
0.16020043446964854
0.23123747721557275
0.3149454835165504
0.25900878423557977
0.19914984666325747
0.34367623747598147
0.26371131276805965
0.23710741698080026
0.21279235859735082
0.2896550294033882
0.306439542973843
0.249739810271909
0.27879346831455937
0.25933335655128725
0.24766347346413164
0.1992170726552162
0.28689670547485663
0.3446678735075811
0.31198493513499065
0.40698239376613404
0.5082701996697344
0.18963657078599683
0.28876431543314046
0.2507158463424893
0.24734218739374852
0.2462125262619933
0.22008181209463212
0.22602145600434415
0.24342345204082527
0.19264554280665344
0.15168152513547373
0.26356200633799226
0.3126521729372774
0.22775964024475667
0.23573173289271268
0.1939160891657646
0.24836802069155134
0.24062571812791314
0.2659985453419251
0.42853906370064476
0.25718477138623097
0.1269597894316962
0.31039929321052306
0.18471978640657932
0.6257495998045874
0.33149889231701785
0.16553229971280964
0.16072534827997953
0.2301412324950345
0.38662004126632227
0.21614856477436414
0.13229863065197095
0.616866754844537
0.2473387283776012
0.20806357257678854
0.2472493870603277
0.2893108639727231
0.3446678735075811
0.16114519444443068
0.18754155718337034
0.23453052267625896
0.3775455455796363
0.08453535572346056
0.22130366752504635
0.09786666781578383
0.2935509608320963
0.1554139433616718
0.43384840286922227
0.2858911210297949
0.18649886246550768
0.4520941296500488
0.28303725252850725
0.27442595573871287
0.27258064633185436
0.20343267717809269
0.15972423506057656
0.22026150663943433
0.15705302917099917
0.6496916150298362
0.1919128079534962
0.34367623747598147
0.20252177958641182
0.4940790870285896
0.2114537888691518
0.1777610899615311
0.29871823311323514
0.41095379829762596
0.4891959716506824
0.3941739632766608
0.2878859353041143
0.28635545105948806
0.35223445063878067
0.15097018565101
0.21363063486950046
0.3630582315536407
0.215539391442474
0.25522082650962014
0.18520256436305121
0.15808837491392566
0.3185985017555814
0.2283900236746659
0.19217370758924712
0.22553533431738898
0.3606534148114638
0.21813515238093514
0.2968363158797991
0.19781036813574257
0.22239274740617032
0.2254903643711455
0.18754155718337034
0.14006936628933137
0.11725359470266641
0.26714183308434264
0.43125757317220714
0.18312803447656445
0.18611449628980656
0.1947298484399677
0.3908375267978592
0.26694267712148395
0.25390272845336254
0.37583433406609057
0.4194616395742582
0.3378267056738219
0.3761564870276205
0.4554556489947275
0.26685094280909094
0.2020127510730608
0.2598065262743854
0.2427443128761564
0.5370777369256052
0.47253482017207676
0.3909173395277368
0.29999556602613153
0.28303725252850725
0.412682844178885
0.14845041701022957
0.4266086426028991
0.2817686901400475
0.2514805522993237
0.28122090674381156
0.2707921671348398
0.3599349570674725
0.37209784368951265
0.28312277048249535
0.3933584553005263
0.1580596955161829
0.35041361211405664
0.12298579424261862
0.2502524763897967
0.2957386033324662
0.6250894705542819
0.5052461645554075
0.2470243509768407
0.16114519444443068
0.4976724573312878
0.3592480441173991
0.3066202031677338
0.17131320630908212
0.4313016074263717
0.5094589216860087
0.23249863475591034
0.37010704017994767
0.317367881578339
0.4574263281033099
0.1150377415904391
0.2532700427220988
0.2651971523951128
0.1919128079534962
0.22757842274409681
0.377673514207301
0.28756248857573496
0.2705738438689066
0.16356732056685494
0.2463149240896482
0.41770700494528196
0.5503466822574403
0.2121367048654602
0.28756248857573496
0.20300482745718232
0.25260630316974064
0.319642779689673
0.27008432592506715
0.5192107612063819
0.12356782199768422
0.2592425087488082
0.19264554280665344
0.2301412324950345
0.4090358188193194
0.3233572772074001
0.27443704002894315
0.43406826452925634
0.2449799409266785
0.3070379201894622
0.36075306128925
0.4067894928807064
0.14222295921488723
0.20814292564258652
0.45688874744701674
0.424001424030824
0.295596734165965
0.2496865788038724
0.1236861638942932
0.28769038742998543
0.33495950467883134
0.3203834151008214
0.14375037245020944
0.3908375267978592
0.21788054102122983
0.4313016074263717
0.29282435338215135
0.35852471419306203
0.2487307100530513
0.7654258474202281
0.1855340091819007
0.31206389091897335
0.40571247526406656
0.362991794887441
0.17317767673606246
0.19147579375941007
0.23573173289271268
0.3965739082088796
0.21818879896277693
0.2556652289187603
0.42342960539411034
0.22570832354604153
0.13795906878326045
0.4386043876921502
0.2625702992308108
0.3599349570674725
0.15275082838440873
0.3965739082088796
0.19526625749224022
0.2597993409720244
0.30932523870794726
0.5612694123791155
0.10217366728943622
0.5610079409406801
0.4484843470396787
0.24568309452009646
0.1947298484399677
0.27455612261363926
0.26714183308434264
0.20656410881814782
0.24959454850983623
0.29930554987847446
0.1236861638942932
0.28560999837442125
0.20968101157172822
0.25880885142792404
0.20252177958641182
0.2691743975273873
0.20896676158668973
0.09866652983742734
0.1580596955161829
0.2313402142907345
0.24061587697474407
0.20893779309452593
0.3133860489090179
0.2441306969085042
0.40571247526406656
0.3220098024082605
0.19729409907725975
0.3825204740170892
0.16854462700369355
0.2997979555672834
0.1855340091819007
0.18301881711498533
0.31743740991347624
0.30809797205111455
0.33472788498126266
0.22584311915213603
0.22497664105117382
0.2390206388970386
0.20924540143558693
0.23782835774093436
0.22273235088098103
0.41056305366599133
0.3194682097939302
0.24444583637584721
0.15760228634002652
0.21535855604217177
0.32935052986670427
0.18698696149816005
0.2758303313126501
0.3012205967629589
0.2305835073592627
0.18471978640657932
0.3788855462121941
0.658452762367971
0.2425496821764639
0.37431618038306763
0.17354162523345748
0.2720152014230195
0.1861525269942454
0.28741527689223445
0.3612108877342264
0.3825204740170892
0.26591760477884485
0.27343675532609646
0.3746735642420832
0.1487602407319895
0.44224244808202656
0.2020127510730608
0.994169132657299
0.3012205967629589
0.21012985837458995
0.29517755827764547
0.2777463667080094
0.2615106225514606
0.3448328612013899
0.22287280683791608
0.1842536339724996
0.25318705887234594
0.3655767862747249
0.322639183023674
0.6032603614828163
0.3760968058097244
0.17482495978822735
0.25111176973846083
0.2041627640676629
0.16066452564100983
0.3112213065477079
0.2662191997184819
0.4880542286280371
0.1873895271713966
0.30393006422324936
0.23237475951410003
0.2725386642170926
0.19167554632907943
0.5394266544251751
0.17422026667288842
0.1909579292891958
0.214530192612924
0.26371131276805965
0.4872846165009267
0.2720152014230195
0.22273235088098103
0.29453358498643817
0.15172052760448926
0.4272373602097888
0.2970919717295187
0.41306310375978295
0.5312743751127941
0.32603588952048457
0.21788054102122983
0.21415844564538794
0.22584311915213603
0.1576954127085014
0.2809217425078877
0.3047019472922759
0.24226027110463136
0.19012966864998024
0.19093334536462123
0.44658847585564393
0.30120567049130087
0.36734329239807245
0.33892815976317486
0.36292031382352935
0.24959454850983623
0.3020515345881101
0.22896581412151534
0.2524840818827464
0.8580244101945557
0.1854238133108318
0.18117729841293373
0.16854462700369355
0.18477686369008012
0.1269597894316962
0.3171026064453118
0.29156335014118334
0.15705302917099917
0.22422370649732254
0.23782835774093436
0.2969612170960907
0.32779251021017014
0.42754477814521324
0.4434576934041618
0.49182904911662173
0.2002867997414275
0.3203834151008214
0.19703568267005986
0.16654529624679354
0.3750408023855002
0.3203834151008214
0.14517210718260937
0.2756184363098479
0.16436327760939629
0.39562190398836106
0.27336012764838924
0.17382993012022058
0.2402157140418078
0.10411761369391838
0.183759355444851
0.11039701327311933
0.2473387283776012
0.3971311556043858
0.25104774191808044
0.2633104965306919
0.15097018565101
0.21908698095550574
0.23433230947054653
0.3362405196506343
0.28996811740465495
0.25044245536095244
0.20014261865360866
0.28227064587432077
0.22967160806074222
0.326156067432331
0.1487602407319895
0.2729001059684985
0.1887465563761442
0.28997827076116145
0.31155352997077324
0.3264075326119505
0.5401277318542128
0.15862783930123325
0.2659985453419251
0.19485474056922106
0.2840605247278808
0.29498023687496894
0.23808989776275227
0.282459876339413
0.2402464755499181
0.3138712627486396
0.3445054614197761
0.2058975350730363
0.2728874780777326
0.288601718263042
0.20300482745718232
0.20264163340059121
0.49812655244052373
0.2948735009889809
0.17842071253286054
0.49066773092650245
0.2473668471853298
0.24756614199811142
0.21007281706909361
0.20906351423669786
0.37560616886043907
0.21099638592157013
0.2599700320017459
0.11499763352413762
0.5130455151960525
0.6605089465594155
0.2473387283776012
0.348642169984238
0.2399086904157005
0.19800942409884612
0.19796516907121417
0.20968101157172822
0.18229942467647653
0.23361822266892937
0.16114519444443068
0.2969313661838428
0.18408425307138962
0.29804652014081173
0.2936219863837868
0.24560715215184178
0.4032770304832691
0.22485608760053868
0.23320401238278823
0.27888151963076696
0.2664089150332603
0.45688874744701674
0.18747657768475923
0.24959454850983623
0.2966171988712645
0.1043898341873615
0.23782835774093436
0.38942253474886124
0.21383420511067064
0.4650331700983013
0.19781036813574257
0.47199919220160497
0.35694581803804926
0.20562965249282994
0.27133547116471873
0.4194616395742582
0.293760824916532
0.34777386814469563
0.3825204740170892
0.332224433724339
0.22416425333503484
0.5431331579675657
0.28996811740465495
0.390958403489742
0.23399641882921735
0.1482862445227946
0.40698239376613404
0.27703506148890356
0.42342960539411034
0.4798515795825246
0.4438239758570055
0.28689670547485663
0.13970159977576005
0.24378758283522747
0.26685791106393897
0.32745947446845913
0.22422370649732254
0.3073857059527633
0.21165314586858783
0.21415844564538794
0.26685791106393897
0.21380721990887736
0.2801256513565761
0.29804652014081173
0.23179844119735574
0.31658747850839997
0.3070379201894622
0.3707494184615761
0.10447816660375019
0.39343740049347853
0.19147579375941007
0.1939160891657646
0.378869203801673
0.08453535572346056
0.1632709735097405
0.1500989384615478
0.3971311556043858
0.3709912543687739
0.3825204740170892
0.20236449259179562
0.11465774435672155
0.23922710339408015
0.31787381165786077
0.14222295921488723
0.2882459666198429
0.12356570612963383
0.15565360152027316
0.47199919220160497
0.21727300362332666
0.30545809600454715
0.35747774456037174
0.1487602407319895
0.28534804871703184
0.3707494184615761
0.26901943283126495
0.2301412324950345
0.27466753407601413
0.19729409907725975
0.3492463697582937
0.2884798364100289
0.29491677445728515
0.3492463697582937
0.2882459666198429
0.39647787646231253
0.33024322482223567
0.28303725252850725
0.4347219868218842
0.2791709244595614
0.12208620783822337
0.48211155025438845
0.26207494456789693
0.10230092660946859
0.28155185810932537
0.19939025809729283
0.3074666732516403
0.34804069728943426
0.4004155866102641
0.29976375443371805
0.2966171988712645
0.22565425880729498
0.2926287534144769
0.11223325490666909
0.3525300470028643
0.2462125262619933
0.387084716145253
0.2082753978245131
0.23356927553390416
0.42559112344922734
0.466618423844117
0.27837494377881444
0.2705738438689066
0.22440058426953033
0.3244078193026752
0.28238135485122345
0.24560715215184178
0.3266265073496468
0.15705302917099917
0.21637975125999317
0.2884798364100289
0.1859502611108926
0.17244249383514643
0.32779251021017014
0.24439969323667915
0.2799369702620766
0.16356732056685494
0.2810303378283407
0.34370512653858926
0.2875777208735791
0.19197379316745875
0.2002867997414275
0.15929072542603337
0.2651971523951128
0.27837494377881444
0.38766189296618725
0.4004155866102641
0.1773888611711942
0.37010704017994767
0.32477362960772904
0.21553939144247405
0.2592836224468748
0.21172440000144185
0.37914370643482703
0.24439969323667915
0.23078041095683108
0.2876139018504614
0.33387594318339076
0.5077351458281935
0.3362405196506343
0.215539391442474
0.24185512979053111
0.15005348557948117
0.559439574655312
0.21807794237151587
0.3190258388095425
0.21034169233460323
0.35154208198758646
0.2349177381326376
0.3074155974028364
0.19821867489727577
0.22955236787776573
0.22694305218442
0.26698123054610634
0.25062439498098665
0.23413719427630889
0.3073861178416371
0.0996253814227991
0.36175259373053287
0.1909628730258473
0.3203094906336165
0.2137327648161443
0.26349954761110217
0.29744042172730334
0.16419368330376552
0.3468896152637588
0.1052126197501226
0.1043898341873615
0.2521789184981116
0.20739765904891522
0.4591211228712122
0.25318705887234594
0.21103105838510614
0.4029589662719478
0.283830280065779
0.3788855462121941
0.2425496821764639
0.20196031278737495
0.25104774191808044
0.20656410881814782
0.4489303204150232
0.2343580475410701
0.5716264457806216
0.21216272826851892
0.15600702270768205
0.2305835073592627
0.409080687524672
0.10207212108890663
0.21022539520651995
0.25671242949038203
0.13795906878326045
0.3330662726052613
0.27443704002894315
0.1859502611108926
0.18805965980046693
0.2935509608320963
0.4102572983885972
0.2625702992308108
0.2902506750482779
0.24830809681381327
0.14222295921488723
0.1697715445897031
0.24110106897007452
0.3082235056457409
0.26987432221951185
0.3709912543687739
0.2051460637680386
0.15030373087698873
0.23087827913271544
0.23808989776275227
0.3962622717608898
0.15649814636339907
0.2431433396891725
0.5503466822574403
0.22169565062701402
0.1269597894316962
0.15158924558054013
0.1334396206399049
0.28876431543314046
0.2676969970745267
0.5136092238870053
0.20753204955486823
0.17382993012022058
0.16356732056685494
0.03362553924803319
-0.038968875229124185
0.03917885632444744
-0.03722333669346308
0.06961204476246861
-0.06385022385085234
-0.008246370689790302
0.008356087554505067
0.009667036815620015
-0.009964749233878986
0.07508812847292654
-0.1848883414285119
-0.270263143615022
0.12275645919569327
0.11960633259900112
-0.19210770479949218
-0.10143576800970976
0.05999120435480693
0.05181231764806542
-0.0865042508909272
-0.0900781890513536
0.061298530865344654
0.06335391809512242
-0.10120201598279592
-0.005712301776824875
0.0070405952952094335
-0.0458043480572435
0.0487058521062394
-0.11235141603404906
0.09605370051154058
0.04897477112861166
-0.06648993665578722
0.042501404977931014
-0.04029716622639227
0.04706718067221134
-0.044204709019590345
-0.023969373406552166
0.02475397124718192
-0.0631510287027487
0.03212336776128162
0.1858245150184112
-0.27724757673986117
-0.11879560909492094
0.07044975436245753
0.13109644527428965
-0.2839255734716881
0.03698856508301012
-0.05896044237745315
0.0827346293917694
-0.13901945729683077
0.042541922154497515
-0.0392782662348919
0.041936898010437866
-0.06846069596829234
0.17646150556947235
-0.2634617649136844
-0.10956995353726826
0.1277375723696916
0.1448452716015627
-0.22828880119361317
0.1086630657283068
-0.24435435234539898
0.003970594199598332
-0.003549726948172627
0.2318628011688953
-0.327911089962043
5.624406910973434E-4
-4.25279330183659E-4
0.059456658380615465
-0.13156729378549778
-0.002030748302025172
0.0020329329391139597
-0.006312011185191574
0.006420693021037375
0.03234812796451924
-0.031069245193588016
0.11732320873781796
-0.16387999179331542
0.10153570657159634
-0.22329274275402916
-0.13803039770861117
0.08211023269494314
-0.1683286010522465
0.10320713966806629
0.1475638298054737
-0.276806376598833
0.2585016104493461
-0.1928014607124997
-0.050366790469699114
0.08294668662675098
0.08206197375990133
-0.23184529167525073
0.06856285932249198
-0.06287074060791582
-0.11308950681455912
0.09652640485515405
0.03578190340639006
-0.03415954400450851
0.02401613956079932
-0.026416208255789372
0.07736003162620322
-0.12413842819164339
0.02321253571390441
-0.03229887265789275
0.038259141815404754
-0.04441691999550851
-0.03972119898592191
0.043947461264611694
0.11046491359487952
-0.09658137311984952
0.01618169468215874
-0.02020745689234407
-0.10874948533551056
0.12715752373721048
-0.07653191740860649
0.059751388327809914
-0.017868011099871316
0.01391351978599074
0.030204687630168682
-0.029054473422577824
0.13272114739629823
-0.21301953653529104
-0.20018997369490119
0.10843801253480821
0.10116463268170298
-0.17501543647843104
0.0446281076730127
-0.06819893118898104
-0.07534667781115643
0.05555795707108044
0.019002893128047385
-0.01853365098953339
-0.31307442584731987
0.11403033573715692
-0.13447264137134574
0.06230803788859312
0.09544883347524966
-0.08479170042652481
-0.2787204633714224
0.18707586909227095
-0.7538145840235045
0.16763095949055218
-0.023366611350372855
0.031796893948609004
0.11289288185191504
-0.21729599482661793
0.127396840649053
-0.17563167091353862
0.0738232332889302
-0.06721836534863085
-0.0015885927014219756
0.0015486580131382672
-0.10369090543657472
0.07785414253702962
-0.20023397356077233
0.1262284495481753
0.04467145950784384
-0.042251010001708444
0.10175671617679558
-0.08903041749273768
-0.05340432902555109
0.03810466467786014
-0.19838576188727802
0.10869781223800563
0.1622587211363503
-0.3456084673666788
-0.013306581085098855
0.011780937999050778
-0.12991441636231493
0.06742455428715972
-0.20935239210343132
0.13112064467984838
0.10024735222832913
-0.15567383231759593
0.11073388959168413
-0.17826216721841845
-0.11969820150517069
0.08766459263371083
-0.3931080256471383
0.19584011043451321
0.16738720744951846
-0.4364231247424735
-0.11512774826518812
0.060743110106817336
-0.1328130780719008
0.08090121985407378
-0.07725245494614938
0.06397993263418446
-0.14874089277366317
0.08814380251495964
-0.05053266160343115
0.14067621900913616
0.19375547537555532
-0.15458812329485716
-0.04957795140509872
0.05387529586780106
-0.4129518736561183
0.17706917100627018
0.08335217776322067
-0.22455509571479007
0.06627480055968749
-0.11294043360381707
-0.3153992124446731
0.1271659278215986
0.038625173330039037
-0.03677041758387695
0.08370675115904798
-0.07499293804719234
-0.12806627963968203
0.15378517250092566
0.22177436326059974
-0.17219716832965215
0.030661196124211598
-0.03641136732984278
-0.16663308623657774
0.21277999836464728
-0.5513212779291883
0.18402744199624108
0.1522612313070853
-0.23829177081971864
-0.09886703933982022
0.11383383432017859
0.08578525582196679
-0.07699402879482355
-0.05707215082855713
0.061686981048687424
-0.4169385508184377
0.3307946281897739
0.12802414648902716
-0.06955863902384919
-0.1357777093844882
0.1651652762885675
-0.04497599866237429
0.12070239381369244
-0.07423630757851205
0.08219389531529635
0.0819553424807445
-0.1378690728667815
-0.0030976506041800345
0.009095287528989854
0.13123921699353763
-0.25066953293901745
-0.01945340809611032
0.05775003906522109
0.038148262650040704
-0.045946622440115915
0.002119410206612035
-0.00198545595270936
0.08031500724645702
-0.22234934434303702
0.14221065822198925
-0.31143897032762713
0.2377083902405836
-0.33459043005664907
0.039570356827038355
-0.03758994586771218
0.06642079829411526
-0.11074993778431184
-0.14493212525257618
0.17872584548399126
0.1609281269703757
-0.4960646421086449
0.04897477112861166
-0.06648993665578722
0.08602367632845996
-0.16389977706138184
-0.2779269871386167
0.15961949364613168
-0.123532288160757
0.09520245175710862
-0.179894764305811
0.1222215578618794
-0.02230897718134617
0.019905751898838992
-0.11243089565196233
0.07636297210689788
0.14029476779973
-0.4019126909091048
0.010797711410313998
-0.010565405582529988
0.04498158812821783
-0.05223555513795302
0.19346988700455295
-0.48736110590292664
-0.04138286997495173
0.11533735270809786
-0.07714086331774923
0.046128624492759354
0.1564465216343468
-0.059437567864105686
0.12197110683261228
-0.18070897381647608
-0.06703075805949622
0.03460425955357181
-0.3630590883816749
0.17291579492498202
0.1447161899182266
-0.12174593984040687
0.011175027619914252
-0.013336700748814016
0.019227406087389123
-0.019675031848489035
0.07800350056556594
-0.11645462809450642
-0.05822495750821782
0.06359677167833451
0.03387135893870075
-0.0323945597560514
-0.03753926105758062
0.039983353469111804
0.0047869113461632305
-0.004809834828284509
-0.09164735241517977
0.10415651089683053
-0.03413808339023798
0.03572090147021471
0.16298347021493947
-0.3420073050265778
-0.03173033921865646
0.033129793958846195
0.09763463846163065
-0.14367566319104594
-0.07017028847446781
0.07743847546946377
-0.01891346764317549
0.05582345599744105
0.038625173330039037
-0.03677041758387695
0.0431655843426388
-0.04047155108027351
-0.09913174645465413
0.058770251813808294
-0.027000347346929694
0.028057440050082403
-0.03208458183195828
0.030557632641216463
-0.03208458183195828
0.030557632641216463
-0.2290924064716752
0.14494411587231318
0.13071106832395413
-0.1641190367024369
