GIS
1
0.0
2
No
Yes
3
4980 0
1860 0 1
1566 1
8406
考
情报_1w
之_-2w
争_0w
却_-2w
从_-3w
安全_-1w
守护神_-3w
短期_-1w
纪念_1w
耗
军队_-3w
脱离_0w
取得_0w
却_-1w
文职_-2w
取得_1w
别_2w
家门口_-1w
民兵_-2w
草案_-2w
号_-2w
洛马_-1w
应对_-2w
15_2w
设法_-1w
否则_1w
联
钓岛_1w
聚
逼_-2w
发出_-1w
号_-1w
洛马_-2w
却_-3w
长剑_-3w
技术_-2w
钓岛_2w
美殖民地_1w
改革_-2w
开工_0w
宙斯盾_2w
上任_0w
双航母_2w
充满_0w
科技_2w
榜样_1w
能_-3w
堵塞_2w
演练_1w
Ha07_s
逞强_0w
垄断_2w
培训_0w
改革_-3w
肩
核潜艇_-3w
15_1w
波兰_-1w
慰问电_-1w
海峡_1w
成都_-3w
灾难_1w
关键_2w
炮弹_-2w
背
创新_1w
Dk07
搞_-2w
要求_-2w
游行_-1w
即可_2w
开_0w
情况_-1w
胜
胡
消融_2w
增进_0w
炮弹_-1w
能_-2w
创新_0w
He12_s
美济礁_1w
Fa28_s
爆_0w
能
Dk20
火星_2w
尔_-1w
Dk11
Hb14_s
Dk14
演_0w
安全_2w
脱
更_-3w
盘旋_1w
要求_-1w
言辞_2w
哪个_-2w
脸
住_0w
禁_2w
关岛_2w
坚决_-3w
美印_1w
更_-2w
纳米比亚_1w
交货_0w
缴获_0w
震感_1w
动用_0w
白宫_-1w
喜讯_1w
率_0w
击落_1w
更_2w
更_-1w
形成_0w
动用_1w
8_-1w
白宫_-2w
Hb01_s
拿走_0w
关岛_1w
釜山_1w
偷偷_-1w
接触_-2w
8_-2w
购歼_-3w
动用_2w
死伤_0w
关岛_-3w
言辞_-3w
巡逻船_-1w
帷幕_1w
海豚湾_-2w
Jb05_s
高原_1w
安全表_-2w
英拉_-2w
清廷_2w
300亿_1w
死伤_2w
火星_1w
创下_0w
自
保释_1w
帷幕_2w
至
致
沪东_2w
舰空_-2w
军事化_-1w
飞行物_-1w
公理_-3w
战胜国_-2w
进攻_-2w
遇_-1w
养成_0w
止血_0w
法庭_-1w
青瓦台_2w
飞行物_-2w
舰
遇_-2w
人员_2w
喊话_2w
生产_0w
平民_1w
推翻_1w
误伤_0w
介入_-3w
访_-3w
质疑_1w
Hc21_s
星_-2w
恶化_-1w
平民_2w
起降_2w
倾向_0w
核心_-2w
催促_-2w
死亡_-2w
预计_0w
世纪_2w
坠毁_0w
挑衅_2w
利益_-1w
支援_-3w
安达_1w
恳求_-3w
花
放在_0w
疯狂_-3w
、_-1w
死亡_-1w
实行_0w
履行_2w
北斗_-1w
车辆_-1w
挑衅_1w
媒量化_0w
舰队_-3w
项目_-3w
实行_1w
什么_-2w
弱点_2w
3日_-2w
驻_-3w
食品_-2w
苦
报告_-3w
挑衅_0w
背叛_0w
校园_-1w
相当_-1w
死亡_-3w
Je03_s
小镇_-2w
访华_-2w
军用_-2w
履行_0w
斯诺登_2w
武器_-2w
军用_-3w
见_0w
访华_-1w
建造_0w
战便战_1w
美舰_2w
Fa29_s
表态_-1w
见_1w
ISIS_-1w
Hg07
夜间_-2w
做好_0w
Hg11
访华_-3w
悬赏_0w
七国集团_-2w
兜售_0w
邱毅_-1w
交流_0w
摧毁_2w
直击_-3w
表态_-3w
成为_-1w
访_-2w
调_1w
阿勒颇_-2w
中_-1w
１３_2w
旅_-1w
叙_-3w
Hg18
调_0w
原子弹_1w
装甲_-2w
主席_2w
临时_-3w
ISIS_-2w
360_1w
旅_-2w
公布_2w
迫于_0w
贯彻_0w
主动_2w
民众_-2w
拥有_0w
击落_-2w
伪装_2w
裁军_2w
电站_2w
做好_-2w
获_2w
进口_2w
不安_2w
G7_-3w
Ka19_s
保证金_-2w
怎_2w
裁军_1w
宣示_0w
Fa05
布鲁塞尔_1w
部队_-2w
肯尼亚_-3w
测_0w
受到_-2w
枪_2w
尽早_1w
欧洲_-2w
Fa13
Fa12
卫星站_1w
全境_-2w
欧洲_-3w
中巴合_-3w
Fa01
Fa28
Fa29
示威_0w
打援_0w
太平岛_-3w
出口_0w
又_2w
临时_-2w
脸_2w
全境_-1w
Hj29_s
印_2w
增长_-1w
精确_-1w
Fa16
诉讼_2w
银行_-1w
暗_-1w
发现_-2w
尽早_2w
解决_0w
开工_-3w
照常_-1w
深圳_1w
山地战_2w
防导_2w
推行_0w
掳走_0w
决心_-1w
含_0w
歼轰机_1w
实现_-3w
Kc09_s
He13_s
华裔_-3w
周刊_-3w
赞_-1w
名_-1w
解决_2w
蓄
癌症_2w
拉_-2w
设备_2w
劝告_2w
阿彻_1w
完全_-1w
2万_2w
流汗_1w
移送_-1w
叙军_-1w
处决_0w
激战_-1w
挑战_1w
追随者_-1w
解决_1w
2万_1w
部队_-3w
阿彻_0w
钻井_0w
一再_-1w
扬言_0w
警惕_-2w
意味着_0w
激战_-2w
认清_-2w
蔑
拉登_-3w
行动_-3w
无法_2w
在_0w
欲驾机_-1w
健康_1w
激战_-3w
入侵_1w
小矮人_2w
允许_-1w
非正式_-2w
挡_0w
官方_-1w
演习_2w
时_-3w
行动_-2w
黑客_2w
前途_-1w
自由_2w
演习_1w
猛图_0w
订立_0w
抢劫_1w
交锋_0w
号召_2w
放下_1w
职位_-3w
此时_2w
恐袭_-2w
支持_-3w
军演今_-1w
霸道_1w
船只_2w
干尸_2w
议题_2w
前_-1w
昂山_2w
举措_-3w
恐袭_-1w
一下_2w
释放_1w
攻击型_-3w
Hc22_s
军演_-3w
宣传战_2w
举措_-1w
福岛_2w
支援舰_-1w
场_-2w
奴_1w
外媒_-2w
一下_1w
澳大利亚_-1w
行动_-1w
今年底_-1w
B-21_-3w
拦路虎_2w
传达_0w
善于_0w
罢工_-1w
区域_2w
黑客_1w
军演今_-2w
肯尼亚_-1w
Fa01_s
运输机_-3w
研发_2w
政策_-2w
陈菊控_-1w
洪秀柱_-1w
忧_0w
医院_2w
汽车_2w
媒赞_2w
拉拢_0w
交易_0w
兄候_-1w
表明_0w
声势_2w
稍纵即逝_-3w
汽车_1w
政策_-1w
囚犯_-1w
撤退_0w
Fc06_s
交易_1w
甲板_-3w
演习_-3w
对_-1w
晋_-3w
屈服_0w
囚犯_-2w
挣脱_2w
克制_0w
外来_-2w
延期_0w
黄岩岛_-1w
虑
涌入_0w
道歉_-3w
Kf08_s
抱怨_2w
欲_-2w
土库曼购_-2w
入_0w
哈马斯_-1w
恶劣_-2w
刑事_2w
挟持_-3w
Hi45_s
追赶_0w
监控_-1w
大肆_-1w
屈服_2w
关切_0w
空中无可匹敌_-3w
传来_0w
城市_-1w
斯诺登_-1w
征兵_0w
死伤_-3w
还有_2w
反恐_2w
近平_1w
黄岩岛_-3w
美舰_-2w
阻挠_0w
间谍_-1w
中情局_1w
工人_-2w
中心_-1w
踹_0w
联合_0w
阻挠_2w
征兵_1w
煽动_2w
近平_2w
美舰_-3w
黄岩岛_-2w
大肆_-3w
关切_2w
没有_0w
纳粹_1w
增兵_1w
Hg05_s
战后_1w
F35_-2w
演习_-1w
陈菊控_-3w
冲_0w
演习_-2w
环节_-2w
外交_-1w
间谍_-3w
给予_1w
增兵_2w
Da25_s
联合_2w
死伤_-2w
各地_-2w
部门_-2w
煽动_0w
添_0w
越来越_1w
Hh07
别人_1w
大半_1w
机密_-3w
开_2w
巴向_0w
马来西亚_-3w
延迟_-3w
增兵_0w
S400S300_1w
重_-1w
组建_-3w
抢走_0w
地方_1w
研究_-3w
高_1w
认为_0w
人权_-2w
全_-2w
网络_-2w
宣称_-3w
宣称_-1w
阅兵式_-3w
取代_2w
陆上_-2w
网络_-3w
紧张_2w
气温_2w
He14_s
驾车_0w
卫星_1w
撤离_1w
搞_0w
技术_-3w
管_0w
道歉_-1w
展开_-1w
援手_0w
附近_-3w
实弹_1w
频对_0w
教育_-2w
搞_1w
居民_-3w
肩_2w
人民军_-1w
不知_-3w
法案_-1w
重现_0w
Ka18_s
但_-2w
创新_-2w
部属_-3w
Dk17_s
喝彩_1w
法案_-2w
试射_-3w
组建_-2w
亚洲_-1w
安全云_2w
出动_-3w
提交_0w
编制_-1w
Hj65_s
势力_-1w
目的_2w
稍纵即逝_-1w
对准_0w
附近_-1w
海_1w
试射_-2w
四_-1w
卸任_-3w
余_-3w
公斤_2w
Fb03
Fb02
快讯_-3w
引领_0w
F16_1w
大校_-1w
勤务员_-2w
Fa13_s
埃_-2w
政军兵_-3w
柬_-3w
修_2w
进展_2w
黑市_-1w
夏季_-1w
进_1w
机组_-3w
破门_0w
服役_-3w
知道_0w
58万_1w
理会_1w
血
最近_1w
独家_-2w
内政_-3w
衅
避嫌_-3w
国立_-3w
Dm02
被迫_-2w
亮相_-3w
翻脸_-1w
2016军费_-3w
负责_0w
横渡_0w
衔
破门_1w
出于_1w
衡
理会_0w
倍_-3w
补
出去_-3w
奉_0w
600_1w
反制_0w
修昔底德_-3w
运_0w
大于_-2w
逾_0w
出于_0w
六代机_1w
司令员_-1w
效果_-2w
特朗普_2w
:_1w
心神非马鹿_-3w
时代_1w
侵犯_-3w
高超_-3w
防_-3w
策划_0w
q_1t
华_2w
大校_-3w
确定_0w
He01_s
高铁_1w
出卖_-2w
购_-3w
孩童_1w
6.5万_1w
极端_-1w
购_-2w
历史学家_2w
动武_-1w
Ib10_s
战区_-2w
致电_0w
建国_1w
斥_0w
级_-3w
主张_2w
第一_1w
核武库_2w
版歼_-3w
主张_0w
华_1w
12月_-3w
让给_0w
建国_0w
千_1w
强化_2w
13万_2w
自贸_2w
科技_-2w
收复_-3w
放缓_0w
批评者_-1w
建设_2w
消耗_0w
纽约_1w
安倍_-2w
为此_2w
自贸_1w
Jc01_s
无人机_-2w
收复_-2w
分离_0w
油船_-1w
建设_1w
战区_-1w
俯瞰_0w
防导_-3w
第一_2w
救人_2w
隐蔽_1w
无人机_-3w
停_0w
特定_2w
覆
提防_0w
救援_-2w
特务_-3w
对_0w
浪费_1w
长绕_0w
抢滩_-3w
自奖_2w
射击_-2w
面战_2w
走向_2w
射_0w
面对_0w
人_1w
开心_2w
正_-3w
不会_-1w
政军兵_-1w
每_1w
越来越_-3w
吴胜利_-2w
封锁_1w
无意_-1w
态度_2w
强硬_2w
攻防_0w
服从_0w
进展_0w
触
停泊_0w
Da21_s
1亿_1w
仅_1w
仅_2w
走向_0w
不会_-3w
Ca05_s
强化_0w
强硬_1w
携_0w
有功泰_0w
较_2w
于_1w
赢_0w
——_2w
抢劫_-2w
收复岛礁_2w
45_1w
会_-2w
Ka20
Ka27
Ka26
Kb02_s
科纳克里_1w
服从_2w
集体_1w
赢_1w
Hi46_s
如_-3w
引渡_-3w
泛民_-1w
Ka10
会_-3w
反对_-2w
港独_-2w
封锁_2w
Ka13
市长_-2w
无需_2w
Ka19
建_-2w
阿塞拜疆_-1w
现货_1w
地中海_1w
出手_0w
长绕_1w
150_-2w
内_2w
救援_-3w
会_-1w
应对_0w
泛民_-3w
试航_-1w
罕见_1w
展现_1w
誓
制榴_2w
拟派_0w
无法_-2w
意味着_-3w
周玉蔻_-3w
网络战_-2w
无法_-3w
无法_0w
Hi03
疑_0w
绝非_-1w
市场_2w
议员_2w
非常规_1w
无法_1w
杀_-1w
最后_2w
自身_-1w
支持率_-2w
暗指_1w
陷入_0w
指责_-3w
素季_-1w
水面_1w
打援_-3w
外交官_1w
邀_2w
P3C_2w
远_-1w
Hi13
强力_-1w
容忍_0w
参军_-2w
圆满_-1w
防_0w
He15_s
Id14_s
搜集_0w
建设_-2w
照常_-3w
Hi46
自信_0w
Hi48
修建_2w
革命_-2w
大国_1w
拟_0w
低_-1w
冲突_2w
Hj40_s
扶持_1w
Hi35
Hi33
指责_-2w
金珍镐_-3w
监视器_1w
降落_0w
Fc06
渐_-1w
一定_2w
放弃_-3w
应对_2w
勿_-2w
逾_1w
拉_0w
夺岛_-3w
Fc10
尽快_1w
上_2w
计
何种_1w
暂停_1w
歧视_2w
让
勿_-1w
记
面世_0w
讲
寒区_2w
B-1B_-2w
轮痕_1w
Hi62
上_1w
陷入_2w
识
震慑_2w
邀_0w
话
看好_0w
该
一定_1w
上_0w
震慑_1w
大幅_-1w
误
竟疑_0w
诽
闯入_0w
谋
Dn03
获_1w
库兹涅佐夫_1w
否认_-2w
发文_0w
前往_0w
Kd05_s
是_0w
谤
重要_1w
直面_0w
五角大楼_-3w
获_0w
否认_-1w
伊拉克_-2w
防空区_2w
闯入_1w
住宅区_-1w
称赞_1w
炮击_-3w
缅甸_2w
重要_2w
生战生_-3w
报道_-3w
维和_-2w
商船_-1w
查案_1w
Dn10
38_1w
罚_2w
兵_1w
匈牙利_-3w
先进_2w
男子_-3w
作战_-1w
聚集_0w
废墟_1w
黑洞_-2w
人数_-1w
东海_-2w
必要_-1w
Dk02_s
图_-1w
用_-1w
肩负_0w
人数_-2w
法吁_-2w
爱_2w
炒作_-3w
作战_-2w
图_-2w
活动_-3w
男子_-1w
14_1w
Eb01_s
住宅区_-2w
雷达_-3w
卫星_-2w
明年_-1w
刺疼_0w
活动_-2w
破冰船_2w
男子_-2w
恢复_2w
私人_2w
Bh07
卫星_-3w
死亡_0w
米28_-3w
爱_0w
究竟_-1w
告别_0w
举行_-3w
论战_0w
监听_0w
遵守_0w
横渡_-2w
威慑_1w
校履_2w
负
国际_2w
国防部长_-3w
败
货
恩命_-3w
未_-2w
贯
邻国_1w
来袭_-2w
认为_-2w
费
活动_-1w
发现_0w
贿
接近_-1w
资
雷达_1w
朝方_-3w
坚持_1w
军费_2w
未_-1w
赐
监听_2w
邻国_2w
赖
作战_-3w
赛
论战_2w
执行_-1w
赢
赦
必要_-2w
军费_1w
坚持_0w
昂山_-2w
走
边检_2w
逃离_0w
赶
揭秘_-3w
6月_2w
首都_-1w
超
欢迎_1w
Di10_s
落网_-3w
希腊_1w
港_-1w
Kb03
专家_2w
俱乐部_2w
足
趴
久_-3w
接近_-3w
规矩_2w
增_0w
鼓动_-2w
跃
起飞_-2w
举行_-1w
跌
Fa12_s
产品_-2w
被迫_2w
揭秘_-2w
当_0w
首都_-2w
言行不一_2w
14_-2w
廉耻_-2w
英_1w
践
因_-2w
崛起_0w
办_0w
吉尔吉斯斯坦_-2w
记者_2w
上
资金_2w
与
变_0w
专
记忆_-1w
世
华媒_-3w
俄军_-1w
发言人_-3w
计划_2w
德_-2w
阿玛塔_2w
资金_1w
丧
助_1w
参观_1w
豁免权_2w
架_-3w
20_-3w
串
我国_-3w
古巴_-2w
临
适宜_0w
超出_0w
百_2w
踹
为
主
德_-1w
停飞_0w
乏
助_2w
我国_-2w
求_0w
入_-1w
游行_1w
日元_-3w
政府军_-2w
计划_0w
Hj67_s
高地_-1w
口_1w
怎_-1w
安达曼_1w
乱
创客_2w
科伦坡_-3w
华媒_-2w
承认_-1w
了
逃脱_0w
只要_-1w
采购_1w
于
进程_-1w
求_2w
井
是否_-1w
大陆_-2w
?_2w
入_-3w
亡
川_1w
产
享
身
枯竭美_0w
主要_-1w
谴责_2w
支出_-1w
受挫_0w
网上_-3w
大陆_-1w
图谋_2w
遇阻_2w
Hj24
台湾_2w
Hj28
Hj29
交流_-2w
架_-2w
从
主要_-2w
一印军_-2w
仗
纳土纳_-2w
包围网_1w
Hj30
令
k_2t
Hj16
Gb16_s
仰
仲
支出_-3w
歼_2w
科考_-1w
俄军_-2w
大陆_-3w
任
土耳其_2w
遇阻_0w
安保_2w
翻脸_0w
初步_-1w
Id02_s
西方_2w
韩籍_-2w
空袭_-1w
传
伤
Hj38
Hj35
钱_1w
襟翼_-1w
核爆_0w
并入_2w
伸
腐败_-1w
似
土豪_-2w
空袭_-2w
持续_2w
Fd03
Hj64
Hj65
Fd08
低
体
好事_1w
防_-2w
因_1w
空袭_-3w
致_0w
车
佩
防空_-2w
战将_1w
图谋_0w
防_-1w
照常_0w
是否_-2w
找到_0w
Hj60
航空_-2w
持续_0w
到_1w
国家_1w
败_0w
安抚_1w
欧盟_2w
报道_-1w
辖
收复_2w
比_0w
陈九霖_-3w
美菲_-2w
3_-2w
依
尚_-1w
乌女_-3w
侦
美媒_-3w
到_2w
度_-2w
安抚_0w
国家_2w
羁押_-3w
收复_1w
演日_-3w
击沉_-3w
内战_-1w
情况_1w
降落_-2w
3_-1w
出版_0w
B21_-2w
枪击_1w
提供_2w
加紧_0w
宣誓_0w
领海_-1w
境外_-3w
监控_2w
度_-1w
运
近
Ka07_s
俘
击沉_-2w
导弹_-1w
违
连
1.2亿_-3w
军售_2w
提供_1w
安抚_2w
到_0w
迭
俯
美菲_-1w
败_2w
打造_-1w
访问_1w
军演_1w
忧虑_1w
退
持平_0w
发警告_0w
适
逃
2022年_-3w
长期_1w
巴勒斯坦_-2w
打破_-3w
正_1w
发言_-3w
页_-1w
五_-3w
协议_-3w
逞
借
速
厄瓜多尔_-3w
长期_2w
巴勒斯坦_-1w
表现_-1w
领先_2w
农业_-2w
违反_0w
正_2w
东北亚_-2w
转型_0w
原_-1w
逻
量子_1w
揭秘_2w
倾
逾
撞沉_1w
650万_-2w
文职_1w
方面_-1w
先_1w
遏
调整_0w
抵消_0w
Hj06_s
页_-3w
文职_2w
原_-2w
做
生命_-2w
？_2w
严惩_1w
环_1w
和平_1w
时差_-2w
巴勒斯坦_-3w
年_-3w
遵
偷
女_2w
投保_0w
避
邀
暂_-2w
加拿大_2w
特种_-1w
飞机_-2w
Hb05_s
黄岩岛_2w
Ca12_s
声明_1w
失_0w
内阁_1w
印尼籍_-3w
国家级_1w
加拿大_1w
飞机_-3w
举_-3w
集装箱_1w
调整_1w
缺_0w
趴_1w
齐_-1w
选出_0w
丹麦_-3w
像
现代化_0w
内幕_0w
分散_-2w
Bi14
灯塔_-1w
Bi12
台湾_-1w
趴_0w
现代化_1w
飞机_-1w
Hj19_s
蓝鳍_-3w
If08_s
协议_-2w
Hg08_s
换上_0w
长城_-1w
唯一_2w
责任_1w
绝不_1w
解密_0w
19_1w
稳健_-2w
新加坡_-1w
清算_1w
国内_2w
起_-1w
沸腾_-2w
降_0w
地_-2w
和平谈判_-2w
秩序_-3w
人工岛_2w
19_2w
赶快_-1w
新加坡_-2w
Hn11_s
赏析_0w
显示_0w
克
免
战术_-2w
加蓬_-1w
Kc03
项_2w
兜
Kc04
越南联美_-2w
起_-3w
热血_-1w
绝不_2w
唯一_1w
共
张_-2w
酵
具
养
兼
苏_-2w
环_2w
闹_-1w
兵_-1w
内
条件_-3w
再
方面_-3w
称霸_0w
班机_-1w
冒
起诉_1w
写
叛军_-1w
苏_-3w
轰炸机_-3w
总监_-3w
新高_2w
塔利班_2w
预算迫_1w
12月_1w
爆炸物_2w
远程_2w
干预_2w
决
溃败_1w
起诉_2w
准
担忧_-2w
凑
局势_2w
海警船_-2w
劳师_-1w
Ed02_s
军援欲_-3w
2022年_-2w
大军_-1w
继续_-1w
今天_2w
交付_2w
莫迪_2w
清算_0w
沉重_2w
分
切
刊
爆炸_-3w
激励_0w
建议_-2w
启_0w
划
咋_-1w
廉政_-3w
创
就职_-3w
合作_-3w
拒_1w
无力_-1w
利
别
不_-1w
到
吃_0w
刺
合作_-2w
都_-1w
争_-1w
妻_-2w
前
若_-1w
Gb02_s
提供_-2w
主要_2w
又_-3w
廉政_-1w
国务卿_-3w
后_2w
都_-2w
岛礁_2w
干部_2w
剧
思维_-1w
剩
请求_1w
爆炸_-2w
建议_-3w
提供_-1w
古巴_2w
表示_-2w
熟_2w
丧生_0w
理解_0w
抓_-2w
动物_-2w
渔民_-2w
东南亚_1w
缓解_2w
第三_2w
媒称_-2w
6K_-1w
力
表示_-3w
Hi48_s
严重_2w
绝对_-1w
台独_-3w
动_0w
渔民_-1w
团体_-1w
励
抗衡_0w
换俘_0w
媒称_-3w
Id16_s
正恩_-1w
俄媒_-2w
严重_1w
防长_-3w
转_0w
Hi35_s
南极_1w
理解_2w
勒
陷阱_2w
推_-2w
Id03_s
任期_1w
女童_-1w
理解_1w
空谈_1w
抓_-1w
俄媒_-3w
动_2w
集_0w
种族冲突_0w
机器人_1w
渔民_-3w
激战_1w
澳方_-1w
谴责_-3w
Eb23_s
拒止_-3w
B-2_1w
维护_1w
极地_-2w
靠_2w
化
划_-1w
近海_-2w
判_0w
25_-2w
则_1w
整肃_2w
７．２_1w
黑_-2w
针对_-2w
首脑_-1w
匮
提高_-3w
中铁_2w
感受_2w
区
联手_-3w
水_2w
靠_-2w
升
海外_-1w
协
近卫军_-2w
物资_-2w
建议_2w
轰_-2w
哪_2w
水_1w
测试_-3w
悼念_1w
卫
未来_1w
华泄_2w
靠_1w
建议_1w
卷
录音_1w
替代_1w
避难_-3w
压
系列_1w
重用_2w
韬光养晦_-2w
连环_-1w
Kb04_s
痛处_-3w
Eb23
专员_-1w
设施_1w
天_-1w
P3C_-2w
仰仗_0w
撤资_0w
若_-2w
Ie10_s
提供_-3w
天_-2w
砍_-1w
利于_-2w
及
谈_-2w
合作_-1w
上将_-1w
+_-2w
叛
阅兵_1w
天_-3w
口
担心_0w
可
台
+_-3w
连环_-2w
拒_2w
吃
同
名
特朗普_-2w
Ka31_s
朝方_2w
安保法_1w
含
听
吭
启
掩护_1w
岛礁_-3w
9_1w
吹
领空_-2w
交流会_-1w
If09_s
进驻_2w
败_-3w
俄罗斯_2w
Dk26_s
大势_2w
“_-2w
特朗普_-3w
Je09_s
大势_1w
命
爆发_1w
针
怎样_1w
改造_0w
卫军_-3w
提醒_2w
动画_-1w
戴旭_-3w
出动_2w
挥_0w
卫军_-2w
刺杀_2w
钻
叙现_-3w
肩负_-2w
响
攻击_2w
军_-3w
领衔_0w
起点_-2w
岛礁_-2w
避难_0w
无关冀_-3w
颠覆性_-1w
出售_-3w
专访_0w
打仗_0w
岛礁_-1w
仅_-1w
低_1w
打算_0w
缘何_-3w
锋
错
Kd01
平民_-3w
炸毁_2w
人_-3w
诸岛_-2w
军工_-3w
集市_-1w
B52_-2w
探测_2w
转_1w
覆盖_0w
攻击_1w
联邦_2w
仅_-3w
负_0w
展示_2w
期_2w
Fa10_s
布鲁塞尔_-2w
杀_0w
出现_-3w
疑建_0w
展示_1w
未_2w
产_-2w
失去_-2w
体现_0w
造成_0w
击毙_2w
涉_0w
布鲁塞尔_-3w
大修_0w
称赞_-3w
集市_-3w
长
枪_-3w
善
某部_-2w
有_1w
军售_-1w
讽_0w
大举_-1w
曾_1w
是否_0w
喜
喝
集中_-1w
Fa23_s
受_0w
曾_2w
便携式_-3w
Ja02
指_-1w
Ja06
重镇_2w
缩水_0w
贪污_-2w
密集_-2w
作用_2w
危机_-3w
非常规_-1w
以_1w
现场_-1w
任_0w
贪污_-1w
宣判_-3w
门
工程_-3w
有_0w
看_-3w
日_-1w
闸
闹
特遣部队_-1w
人_-2w
核_-1w
起_2w
反恐_-3w
借_0w
防长_2w
疑遭_0w
袭击_1w
广岛_2w
搭_0w
南部_-3w
媒体_-3w
操作系统_-3w
见识_0w
敢_-1w
共享_0w
-31_-2w
核_-2w
救_2w
利于_0w
阿
总裁_-1w
能_1w
Kc10_s
怒斥_1w
Kb03_s
T-90_1w
非洲_1w
信奉_0w
彻查_0w
潜规则_-3w
能_0w
脱欧_1w
反思_0w
陷
T-90_2w
示范_1w
式_2w
刚_-1w
隔
障
神盾舰_2w
会面_-2w
斯里兰卡_2w
名列_1w
机上_-1w
音速_-2w
1964年_-2w
亮_0w
却_2w
军委_-2w
害怕_2w
军事基地_-1w
运钞车_1w
贵宾_2w
质问_2w
实战_-1w
音速_-3w
地震_-3w
疑遭_1w
陷阱_-2w
赐死_0w
击沉_2w
列车_-2w
实战_-2w
助力_0w
谢罪_0w
境外_1w
国
图
挂弹_-3w
需
出去_0w
子_-1w
主妇_-3w
像_0w
旨在_0w
附近_2w
哈萨克斯坦_-1w
德国_-1w
重新_-2w
剖面图_-1w
出去_1w
在
精度_-1w
6_-3w
418_-2w
最后_-3w
本人_-3w
伤亡_0w
推迟_2w
霸
关心_2w
评日_0w
战机_-3w
训练_2w
数字_1w
像_2w
被捕_-1w
加入_0w
无_0w
坚
带_-1w
靠
坠
面
马代_-1w
Ec06
侦察_0w
战机_-2w
和平_-1w
Ie11_s
加入_2w
本人_-1w
猎手_-1w
斩首_-1w
难民营_-2w
无_1w
关心_0w
表_0w
包围_-2w
决定_-2w
和平_-2w
型
Gb01_s
战车_2w
发动_-3w
太平洋_1w
阿根廷_-3w
能_2w
独家_-3w
和平_-3w
决定_-1w
悍匪_2w
奥尼亚马_-3w
自由_-2w
不足_0w
垫
独立日_-1w
感激_0w
保护_-2w
帮助_2w
和谈_2w
机组_1w
非洲_2w
核_-3w
广岛_-2w
洲际_-2w
推迟_1w
打响_0w
He05_s
军人_1w
公投_2w
机遇_-2w
洲际_-3w
据称_0w
广岛_-1w
培
Hj30_s
并肩_-2w
停止_-1w
护航_1w
武力_1w
反安_-2w
四_-2w
护航_0w
士兵_-2w
如何_-1w
回_1w
艘_-1w
高雄_-3w
报怨_0w
堪
维护_-3w
出庭_0w
遵从_0w
Bk05
Bk03
恩命_0w
回_0w
阻挠_-3w
Ja01_s
士兵_-3w
干扰_0w
停止_-3w
四十_2w
提_1w
卡塔尔_1w
塞
拼凑_0w
Ib01_s
b_-1t
涉_-3w
填
经验_-1w
卡塔尔_2w
提_0w
既_-2w
劫持_1w
顾
飞越_0w
预
频
清单_-1w
诉苦_2w
恶化_0w
队长_2w
过_-1w
官兵_-1w
参演_2w
素养_2w
裂痕_-1w
新建_-2w
排斥_2w
渔船_-2w
藏区_1w
核_1w
申请_2w
侵入_0w
四十_1w
位_2w
竞争_0w
过_-2w
拼凑_2w
修昔底德_1w
细节_1w
阻止_1w
暴力_-1w
渔船_-1w
恶化_2w
阻挠_-2w
捕鱼_-2w
诉苦_0w
花费_0w
食
责任_-1w
平衡_2w
避嫌_0w
稳步_1w
火海_1w
下令_-1w
阻止_2w
定_2w
埃及_-3w
Hc27_s
回_2w
士兵_-1w
失灵_0w
防小偷_-3w
联合_-3w
香港_1w
备
重直_-2w
存_0w
东瀛_-2w
至少_-3w
施压_0w
材料_-3w
反_-2w
如此_-1w
外
舰下水_-2w
阿尔及利亚_-2w
联合_-2w
600_-2w
管理_-3w
大
拿_-1w
机械化_2w
久_2w
舰下水_-1w
夸
完全_1w
运载火箭_1w
至少_-1w
Ed39_s
奔
内_-2w
某国_-1w
核试验_1w
日领海_-2w
东瀛_-3w
感到_2w
拉开_0w
蛟龙_-3w
Jb03
Jb02
核试验_2w
阿尔及利亚_-3w
Jb05
如
第21_-3w
50_1w
飞行员_2w
止血带_-3w
妥善_-1w
深刻_-1w
幽灵_-1w
达成_1w
军费_-3w
飞越_1w
得_-1w
杀伤力_-1w
应该_-2w
妥
烂_0w
监察_-2w
现实_1w
指导_0w
数_-2w
远行_0w
Hm03
始
决定_0w
推动_-2w
幽灵_-3w
军费_-1w
兼容_1w
号_2w
-15_2w
700万_1w
反应堆_-3w
支撑_0w
宣誓_-1w
不已_1w
艘_-2w
管材_-3w
救_0w
为_0w
兼容_0w
先进_-2w
蓝鳍_2w
促进_0w
9·3_-2w
Hi11_s
答_-2w
猛_-1w
伊朗_2w
批土_-1w
投资_2w
菲_-2w
越南_-2w
加大_0w
Hm11
-6_1w
碾压_1w
遍_2w
违背_0w
不可_-1w
迫切_-2w
兄候_2w
黎巴嫩_-3w
并_1w
菲_-3w
方式_2w
通航_0w
协调_0w
审查_1w
人道主义_-1w
忽视_2w
结束_0w
关系_-1w
阻_-2w
恐_-2w
知_0w
30万_-3w
压力_2w
慰问电_1w
审查_0w
直升机_1w
驶
为何_-1w
驾
哥伦比亚_-3w
建_0w
弹射_-1w
预算迫_-2w
日妄_-1w
开发_-3w
唱_1w
媒
西北部_-1w
借助_0w
排除_-2w
周_-3w
机械化_-3w
邱毅_1w
席卷_0w
日元_2w
帮_-2w
小时_-1w
关系_-2w
典型_1w
慢_2w
嫌
外_2w
核航母_1w
购歼_0w
延长_0w
示威_-2w
受伤_-2w
Hi24_s
满意_-2w
万_-3w
分遣队_-1w
战争_-3w
人质_1w
性侵_-2w
单方_1w
首尔_2w
范围_-1w
审批_0w
经济部长_-3w
运送_0w
外_-1w
阻止_-3w
巴控克什米尔_-1w
斡旋_-2w
约_2w
印支_1w
有关_-3w
达_0w
华阳礁_-1w
大于_0w
喜欢_0w
来袭_1w
学生_2w
运送_1w
疑_-1w
阻止_-2w
外_-2w
战争_-1w
Ed39
要_0w
2015_1w
表现_0w
后勤_-3w
存
Da11
Da12
Ed44
Ed26
战争_-2w
外_-3w
学
后_-2w
流露_0w
爆_-1w
机器人_-2w
机器人_-1w
国际法_1w
戳_0w
Ed57
升_1w
Ed58
30万_-2w
疑似_0w
守
安
官员_-3w
完
唯一_-2w
Ed61
宜
Ed45
30万_-1w
升_2w
Ed49
赴_-2w
少_-1w
勒索_0w
返_2w
基础_2w
宵
容
军火_1w
密
呼应_0w
抹黑_0w
做出_-1w
返_1w
财政部长_2w
扭转_0w
海警_-2w
入伍_-1w
帮胡_-1w
察
加大_2w
升_0w
呼应_1w
海洋法_1w
军火_2w
间_-2w
返_0w
火药味_1w
Bl02
国事访问_-1w
导
启动_0w
告_0w
暴雨_2w
座_2w
敌_0w
很多_-1w
投入_-3w
攻击力_-2w
俄方_-3w
竞选人_-3w
边界_-2w
就
敌_1w
斡旋_0w
相关_-3w
海警_-1w
媒_-2w
尽
居
屈
敌方_1w
今日_1w
敢_0w
购买_1w
很多_-3w
国防长_-1w
1_-3w
属
部长_-2w
南沙_1w
履
俄方_-1w
用于_0w
该_-1w
Hi60_s
加剧_0w
购买_2w
利器_2w
参战_0w
用于_1w
任务_-1w
国防长_-2w
鱼
再_-3w
抨击_-2w
钱_-3w
好_-2w
引_0w
了解_0w
止_0w
分配_0w
岗
变化_0w
此前_-3w
青岛_1w
兵役_1w
弹射_0w
集结_0w
巴基斯坦_2w
内忧_2w
突破_0w
尚未_-1w
退群_-3w
紧急_-2w
部位_-3w
失去_2w
引_2w
来袭_0w
战略_-2w
合研_-3w
Kf08
放在_-3w
部署_-2w
立法_0w
守卫_0w
都_2w
致命_1w
失去_1w
削减_2w
好_-3w
Ja02_s
顾_0w
《_-3w
Kf13
Jc07
警方_-2w
成为_0w
公海_-1w
钻井_-1w
市委_-3w
波罗的海_1w
模拟_1w
崛
半岛_1w
外国_-3w
可用_0w
充分_-1w
钓鱼岛_2w
北极_-3w
乱_-2w
22_-3w
公海_-2w
Hj58_s
一万亿_1w
核监查_-2w
普天间_2w
模拟_0w
Jc06
上空_-2w
驱逐舰_-1w
安倍_2w
海里_-1w
枪杀_2w
越界_-2w
F-35_-2w
战_0w
钱_-2w
关税_1w
海里_-2w
35年_-2w
Hn09
驱逐舰_-3w
缓和_2w
大国_-1w
种族冲突_-1w
做_-1w
落_0w
张召忠_-3w
款_-2w
基督教_1w
战队_-1w
真_1w
杆_-1w
越_-1w
机场_2w
收敛_0w
易_-1w
18_1w
共同_1w
这么_1w
ISIS_1w
实际_-2w
让_-3w
进入_2w
紧张_-3w
着_2w
姿态_2w
造岛_2w
突访_-2w
党报_-2w
Hn11
控诉土_-1w
Hn13
越_-3w
昼夜_2w
差
着_1w
巴
辆_-3w
Ih12_s
紧张_-2w
杀手_-3w
基督教_2w
陆空_-1w
崛起_-2w
让步_-2w
联网_0w
告_-2w
浓缩铀_1w
巡逻_2w
破坏_1w
北约_2w
1.2亿_2w
比例_2w
Ga05_s
防卫_-3w
200_-3w
嘴炮_1w
常
俄方_1w
回_-1w
阿桑奇_-3w
藏南_-2w
就是_-2w
舆论_-2w
巡逻_0w
一个_-3w
言_0w
生乱_0w
提升_0w
全球_1w
鹰
平
直击_0w
军援_-1w
一个_-2w
言论_-3w
Jc06_s
拿_0w
填_1w
失_-3w
听_-2w
底
频频_-1w
主导权_-1w
民事_1w
韩舰_-3w
填_0w
庭
接受_1w
Ee12
反朝_-1w
Ee14
拿_2w
Ee16
民事_2w
档案_-1w
Kc12_s
骚乱_1w
审查_-3w
黑
串通_0w
不断_-2w
之后_-3w
搜救_0w
出错_0w
学_-1w
崛起_-3w
流血_0w
悲_1w
加强_-3w
反_-1w
增夺岛_-3w
文工团_-3w
之后_-2w
芝加哥_1w
D_-3w
预算_-1w
冲突
骚扰_2w
现代化_2w
查击沉_1w
待审_0w
武装_1w
空骚扰_0w
张
打击_-3w
出逃_-3w
基地_-2w
保安_1w
媒称_0w
查击沉_2w
武装_2w
弹
必要_1w
前景_-1w
会议_-2w
打击_-2w
戈兰_-2w
Hf01_s
基地_-3w
当
到_-3w
终于_-1w
高官_-3w
必要_2w
接受_2w
加莱港_2w
预算_-2w
形
再现_-2w
政要_-1w
彩
希拉里_-1w
断然_-2w
发_0w
改革_-1w
影
案_-1w
宪法_-2w
进驻_-2w
彻
往
征
大使_-1w
盟友_1w
Hb09_s
就职_1w
符合_0w
终于_-3w
行动_1w
得
我们_2w
惹普京_0w
属于_0w
没_1w
底_-1w
就职_0w
心
Kb05_s
没_0w
运交_0w
出逃_-2w
忍
会议_-1w
符合_2w
北约_-1w
近期_-2w
防务_1w
忧
Gb12_s
8_2w
村庄_-2w
近期_-1w
北约_-2w
武装_0w
优势_-3w
恐怖主义_2w
巡航_2w
右翼_-2w
辽宁舰_1w
怒
怕
还要_0w
思
防展_-2w
开枪_0w
Hi61_s
少于_0w
Aj15
自己_-1w
属_0w
硬_-2w
出庭_-3w
夜间_1w
社交_-2w
帮胡_0w
助打_0w
还要_2w
下辖_-3w
恩
转隶_1w
息
响_0w
止_-2w
希望_-1w
转业_1w
雷达站_-3w
策略_2w
伤_-3w
爆炸案_-1w
点_1w
扣押_2w
真_-2w
达成_-3w
低于_0w
你_-2w
遇_0w
悬
HQ9_-1w
人员_-2w
希望_-3w
雷达站_-1w
今年_2w
做_0w
惊
重大_2w
易名_0w
插手_0w
武力_-1w
今年_1w
做_1w
惨
赦免_-2w
核武_-1w
出_-2w
想
惹
临行_-3w
设_1w
Ka23_s
扩大_0w
测试_0w
改_0w
老挝_-1w
组_-3w
再次_-2w
试飞_2w
律师_-1w
愤
军人_-2w
旅游_1w
集会_2w
草木_2w
平台_-1w
声援_1w
汽车_-3w
不许_-2w
投入_0w
并_-1w
期盼_0w
逃生_0w
愿_1w
制裁_2w
影响_2w
重型_-3w
并_-2w
愿_0w
制裁_1w
影响_1w
种族清洗_-1w
刑警_-1w
脚_2w
Ia12
核弹_-1w
弹药_2w
及_-2w
止_-1w
怀疑_1w
警告_-1w
领_-1w
面_-1w
俄智库_-3w
Id08_s
俄智库_-2w
指挥_0w
想到_0w
数_2w
利用_2w
致_-3w
显其_-1w
升级_0w
接纳_0w
Ed37_s
核弹_-3w
行_-3w
扩大_2w
这_2w
计划_-2w
评卡特_-2w
集会_1w
致_-2w
警告_-3w
领_-3w
境内_-3w
科考船_-3w
升级_1w
想到_-2w
评卡特_-1w
警告_-2w
首访_-2w
十_1w
英国_-1w
Ga17_s
单边_2w
账户_2w
看_1w
总司令_-2w
提及_0w
问_0w
政界_-1w
全面_2w
敲打_0w
He08_s
举行_2w
藏_2w
双簧_2w
莫迪_-3w
看_2w
行刑式_1w
实拍_2w
路_1w
跃_0w
弃_0w
涨幅_-1w
戳
电力_-1w
位_-3w
印军_-1w
成_0w
战胜_0w
曼海_2w
令_0w
他们_2w
Hn03_s
可能性_-1w
来_0w
闹_0w
成_1w
横行_1w
岛屿_2w
执
正视_2w
扬
客轮_-1w
扭
实拍_0w
话别_0w
个人_1w
菲方_-1w
地_1w
海岸_-3w
轮_-2w
朴_-3w
找
放弃_1w
来_1w
大批_1w
群岛_2w
提议_-3w
把
影响_0w
投
如_0w
航空_1w
领事_-1w
抚
来_2w
藏区_-1w
元首_-1w
防卫_1w
抢
从_1w
报
写入_0w
Ef07
发生_2w
护航_-1w
Ef09
正视_0w
原则_-2w
拳_-2w
前线_2w
敌机_1w
图像_-1w
接触_0w
抹
强_1w
年_2w
Jc07_s
参议院_-1w
担
Ie01_s
拉
主流_1w
拍
不会_0w
前线_1w
拘
改用_0w
拟
31_2w
拢
拥
括
拯
不再_2w
如_1w
屈服_-2w
拼
拿
习_1w
协同_0w
遏制_2w
参与_0w
捕鱼_2w
暂停_-1w
射程_2w
反课纲_-2w
挠
教学_0w
挡
找_2w
没有_-1w
挥
海外_1w
挫
图谋_-1w
无限期_1w
MH370_1w
兰德_-3w
捕捉_0w
高明_-3w
韩方_-3w
夺_-1w
捉
遏制_0w
陆_2w
Da19_s
各种_1w
捕鱼_0w
韩防长_-1w
捞
55_1w
换
无视_1w
嫌疑人_-1w
阿玛塔_-3w
借机_-1w
两用_1w
黄炳誓_-1w
据
变化_2w
行贿_0w
突_0w
If21_s
韩方_-1w
进入_-2w
成_2w
医院_-2w
购美_-2w
高原_-2w
立法_-1w
天堂_-2w
Bn15
决赛_2w
排
韩国_-1w
重视_0w
做出_0w
盘点_0w
作出_0w
对待_1w
或_-2w
克里米亚_1w
措
3500_-2w
加紧_-1w
掳
毒剂_-3w
舰_-3w
清真寺_-1w
转型_-2w
插
伤残_-3w
Ee08_s
升_-1w
执委会_2w
司令_-3w
吉布提_2w
钓岛_-3w
大_-3w
局面_2w
涉案人员_2w
侵犯_2w
全球_-3w
连_-2w
巡洋舰_-1w
企业_-1w
搜
搞
座_-2w
实弹_-2w
搭
全球_-2w
错过_0w
徒步_-1w
爆炸_0w
传_0w
15_-3w
轰_0w
引渡_0w
通信_2w
学_0w
Fc10_s
第2_-3w
难民_-3w
上任_-2w
航行_1w
侵犯_0w
喷气式_-2w
措施_1w
高超_1w
开闸_-1w
侵犯_1w
陆地_2w
后果_2w
边防团_-3w
攻击性_1w
实施_-1w
Je09
刊讽_0w
问题_-3w
鹰击_0w
日阅兵式_-3w
撑
大会_-3w
评日_-1w
教授_-2w
核峰会_-3w
说_-3w
将军_-3w
攻击性_2w
周边_-3w
下_-3w
能量_-3w
大会_-2w
将军_-2w
转运_2w
缴_-3w
武装论_2w
Je03
猪木_1w
-20_-2w
谈判_1w
空手_1w
特赦_0w
亲_1w
企业_-3w
产_2w
洗衣机_-1w
猪木_2w
投奔_0w
以_-2w
挥舞_0w
能量_-1w
特殊_-2w
Hi62_s
祖父_-1w
连_-1w
说_-2w
错过_2w
发射_2w
一路_-3w
才_2w
以_-1w
Fa32_s
适宜_-1w
Hj47_s
扣_0w
石油_-1w
４１_1w
震惊_0w
Ka35_s
法_-1w
发射_1w
批_1w
别_-1w
旧_-2w
堪忧_0w
异动_1w
彩排_0w
频繁_-1w
首度_-1w
Ib11
买_1w
政
助手_-1w
敌
推进_1w
教
敛
一旦_-1w
敢
实施_-2w
达到_1w
机场_-3w
了_2w
推进_0w
历史_1w
将军级_1w
敲
根据_1w
整
当天_-2w
扣_1w
撤销_0w
石油_-2w
越界_0w
大多数_1w
达到_0w
美韩_-1w
此_2w
国务院_-3w
发动机_1w
必须_-1w
斡
试射_2w
匮乏_0w
代表_-2w
扬言_-1w
购买_-3w
种族
断
而_2w
在野党_2w
非法_-1w
同意_2w
震惊_1w
塞_1w
旋
美韩_-3w
违背_1w
式_-3w
2016年_1w
需_-3w
习近平_-3w
买_0w
塞_0w
日
看_0w
旨
一切_1w
辞职_1w
此_1w
时
Hh07_s
制造_0w
炮击_1w
同意_0w
利益_2w
法吁_2w
Jd02_s
明
4_-3w
集会_-1w
预期_1w
巴铁_-1w
易
动手_0w
制造_1w
包括_0w
决议_2w
示好_-2w
激励_-2w
S-400_-2w
似_0w
活动_0w
自称_-1w
是
针对_0w
-21D_-1w
显
长_-1w
签订_-3w
强烈_1w
方_-2w
网络_2w
对象_-1w
抗日_0w
吉_-2w
级别_2w
取消_1w
英媒_-1w
利益_1w
得分_-1w
吉_-1w
Ie02_s
Dd06
拆_0w
人民币_1w
机场_-2w
会动_-3w
暗
该_1w
真诚_2w
匮乏_-1w
亚美尼亚_-3w
曝_-2w
绝不_-1w
不爽_-2w
就任_0w
国_-3w
自产_-3w
暴
识破_0w
If22_s
30万_2w
自产_-2w
国_-2w
泄_0w
大规模_-3w
军方_2w
就任_1w
Top10_-3w
拒绝_1w
Dd13
编号_2w
中业岛_1w
Hi01_s
把握_0w
推动_1w
遭_0w
更
金_-2w
按_-2w
主权_-1w
直面_-2w
有
应派_0w
个性化_-1w
欧盟_-2w
重兵_1w
Ca23
Bo09
核电_-3w
Bo04
大规模_-2w
信_0w
走_0w
Fb04_s
造_0w
核武_2w
Kb07_s
专_-1w
还击_1w
集体_-2w
名单_1w
Bo15
列出_0w
核电_-2w
签_-2w
束
核武_1w
得分_0w
今日_-3w
列出_1w
掌控_0w
当事方_2w
该_0w
逆风_1w
资_1w
沉_-3w
重兵_2w
今年_-2w
回击_0w
应_-3w
Bo30
渗透_2w
Ga03_s
过剩_0w
污蔑_0w
集体_-1w
文物_-3w
保持_1w
使命_1w
一_-1w
演练_-1w
理会_-2w
声称_-2w
韩媒_-3w
保持_0w
Gb23_s
渗透_0w
走_1w
反舰_-1w
评论_1w
演练_-2w
外媒：5亿_-2w
突击_-1w
加油_0w
针对_2w
对决_-3w
引发_0w
缅甸_-2w
拘留_0w
夺_0w
没_-3w
给_2w
发射_-3w
-35_-2w
马航_-3w
东海_2w
商定_0w
裁军_-2w
购俄制_0w
给_1w
27日_-2w
发射_-2w
机构_-2w
跌_-1w
核
银行_1w
东海_1w
列_0w
可能_1w
四十_-3w
凶手_2w
索马里_2w
没_-1w
连任_1w
我们_-1w
可能_0w
竞技场_-2w
毫无_0w
我们_-2w
前景_2w
2日_-2w
寻滋_2w
意大利_-1w
战力_-1w
信赖_2w
争议_2w
民用_2w
专门_2w
能力_-1w
引进_1w
乌_-3w
Ic02
声明_-3w
人机_-3w
捐_0w
争议_0w
能力_-2w
勤务员_2w
Fb02_s
现场_2w
研坦克_-2w
给_0w
战力_-3w
最后通牒_-2w
发射_-1w
出席_2w
重组_0w
信赖_0w
海上_2w
停靠_0w
现场_1w
投_0w
声明_-1w
Ic06
练_0w
专门_1w
图书馆_-2w
了_-3w
最后通牒_-1w
EP-3_1w
努力_-1w
拒捕_0w
-35_-1w
受伤_0w
更迭_0w
静坐_1w
Hi15_s
也门_-3w
轮渡_-3w
审判_1w
自己_2w
仲裁_-1w
学生_-1w
当选_-2w
Hj35_s
42_1w
批准_2w
文明_2w
煮_1w
惨败_0w
湘潭舰_-3w
偷运_0w
火箭弹_-3w
能力_-3w
嫌犯_1w
阅兵_-3w
奥运会_2w
惨败_1w
视频_2w
火箭弹_-2w
生效_-2w
船_2w
动用_-3w
仲裁_-2w
继续_2w
军火_-2w
574_2w
呼吁_-1w
批准_0w
某_-2w
还_-3w
仍_-2w
会谈_0w
连任_0w
参众两院_-2w
批准_1w
青年党_-3w
朴_1w
单位_-2w
瞄准_0w
还_-2w
继续_0w
同时_2w
也门_-1w
参众两院_-1w
呼吁_-3w
动物园_-3w
竞技场_2w
枪炮声_1w
寻求_-2w
同时_1w
制约_2w
邻近_-2w
T50_-2w
婉拒_2w
领先_-2w
寻求_-3w
人物_-2w
烟雾弹_1w
斯里兰卡_-3w
马航_-2w
出现_0w
企业_1w
意外_-3w
政治_1w
军媒_-2w
别怕_2w
神庙_-1w
我军_1w
难_-2w
联手_0w
模
造成_-2w
调查_-2w
集团军_-2w
护送_-2w
军媒_-3w
巡防舰_-1w
难_-1w
军区_-2w
疲态_1w
发生_-3w
提议_0w
造成_-3w
De04
一定_-2w
南海南_2w
Jd03_s
拒绝_-2w
沙特_-1w
近平_-3w
避免_0w
,_-1w
日领海_2w
发生_-2w
极大_-3w
日军费_-3w
轮船_-1w
小动作_1w
拒绝_-1w
警_-1w
沙特_-2w
宣传_-3w
发生_-1w
性质_2w
不管_-3w
发布_0w
1.3万_1w
避免_2w
和_-2w
群_-3w
２０１６_-3w
近平_-2w
拒绝_-3w
务实_1w
集团军_-3w
出席_-2w
预警机_-1w
Fa31_s
不能_0w
辖_0w
灭亡_2w
Cb07
Cb04
公约_2w
既然_-2w
大量_1w
军媒_-1w
If23_s
难_-3w
韩军_-2w
释放_-1w
密谋_1w
Gb22_s
书记_-2w
现身_0w
袭击_-2w
常_1w
停靠_2w
Ib18_s
顿涅茨克州_-2w
海试_1w
密谋_0w
Hg11_s
印度洋_-1w
学者_-1w
袭击_-1w
吭声_0w
10_-2w
运兵港府_2w
谋求_0w
仿佛_-1w
,_1w
顾问_-1w
排_0w
丝绸之路_-2w
判处_-3w
拯救_0w
登_0w
致命_-1w
投放_-1w
烂_-2w
维持_1w
正
效应_2w
步
普_2w
推_0w
书记_-3w
穿过_2w
7_1w
顾问_-2w
袭击_-3w
资金_-1w
联演_0w
死
歼
２３_1w
巨额_1w
Hf04_s
海上_-2w
基督徒_-1w
日前_-2w
7_2w
B_1w
索契_2w
移送_0w
把握_-1w
隐轰_-3w
奥巴马_-3w
秒_-1w
肆意_-1w
军舰_-1w
有关_1w
意外_-1w
扩张_1w
上宾_-3w
特种部队_-3w
比
备忘录_2w
调查_2w
韩军_-1w
Ga02_s
正式_2w
破例_2w
有关_0w
排除_0w
摩苏尔_2w
毫
扩张_2w
检阅_2w
泥潭_1w
Kc04_s
224_-2w
巨额_2w
大呼_1w
仿佛_1w
炸_0w
推升_2w
两千_-3w
设法_0w
Hd26_s
爆发_-3w
愤怒_0w
里_-3w
5500万_-3w
韩称金_-3w
材料_2w
垫底_0w
秘笈_1w
200_2w
众多_1w
引导_0w
影响_-2w
分布式_2w
300_-3w
隐形_-3w
韩称金_-2w
Id01
Id02
所谓_1w
污
运_-3w
勒索_-1w
逮捕_-3w
养成_-1w
热线_-1w
设法_1w
组织_0w
巴尔米拉_1w
Id19
点明_0w
巴解组织_2w
南澎岛_2w
Id22
增派_-3w
乌龟_2w
Id20
Id07
没
Id05
当地_-2w
秘密_-3w
沦
得州_-2w
翻沉_2w
巴解组织_1w
增派_-2w
油
Id15
施加_0w
谁_1w
Ha07
泄
中亚_-3w
主权_1w
好_1w
Hd13_s
泊
依赖_0w
川_-3w
领导力_1w
法
忙_-2w
及_1w
主演_0w
主权_2w
支持_2w
屠杀_2w
党风_-2w
黑市_2w
质_1w
签署_1w
河_2w
Kf14_s
想_0w
缅_-1w
自杀_1w
阿巴斯_-3w
补贴_1w
依赖_2w
控诉_1w
延缓_-3w
受损_2w
Ed49_s
狂言_1w
第二_2w
砍_0w
分子_-2w
塞内加尔_-1w
打响_-2w
活
顾_-3w
流
Ka24_s
通_2w
南海军_-1w
砍_1w
马方_1w
状态_-3w
同_1w
最后通牒_1w
立即_-1w
野鸭子_-3w
访_1w
Hi03_s
落入_0w
外泄_0w
中立_1w
Hj36_s
吁_0w
泰国_1w
宵禁_0w
海警船_2w
炸弹_-2w
军评_-2w
美韩_1w
再现_0w
涌
支_2w
42_-2w
军方_-2w
美韩_2w
拆除_1w
类型_-1w
捐_-2w
习_-3w
吁_2w
领导人_-2w
敛_0w
让_1w
怎么_2w
商定_-1w
月_-3w
无条件_-1w
华侨_-2w
改_-1w
让_0w
在_-1w
Ka11_s
Ja06_s
阿巴斯_-2w
瓜分_0w
深
已经_-1w
添
乌龙_-1w
Je11_s
Df02
数量_-1w
清
开闸_0w
借_-1w
不知_0w
码头_-1w
阿方_1w
渗
加拿大_-3w
增长_0w
渡
Df08_s
游客_-3w
取得_-2w
火车票_1w
谋杀_1w
加拿大_-2w
嘉宾_-3w
军官_-3w
面临_0w
Hf05_s
力量_2w
暗示_0w
生机_1w
加拿大_-1w
提速_1w
会_1w
希腊_-2w
不可_2w
要_-2w
会谈_2w
最_-3w
东欧_-1w
大批_-1w
狙_-1w
会_0w
军官_-2w
100%_1w
执行_1w
Jd04_s
制裁_-1w
岛_1w
援手_-1w
18.5亿_2w
代_1w
执行_0w
居住_0w
岛_2w
直攻_2w
菲日_-2w
顺利_-1w
简氏_-1w
伊斯坦布尔_-2w
码头_-3w
CF-18_-2w
柬埔寨_-1w
强_-1w
火车票_2w
数量_-2w
原料_-2w
保法_-1w
强_-2w
打_0w
资_-1w
训练_-1w
马_2w
遣台_0w
乘其不备_-1w
增强_0w
多方_1w
庆祝_1w
训练_-2w
印媒_-3w
Kc03_s
优势_2w
比_-2w
蓄谋_0w
内陆_2w
一起_2w
商讨_-1w
监视_-3w
否决_2w
草_-2w
Hi52_s
解放军_-3w
陆续_-1w
外星_1w
居住_1w
格鲁吉亚_-3w
伤害_2w
增强_2w
请愿_-3w
扩_0w
青瓦台_-1w
监视_-2w
击败_0w
炫耀_-3w
诉讼_-3w
自杀式_1w
管_-2w
梦境_2w
合作区_-1w
基地_2w
东西_-2w
海峡_-1w
狙_-2w
伤害_0w
磋商_2w
领导力_-2w
引导_1w
满_-2w
介入_2w
进步_0w
我_1w
元_-3w
也_1w
殴打_1w
140_1w
14%_1w
迎面_-2w
嘉宾_-1w
马尔代夫_-3w
派兵_0w
下水_-2w
祝贺_1w
Hd14_s
伊斯兰国_-3w
水面_-3w
参会_0w
大亚湾_-2w
战争_2w
歼教_2w
Ie01
中菲_1w
吐槽_-1w
香港_-1w
越境_-2w
修宪_2w
-30_2w
巴黎_-3w
不足_-3w
改变_0w
深意_2w
Ie16
F16_-1w
改口_0w
干部_-2w
海滩_-2w
深意_1w
外出_0w
Ie08
高中生_-3w
Ed46_s
灵
干部_-1w
Kc06_s
自行_-1w
Hb09
各_-1w
南沙_-1w
犯罪案_-2w
人命_2w
措辞_0w
违_0w
自取_1w
炒
犯罪案_-3w
７_-2w
进行_2w
国外_2w
Hb13
Hb14
下台_-1w
喜_-1w
特使_-3w
伤塔利班_-1w
７_-3w
烂
南沙_-3w
研究_2w
战车_-2w
38_-2w
当选_0w
东风_-2w
系_0w
解雇_1w
香港_-3w
人命_1w
点评_1w
只_1w
解雇_2w
国外_1w
促_-1w
栖_-3w
探访_-3w
Hj24_s
这_-3w
短缺_0w
100万_1w
大势_-1w
派兵_-1w
1_1w
防展_0w
范畴_2w
华人_-1w
可能_-3w
机上_2w
抵制_2w
60_2w
弹劾_1w
划红线_-3w
区别_0w
物资_2w
Ka01_s
1_2w
持_0w
为_-1w
北朝鲜_2w
划红线_-2w
点名_0w
大棒_1w
Cb01_s
照
可能_-1w
远海_-2w
印尼_2w
反导_-2w
减少_2w
吴廷觉_-1w
表_-2w
近日_-1w
槿惠_2w
煽
听_0w
Hi17_s
眼瞧_0w
搅乱_2w
保障_2w
总体_2w
造_-1w
牺牲_0w
Ha03_s
用_1w
悬赏金_-1w
Hj37_s
警告_2w
探索_0w
保障_0w
眼瞧_2w
头目_-2w
造_-3w
洲际_2w
解除_1w
用_0w
美台_1w
巴_2w
好几_2w
霸气_-2w
火箭_-2w
仲裁_2w
自身_2w
安保_-3w
入狱_1w
爱
机型_-2w
拦截_-3w
Hb10_s
发动机_-1w
舰空_1w
研制_2w
海域_-2w
佩服_0w
版
中业岛_-1w
空_-3w
研制_1w
谋求_-1w
补_0w
领导_-1w
旨_2w
报道_0w
先_-2w
日军_-2w
泄密_-2w
牲
特
牺
讽_-1w
亮_-2w
中业岛_-3w
未来_-1w
Br13
5万亿_1w
需要_0w
交易所_-2w
证据_2w
为何_1w
驻军_2w
退役_-3w
犯
强调_-2w
降低_0w
二战_-3w
喝_0w
进口_-3w
完成_0w
退役_-2w
Jd05_s
事件_-1w
惹事_0w
坦克_1w
坦克_2w
仲裁_0w
乌龟_-1w
这_-1w
漂浮_1w
发展_0w
民兵_1w
战士_1w
时代_-2w
霸气_-1w
实践_0w
上宾_1w
训练队_-1w
发展_1w
成果_1w
军事_-2w
没法_-1w
事件_-3w
隐私_-3w
猎
超_0w
西媒_-1w
猛
运用_2w
处_-2w
沿海_-1w
超_2w
只_-2w
超_1w
腕_-2w
加沙_2w
选_0w
住_-2w
通过_-3w
涉弊案_2w
发展_-3w
35_2w
激光_1w
F-16_-1w
！_2w
篇幅_-3w
驱逐舰_1w
外交战_-2w
率
机密_2w
！_1w
埃及_2w
形容_-2w
1200_1w
事故_-3w
不要_-1w
单独_-1w
开启_0w
利比亚_-1w
合法_1w
稳健_1w
专家_-2w
演讲_0w
只_-1w
默克尔_1w
登陆_-2w
稳健_2w
枪声_2w
发酵_0w
出击_-2w
外交战_-3w
沈阳_-2w
埃及_1w
不要_-3w
决议_-1w
猎杀_0w
登陆_-3w
炒作_0w
研制_-2w
悬赏金_2w
If18
理
突然_-1w
Hm10_s
７３_1w
》_-2w
收复台_-2w
If21
If22
研制_-3w
正在_1w
竞赛_0w
而_-2w
》_-1w
撞_0w
G7_1w
正在_2w
分散_1w
Hc05
侵略_2w
俄军_2w
立即_2w
援助_-2w
报复_0w
科学家_2w
共_-1w
扩散_0w
Hc10
Hc11
英_-1w
静坐_-3w
大战_-2w
强制_0w
德穆尔_-1w
枯竭美_-2w
悬赏金_1w
法国_2w
巴军_-2w
永暑礁_1w
大学_-3w
站岗_0w
黑手党_1w
部分_-1w
中小学生_-3w
特使_2w
盼_0w
忧_-2w
美方_1w
知事_-2w
差_0w
安慰_2w
Hj60_s
交战_-3w
跨_1w
军备_-1w
援助_-3w
142_1w
封锁_-2w
战斗_1w
沉_2w
核心_1w
胜利_-3w
危地马拉_-2w
敦促_-3w
关税_-2w
他国_1w
战斗_2w
53_2w
142_2w
微信_2w
盟国_2w
交战_-1w
恐袭_1w
瓜
2_-3w
近_-3w
西北风_-3w
恐袭_2w
弹炮_-1w
挥舞_-1w
步骤_-3w
Jb02_s
弹道导弹_2w
政府军_1w
的_-3w
台军_-3w
协会_-3w
目标_-2w
也_-2w
卡梅伦_-1w
导航_0w
有_-2w
手待_-1w
凤凰_-3w
动口_-2w
电
驶离_0w
宣传_1w
开建_0w
２３_-1w
需要_-3w
界
金正_-3w
遏华_-1w
Hj25_s
声速_2w
妥协_1w
的_-1w
等于_0w
抗日_-1w
权益_-1w
宣传_2w
无人机_1w
总理_-3w
考虑_1w
弹道导弹_1w
的_-2w
编兵_-3w
是_-2w
妥协_0w
考虑_0w
团队_-1w
很多_1w
昼夜_-2w
无人机_2w
知道_-3w
头疼_2w
诽谤_2w
离职_-1w
羞辱_0w
安倍晋三_-1w
海域_-3w
团队_-2w
卓怡_-3w
互联网_-3w
炸弹_2w
赔偿_2w
斯特拉霍夫_-3w
疼
零星_1w
干_0w
自卫队_-1w
诽谤_0w
即使_-3w
空战_1w
很多_2w
两岸_-2w
强权即_2w
Hj38_s
长龙_1w
捷克_-2w
感谢_-2w
也_-1w
羞辱_1w
航母_1w
明确_1w
满_0w
权_1w
中东_2w
撤军_-1w
能力_2w
坐_0w
明确_0w
2022年_1w
中东_1w
撤军_-2w
能力_1w
工程_2w
我_-1w
几乎_-2w
推迟_-1w
塔吉克斯坦_-3w
海盗_1w
规则_-3w
达_-3w
撤军_-3w
强硬_-2w
坐_2w
恐怖_-3w
分_0w
几乎_-1w
北极_2w
感谢信_-1w
日裔_-3w
航行_-1w
土豪_1w
核武器_1w
恐怖_-2w
深化_0w
卫星站_-2w
事态_-3w
情报_-2w
参加_2w
拟派_-3w
Je13_s
威胁_2w
连续_-2w
魏_-1w
宣传_0w
剩_0w
制榴_-2w
情报_-1w
官方_1w
泰国_-3w
吉斯坦_1w
Ib08_s
连续_-3w
超越_0w
发挥_0w
无视_-2w
别国_2w
满_2w
泰国_-1w
盖
盘
论坛_-1w
华战争_2w
非盟_-3w
离职_0w
任内_2w
直
情报_-3w
盼
威胁_1w
部门_2w
模拟_-1w
谁_-1w
省
看
美联储_-2w
支援_2w
打破_1w
打动_1w
兵力_-2w
批_-3w
回答_1w
难_2w
17_-3w
暴露_0w
捕捞_2w
１２_2w
打动_0w
Fa06_s
巨头_-2w
数千_-3w
6_2w
眼
Hc09_s
着
需_0w
双航母_-2w
暴露_1w
30_-2w
谁_-3w
再_1w
中东_-3w
准备_2w
对付_1w
部队_1w
吉斯坦_-3w
Ee40_s
第一_-3w
批_-1w
Ga12_s
地区_-3w
快反_2w
建筑家_-1w
捕捞_0w
调解_1w
驶入_0w
吉斯坦_-2w
北极圈_-2w
批_-2w
鸟礁_-3w
”_2w
VT4_-1w
瞄
西方_-2w
准备_0w
F22_-2w
时隔_0w
里根_-3w
航行_-2w
期间_-1w
坦克_-3w
开战_0w
里_2w
抓_0w
瞧
部队_2w
瞰
坦克_-2w
船_-3w
k_-3t
航行_-3w
开战_1w
震慑_-3w
经济_-2w
教训_-1w
肩_-3w
着眼_0w
事件_2w
坦克_-1w
逐步_-1w
吧_2w
模拟_-2w
知
赞成_-2w
直_-1w
西方_-1w
发表_0w
短
军国主义_1w
远离_2w
预算_1w
Hd05
Hi19_s
自动_1w
砍
转移_1w
F-22_-2w
警官_-1w
阿_-2w
火箭军_-3w
欧_-1w
Hd12
核电站_-1w
Id10_s
购美_0w
请_0w
094型_-1w
用作_0w
列入_0w
警官_-2w
燃料_-3w
原本_-2w
发动_0w
Hd03
建立_2w
Hm11_s
民族_-1w
驳斥_-2w
关注_1w
Ih06_s
很_-2w
战备_0w
夸大_0w
Ga04
最先_-1w
关注_2w
寒区_-1w
F-22_-1w
太空_-3w
核电站_-3w
很_-1w
议长_-3w
核试_-1w
赞_0w
合同_-3w
每天_-1w
公司_-3w
民间_-2w
执政_0w
东南海_1w
冲突_-3w
超级_-3w
受贿_-3w
配_2w
射击_2w
藏_-2w
去年_-2w
越方_-2w
拒_-1w
加速_0w
集团_-3w
Hn09_s
旁边_-1w
其_2w
竟疑_-2w
转移_0w
合同_-2w
从来不_-1w
公司_-2w
周年_2w
伊核_1w
日方_-2w
巴铁_1w
军事化_2w
依然_-1w
应_1w
见习_0w
外交_-3w
袭_1w
威胁_-1w
访问_-3w
协议_1w
军力_1w
瞬间_-1w
依然_-2w
应_0w
非洲_-1w
南苏丹_2w
猛图_-1w
高层_-2w
访问_-2w
Di01
Di02
Di04
步_2w
Jb03_s
Di08
其_-3w
如何_2w
死_0w
边境_-1w
抵京_-2w
安理会_2w
赴_1w
崩溃_2w
航空兵_-3w
宣布_-2w
独善其身_2w
安理会_1w
空降兵_1w
死_1w
纳扎尔巴耶夫_-2w
包机_-1w
起飞_2w
作战_2w
若_1w
来临_0w
遇害_2w
进行_-2w
侦察机_2w
售_2w
进展_-2w
Hj26_s
招金_-2w
网页_-1w
Gb09_s
围点_-1w
作战_1w
起飞_1w
自始_0w
售_1w
提出_0w
槿惠_-2w
察觉_1w
起飞_0w
怎么_-2w
自称_0w
虽_-1w
最新_-3w
带_0w
跌_1w
打败_0w
一致_-2w
采取_1w
威胁_-3w
救助_1w
受到_0w
怎么_-1w
跌_0w
警卫队_-1w
提高_2w
采取_0w
领_0w
猛图_-3w
移
具备_0w
轮痕_-2w
航线_-1w
Ka04_s
台媒_-1w
遭日_-3w
玻利维亚_-3w
国产_2w
钓鱼岛_-2w
强度_-2w
Fd03_s
出征_0w
印尼_-1w
使命_-1w
密案_1w
民调_-1w
钓鱼岛_-1w
决心_1w
分钟_2w
专利_-2w
断定_0w
菲签_-2w
归_-3w
照_-1w
鼓吹_0w
、_2w
剑拔弩张_-2w
反击_1w
美监_-1w
试探_2w
乘客_-2w
燃料_2w
决心_2w
局长_2w
专利_-1w
曼谷_-3w
医疗队_-1w
Ka17_s
云南_-1w
太_-2w
伤_2w
Je01_s
协定_2w
沦为_0w
驱离_0w
恩发_-2w
目标_2w
延伸_0w
军队_1w
伤_1w
加息_0w
扣留_-2w
纪念_-2w
菲签_-3w
巨资_1w
希拉克_-3w
启动_-2w
目标_1w
、_1w
伤_0w
开启_-2w
可_0w
金枪鱼_-2w
Gc02_s
Da13_s
朋友_1w
沦为_2w
抱怨_-3w
民众_1w
记忆_1w
误炸_-2w
最近_-3w
预测_0w
步枪_-3w
承诺_-2w
高层_-1w
站
12_-2w
竞
能否_-1w
竟
蔡_2w
放_0w
误炸_-3w
最近_-2w
Ia12_s
延伸_1w
全民_1w
12_-3w
普京卫队_1w
至_0w
抗议_2w
禁售_-2w
才_-1w
辽宁舰_-1w
接近_0w
阿富汗_2w
至_1w
圈_-2w
符
枪击案_1w
总理_1w
加大_-3w
绝食_0w
火药味_-3w
否_0w
有限_-2w
等
印欲_-1w
世界杯_1w
重兵_-1w
现在_1w
边境_1w
策
时间_2w
否_1w
普京_-2w
协定_1w
战舰_-2w
核试验_-3w
6月_-2w
重兵_-2w
边境_2w
得_1w
登舰_0w
俞正声_-3w
枪手_-1w
阿富汗_1w
何_1w
赞扬_0w
Hg02_s
出_1w
试验_-2w
军工_2w
算
机群_2w
恐怖_1w
安插_0w
管
力量_-3w
加强_0w
力度_-1w
出_2w
开始_0w
第25_-3w
讨论_-2w
获释_-1w
何_2w
创_0w
阿根廷_1w
峰会_-3w
停火_-2w
He08
分遣队_2w
你_2w
过时_-2w
He13
讨论_-1w
警力_-1w
峰会_-2w
周_2w
才_-2w
出_0w
力量_-1w
短程_1w
落_-1w
舆论_2w
Kd02_s
驳美_0w
获释_-3w
据点_-1w
正当_0w
兵力_1w
Gb01
出卖_2w
He14
超越_-2w
He15
－磨丁_-3w
冷战_1w
国防部_-2w
刀_1w
Gb18
风险_2w
惩腐_2w
抵达_-2w
双方_-2w
鼻祖级_1w
Gb06
Gb08
刀_2w
Gb09
扶植_-3w
明思克_-3w
拟购_0w
请求_-2w
驻_1w
控_0w
局势_-3w
系统_-1w
美元_-1w
北部_-3w
出台_0w
陆军_-1w
请求_-3w
发_-1w
德奥默克尔_1w
误炸_0w
迅速_1w
！_-1w
系统_-2w
美元_-2w
提入_0w
追_0w
存在_0w
阿_2w
Ie09_s
吨_-2w
抵_1w
６．８_1w
局势_-1w
信号_2w
陆军_-3w
成果_2w
武装力量_-1w
落海_-1w
吨_-3w
攻占_-3w
！_-3w
留尼汪岛_-3w
兵力_2w
抵_0w
对方_-1w
冲绳_-1w
局势_-2w
近_1w
系
争议区_-2w
冒_0w
断_-3w
直升机_-2w
造反_0w
取消_-1w
Hj01_s
怕_0w
难度_1w
索
不如_0w
紧
日媒_-3w
直升机_-1w
日媒_-2w
曾_-2w
蓄势待发_-2w
取消_-2w
转_-1w
猜测_1w
北部_-2w
表示_2w
打沙特_2w
怕_2w
专门_-1w
争端_2w
认清_1w
走_-1w
我军_-2w
担忧_2w
取消_-3w
自_-3w
北部_-1w
打沙特_1w
列装_-2w
多_-1w
黑海_-2w
走_-2w
我军_-3w
应派_-2w
尽力_0w
涉嫌_0w
议题_-3w
保护_1w
，_-2w
胜过_1w
成员_1w
批评_1w
警方_1w
Jb04_s
电子_2w
认清_0w
科技委_-1w
警方_2w
下令_0w
实名制_2w
人工岛_-2w
高铁_-1w
白皮书_-1w
视_0w
洛·马_-3w
号称_0w
货车_1w
可_-2w
Hj27_s
Gb08_s
美强_-1w
劫持_-2w
在校_1w
担任_0w
外来_1w
着急_-2w
亚_2w
武官_-1w
出卖_1w
Gc01_s
空军_1w
弹_2w
频繁_2w
撤_0w
签名_2w
沦为_-3w
天天_-2w
差_-3w
撤出_1w
战士_-2w
国防_-3w
韩婉_2w
22_1w
希望_2w
受害者_-3w
4.8亿_2w
Ka16_s
400_1w
不再_-1w
铁路_-1w
22_2w
新高_-1w
敌人_2w
点_-2w
逼近_0w
冲绳县_-3w
频繁_1w
占_0w
保卫_2w
马航_2w
守城_-2w
10_2w
差_-2w
海_-3w
试图_0w
软盘_2w
保留_0w
廉颇_2w
反省_0w
担忧_0w
Da01_s
级
有望_0w
飞行_-2w
政治_-1w
保留_1w
停火_2w
纳
记_0w
辞职_-1w
隔离_1w
海岛_-2w
织
拦截_1w
廉耻_1w
自卫队_2w
结
记_1w
绕
选举_1w
反应_1w
经济_1w
启用_0w
防卫省_0w
逼美舰_-1w
抛弃_2w
继
拦截_2w
盛赞_-3w
续
委员会_-2w
西沙_2w
海洋_-1w
众怒危地马拉_1w
尽快_-1w
韩核_1w
战车_-1w
磋商_-1w
便宜_2w
缴
首日_1w
缺
飞行_-3w
首席_1w
特意_-3w
登舰_-1w
系统_-3w
拟购_1w
派_-2w
红旗9_1w
捷克_2w
罪
巡航_-1w
5_-2w
下_0w
军迷_-2w
Hf08
淡化_2w
Hf06
守城_-3w
枭龙_2w
5_-3w
特意_-1w
巡航_-2w
类_-3w
羞
Dk06_s
国际_-2w
点_-3w
友好_2w
步伐_2w
曝光_-1w
曝光_-2w
巡航_-3w
坐视_0w
寒冬_2w
面孔_-2w
投放_0w
曝光_-3w
军舰_1w
宣称_0w
不得_-1w
历史_-2w
"_-2w
军机_-2w
路透_-2w
nz_1t
为什么_-1w
起来_1w
波音_-2w
翻
"_-3w
菲律宾_1w
Hj28_s
菲律宾_2w
ns_-3t
情报_2w
号_-3w
从_-2w
海洋_1w
军队_-2w
职
叙_-1w
技术_-1w
核潜艇_-2w
演练_0w
胁
能_-1w
时间_-1w
军队_-1w
核潜艇_-1w
纪念_0w
坚决_-1w
军情室_-2w
击落_0w
更_1w
Dk30
住_2w
分子_2w
转向_0w
朝_-1w
Hg04_s
Hi57_s
舞
航
到底_-1w
朝_-3w
朝_-2w
舰队_-1w
项目_-1w
战机_1w
生产_1w
5_1w
舰队_-2w
5_2w
F-22_1w
、_-3w
战机_2w
反对_1w
a_2t
a_-2t
识别区_-2w
反对_0w
a_1t
a_-3t
外交_2w
武器_-1w
Hg08
Hg06
Hg10
反对_2w
公布_0w
朝鲜_-1w
IS_-2w
Hj64_s
Hg14
侦察_-3w
Hg16
Hg17
民众_-1w
中_-2w
叙_-2w
中_-3w
IS_-3w
获
港口_-1w
ns_-2t
的_2w
朝鲜_-3w
Jd09_s
美舰_1w
Hi31_s
Ih08_s
遭_-3w
ns_-1t
1_s
遭_-1w
朝鲜_-2w
民众_-3w
a_-1t
IS_-1w
武器_-3w
任何_1w
Fa06
公开_-1w
大_2w
等_-1w
飞行员_-1w
部队_-1w
承诺_0w
落
外媒_-3w
军演_-1w
国会_-1w
以色列_-1w
Hm01_s
国会_-2w
一致_1w
以色列_-2w
掌握_0w
名_-3w
名_-2w
Hi09_s
大_1w
日本_2w
韩_-1w
Gb19_s
四_1w
在_1w
恐袭_-3w
已_2w
Gb06_s
在_2w
已_1w
前_-3w
前_-2w
尹卓_-3w
日本_1w
演习_0w
外媒_-1w
释放_2w
中国_-3w
军演_-2w
中方_-3w
推销_0w
中方_-1w
null
中方_-2w
释放_0w
Hb02_s
中国_-1w
中国_-2w
没有_2w
对_-2w
确保_0w
斯诺登_-3w
对_-3w
昂山_1w
欲_-1w
海军_-3w
反恐_1w
韩_-2w
联合_1w
海军_-2w
城市_-3w
突击_2w
越来越_2w
韩_-3w
海军_-1w
Hh01
Hh04
望_0w
开_1w
等_2w
Je04_s
wp_1t
i_-3t
wp_2t
i_-2t
政权_2w
Hi32_s
i_-1t
欲_-3w
军网_-1w
损害_0w
俄_-2w
行
wp_-3t
运_1w
外交部_2w
表
俄_-1w
wp_-2t
负责_1w
拟_-1w
d_-3t
空袭_0w
俄_-3w
被
袭
极端_-3w
:_2w
部署_2w
澳_1w
d_-2t
空袭_1w
裁
装
心神非马鹿_-1w
至少_1w
部署_1w
千_2w
部署_0w
至少_2w
正_-1w
Hb03_s
首_-3w
捕食者_2w
q_2t
战区_-3w
首_-2w
无人机_-1w
安倍_-1w
新_2w
首_-1w
d_-1t
对_2w
新_1w
安倍_-3w
要
系统_2w
赞成_0w
Hc10_s
建设_0w
wp_-1t
对_1w
见
观
视
Ka01
Ka04
Ka09
Ka08
Ka07
Ka06
人_2w
解
Hc23_s
言
Ka23
Ka24
Ka29
Ka12
Ka11
宣布_0w
Ka16
Ka15
Ka14
Ka18
Ka17
枚_2w
个_-3w
建_-3w
Ka30
实现_0w
Ka33
Ka32
Ka31
个_-2w
美方_-2w
Ka35
Hg06_s
无法_-1w
乌_1w
Hi02
Hi05
Gb04_s
最_1w
Hi24
Hi21
Hi27
Hi25
Hi26
Hi29
“_2w
修建_0w
Hi31
Hi12
Hi14
Hi18
拟_-3w
美国_-3w
普京_2w
Hi53
Hi34
Hi32
拟_-2w
Hi39
Hi36
警
Hi37
以色列_1w
普京_1w
Je05_s
Hi41
Hi40
Fc04
轰炸机_2w
美国_-1w
三_-3w
应对_1w
美方_-1w
Hi56
Hi57
订
认
美国_-2w
讨
：_-1w
训
议
许
论
讽
设
访
证
评
诉
：_-2w
保障_-3w
防_1w
试
：_-3w
元_2w
“_1w
说
请
组建_0w
欧洲_-1w
诺
读
是_1w
调
美智库_-1w
谈
Dn04
伊拉克_-3w
Dn08
Dn09
匈牙利_-2w
谢
伊拉克_-1w
谴
炮击_-2w
五角大楼_-1w
打造_0w
越南_2w
潜艇_2w
越南_1w
用_-2w
是_2w
用_-3w
雷达_-2w
华_-1w
nh_2t
杀害_1w
责
举行_-2w
武装_-1w
购
华_-3w
nh_1t
杀害_0w
威慑_2w
国际_1w
Hg07_s
呼吁_2w
Hb04_s
武装_-2w
赏
实拍_-3w
ns_1t
赞
武装_-3w
赴
起
呼吁_0w
ns_2t
当_1w
越
反对派_-1w
Kb02
Kb01
Kb07
Kb06
Kb05
Ig01_s
当_2w
中情局_-2w
崛起_2w
Hc11_s
因_-3w
西北风_2w
反_1w
战略_2w
南海_2w
Hi34_s
下
不
Gb03_s
ws_-2t
战略_1w
南海_1w
反_2w
ws_-3t
举
生效_0w
4_1w
参观_0w
古巴_-1w
习
买
游行_0w
Hh01_s
?_1w
政府军_-1w
谈判_-1w
巴_-2w
Hj03
争
为_-3w
事
v_0t
交
台湾_1w
亮
交战_0w
Hj23
Hj26
Hj27
Hj25
承认_-3w
歼_1w
付
Kb01_s
发言人_-1w
v_2t
Hj12
Hj10
Hj19
谴责_0w
发言人_-2w
v_1t
ws_-1t
Hj44
Hj42
Hj49
Hj47
防空_-3w
访问_0w
会
Hj51
安保_1w
Hj36
因_2w
Hj40
Hj41
Hj67
住
He03_s
作
Hj58
美媒_-1w
转
Hm04_s
轰
西方_1w
Hj63
使
Hj61
提供_0w
致_1w
供
辞
致_2w
欧洲_1w
Hi21_s
Fc04_s
辱
侵
Je06_s
达
促
欧洲_2w
过
返
还
访问_2w
进
军演_2w
远
保
迟
信
迫
修
追
导弹_-2w
送
年_-2w
选
透
通
造
年_-1w
r_-3t
Je08_s
逼
遇
r_-2t
道
停
遣
遭
黄岩岛_1w
r_-1t
？_1w
台湾_-3w
台湾_-2w
次_2w
协议_-1w
部
Dk12_s
地_-1w
Hc12_s
空军_-2w
接收_0w
允
充
光
日_2w
配
日_1w
Kc01
Kc07
Kc06
阿富汗_-2w
入
公
Jd10_s
关
兵
商讨_0w
Kc09
Kc08
冲
Kc10
国务卿_-2w
交付_0w
港口_2w
叛军_-2w
采
释
直接_-1w
重
轰炸机_-1w
Ig02_s
出
击
空军_-1w
阅兵_2w
列
危机_-1w
建议_-1w
判
制
Gb15_s
参与_-1w
请求_0w
不_-2w
爆炸_-1w
不_-3w
表示_-1w
Hi22_s
舰艇_-3w
美军_1w
艘_2w
又_-1w
办
加
美军_2w
舰艇_-2w
动
助
防长_-1w
素季_2w
服役_0w
防长_-2w
包
正恩_-3w
成功_-1w
总统_2w
正恩_-2w
总统_-3w
总统_1w
华
卖
总统_-2w
占
国家_-1w
海外_-2w
即将_-1w
《_1w
总统_-1w
若_-3w
国家_-2w
援助_0w
建议_0w
Eb22
国家_-3w
援助_1w
Hm05_s
谈_-3w
强调_0w
去
参
阅兵_0w
反
发
取
援助_2w
受
变
Hj42_s
美军_-2w
谈_-1w
上将_-2w
美军_-3w
号
吁
合
美军_-1w
安保法_2w
北部_2w
向
巴基斯坦_-2w
“_-1w
避难_2w
否
曝_0w
巴基斯坦_-3w
特朗普_-1w
“_-3w
告
允许_0w
巴基斯坦_-1w
俄罗斯_1w
北部_1w
呼
p_2t
军_-1w
和
爆发_0w
击毙_0w
议会_-1w
p_1t
Hb06_s
通过_0w
出动_0w
销
工程_-2w
攻击_0w
绝食_-1w
300_2w
通过_2w
Kd02
Kd05
Ig03_s
售
商
击毙_1w
感谢_0w
机群_-3w
中方_2w
土耳其_-3w
有_2w
Jd11_s
Ja04
中方_1w
土耳其_-2w
以_2w
人_-1w
土耳其_-1w
实施_0w
说_0w
问
闯
很_2w
是否_1w
阅
总部_2w
访华_1w
日_-2w
开始_-2w
Hi23_s
袭击_2w
访华_0w
防
日_-3w
阻
陆
降
媒体_-1w
除
韩国_1w
Gb14_s
媒体_-2w
斯里兰卡_1w
Hi36_s
F35_1w
ni_-3t
难
称_-3w
集
官兵_1w
回
称_-2w
20_2w
围
称_-1w
战机_-1w
震
萨德_-3w
奥巴马_1w
曝光_0w
三_1w
萨德_-2w
将_-3w
阅兵式_1w
露
重新_-1w
个_2w
ni_-2t
满意_0w
萨德_-1w
将_-2w
坐
声称_0w
ni_-1t
将_-1w
革
阿根廷_-1w
军人_2w
Hm06_s
推迟_0w
最新_1w
ws_2t
埃及_-1w
重要_-2w
求购_0w
ws_1t
要_2w
领
对抗_0w
Ia07_s
核_2w
Hc14_s
增
改革_0w
性侵_2w
黑客_-1w
Ke01
飞
改革_2w
声
利比亚_2w
处
两_2w
政府_2w
反_-3w
半岛_-1w
复
为_1w
阻止_0w
与_2w
失
联合_-1w
夺
为_2w
奉
与_1w
半岛_-3w
政府_1w
半岛_-2w
内_-1w
Jb01
好
Jb04
Ih11_s
达成_0w
名_2w
Hm01
Hm05
Hm04
Hm09
Hm07
(_1w
艘_-3w
数_-3w
利比亚_1w
两_1w
3_1w
军费_-2w
威
菲_-1w
3_2w
合作_1w
Hm07_s
u_-1t
合作_0w
伊朗_1w
u_-2t
Id18_s
越南_-3w
越南_-1w
Jc05_s
印度_-3w
j_2t
u_-3t
u_1t
j_1t
合作_2w
Ih10_s
驱
驳
驻
验
为何_-2w
u_2t
示威_-1w
nl_1t
建_2w
打击_2w
澳_-2w
Ga06_s
nl_2t
澳_-1w
Hj57_s
Ed15
后_-1w
Kb06_s
约_1w
nt_-1t
Ed01
Ie12_s
澳_-3w
nt_-2t
伊斯兰国_2w
后_-3w
官员_-1w
要_1w
官员_-2w
韩_1w
Da01
印度_-1w
Da26
b_-2t
Da27
韩_2w
定
实
b_-3t
审
印度_-2w
宣
Ed48
船员_-1w
害
伊拉克_1w
Ed52
nt_-3t
对
射
南沙_2w
少
j_-2t
扣留_0w
媒_-3w
紧急_-1w
j_-3t
渔船_2w
上_-3w
禁止_0w
大使_-3w
Hb08_s
展
任务_-2w
称_2w
问题_2w
媒_-1w
nl_-3t
上_-2w
沙特_1w
称_1w
上_-1w
部署_-3w
和_1w
科莫_2w
巴基斯坦_1w
nl_-1t
Kf02
安倍_1w
nl_-2t
战略_-3w
Ia08_s
印度_1w
Kf14
印度_2w
再_-1w
外国_-2w
钓鱼岛_1w
打击_0w
打击_1w
严重_-1w
半岛_2w
Jc01
Jc05
缓和_0w
潜艇_-3w
和_2w
警方_-1w
潜艇_-2w
越_-2w
Hn03
进入_0w
IS_2w
潜艇_-1w
称_0w
恶化_-3w
IS_1w
张召忠_-1w
让_-2w
巡
美元_2w
工
布
希
Id06_s
带
席
帮
警惕_0w
接连_-1w
北约_1w
幕
干
阿桑奇_-1w
应
接受_0w
Hi25_s
日本_-1w
南海_-3w
闯_0w
证实_0w
Hi12_s
南海_-2w
Ie13_s
不断_-1w
延
建
南海_-1w
开
弃
基地_-1w
鼓
引
Ee40
火箭_2w
强
道歉_0w
火箭_1w
澳媒_-3w
日本_-2w
意图_-1w
日本_-3w
肯尼亚_1w
役
已_-1w
待
高官_-1w
已_-2w
被_-1w
大使_-2w
"_1w
行动_0w
高官_-2w
已_-3w
被_-2w
"_2w
Bm13
8_1w
盟友_2w
被_-3w
念
行动_2w
j_-1t
态
nd_-2t
日方_1w
d_2t
Hc16_s
境内_-1w
缅甸_-1w
nd_-1t
共同_-1w
怨
d_1t
恐
人员_-1w
被_1w
恶
将_2w
Hc03_s
被_2w
逼_0w
Ja03_s
Jd08
Jd07
Jd06
爆炸案_-3w
惕
Jd11
Jd10
nd_-3t
将_1w
重大_1w
爆炸案_-2w
海盗_-1w
Jd01
Jd05
Jd04
Jd03
Jd02
军人_-1w
意
制裁_0w
太_1w
数千_1w
Ia07
感
汽车_-2w
美_2w
紧急_1w
太_2w
再次_-1w
愿
监视_0w
美_1w
p_-1t
Ia08
Hi26_s
p_-3t
p_-2t
外交部_-1w
叙利亚_1w
十_2w
英媒_-3w
计划_-1w
叙利亚_2w
英国_-3w
Hi39_s
Jd01_s
计划_-3w
设_0w
登陆_2w
成
战
永兴岛_1w
令_2w
Hj20_s
海军_1w
截
全面_1w
从_2w
要求_2w
手
打
菲方_-2w
韩国_-3w
海岸_-2w
要求_1w
扣
扩
扰
弃_2w
批
舰_-1w
承
要求_0w
阻_0w
Ef14
美_-1w
Hi13_s
Hm09_s
抓
向_-2w
抗
放弃_2w
放弃_0w
护
Ie14_s
向_-3w
抵
Dc01
美_-3w
拆
举行_0w
拒
乌克兰_1w
美_-2w
发生_0w
拦
乌克兰_2w
持
指
政府_-1w
挑
政府_-2w
捐
捕
损
攻击_-3w
无视_0w
或_-3w
掌
正式_-1w
发出_0w
探
接
控
推
韩国_-2w
吨_2w
巡航_0w
或_-1w
司令_-1w
提
司令_-2w
政府_-3w
握
援
Ib03_s
nz_-3t
外长_2w
特殊_-3w
难民_-1w
闯_-2w
大_-2w
谈判_2w
伊_2w
盟友_-1w
携
大_-1w
Hc17_s
15_-2w
难民_-2w
航行_0w
同时_-1w
巡洋舰_-2w
爆炸_2w
首_1w
Je08
Je06
Je05
Je11
Je10
Je14
Je13
撞
Je12
撤
问题_-2w
推进_2w
Je04
Je02
Je01
nz_-1t
盟友_-3w
下_-2w
窃取_0w
Ib01
Ib03
辆_2w
nz_-2t
谈判_0w
Hc04_s
批_0w
了_1w
Ih01_s
Ib21
Ib08
Hi27_s
会晤_0w
支
收
改
攻
放
Hi14_s
效
伊朗_-2w
伊朗_-3w
救
散
于_-2w
非法_-3w
Ja04_s
文
2_1w
习近平_-1w
斥
伊朗_-1w
新
发动机_2w
或_1w
需_-2w
施
i_1t
或_2w
无
英国_1w
少将_-1w
取消_0w
i_2t
遭_2w
制造_2w
Ga16_s
外交部_-3w
m_-1t
晤
外交部_-2w
也门_1w
拒绝_0w
不_2w
m_-3t
不_1w
机场_-1w
网络_1w
m_-2t
批_2w
遭_1w
曝
金_-3w
国_-1w
携手_0w
嫌犯_-1w
推动_0w
服
望
期
大规模_-1w
评_0w
杀
问题_-1w
今年_-3w
来
Bo29
Bo27
欧盟_-1w
一_-3w
保持_2w
12_1w
析
Hc18_s
回应_-2w
枪
应_-2w
-20_2w
回应_-3w
Hf03_s
应_-1w
查
一_-2w
战区_2w
副_-3w
Hc05_s
长期_-1w
重_1w
时隔_-3w
副_-2w
仍_-1w
出席_0w
Ic01
Ic05
导弹_1w
挑事_0w
海上_1w
导弹_2w
航母_-3w
Ic09
航母_-2w
就_-1w
也门_-2w
完成_-3w
阅兵_-1w
斯里兰卡_-1w
就_-2w
使用_0w
Ih02_s
使用_1w
世界_-3w
30_1w
仍_-3w
Je10_s
塔利班_-1w
就_-3w
四方_-2w
审判_0w
Ha01_s
女_-2w
但_2w
沙特_-3w
欲_1w
横
战场_2w
Ie03_s
每年_-1w
Hj22_s
Hi02_s
抵达_0w
正式_1w
Bp17
10_-3w
欢
调查_0w
多_1w
Bp29
王牌_2w
多_2w
歉
大会_-1w
罗援_-3w
止
武
奥朗德_-1w
编队_-1w
奥巴马_-2w
c_1t
特种部队_-1w
海上_-1w
增加_0w
n_2t
毁
Hc19_s
尽早_-1w
毙
Hn05_s
军舰_-2w
n_1t
c_2t
奥巴马_-1w
土_1w
200_1w
好_2w
水
组织_2w
求
Id20_s
乌克兰_-1w
Id03
Id04
Hc06_s
炸_1w
Fb01_s
Id18
Id16
”_-1w
Ih03_s
Id21
签署_0w
Id23
Id08
Id06
Id10
Id11
Id14
编队_-3w
气候_-2w
”_-3w
”_-2w
注
图_2w
及_2w
分子_-1w
军评_-3w
还_2w
派
访_0w
测
炸弹_-1w
捷_2w
在_-2w
消
涉
月_-1w
乌克兰_-3w
Hi29_s
在_-3w
印_-3w
乌克兰_-2w
军方_-1w
印_-2w
印_-1w
不满_-2w
军方_-3w
Ie04_s
谋杀_2w
要_-3w
最_-2w
轰炸_0w
登陆_0w
游
：_2w
Ha02_s
希腊_-1w
要_-1w
制裁_-3w
：_1w
级_2w
简氏_-3w
If11_s
360_-3w
保法_-3w
制裁_-2w
如果_-1w
代_2w
Hj23_s
满
航母_-1w
演
强_-3w
支持_0w
打_2w
防空_1w
Gb21_s
打_1w
印媒_-1w
巴西_-3w
防空_2w
公民_-3w
Hc07_s
激
首相_-2w
解读_0w
磋商_0w
我_2w
Id21_s
c_-2t
9月_-3w
Ie02
c_-3t
进行_0w
警告_1w
中巴_1w
火
警告_0w
Ie10
Ie13
俄_1w
过_1w
架_2w
国_2w
解放军_-1w
俄_2w
Hd01_s
解放军_-2w
进行_1w
炸
点
Hb04
Hb05
Hb02
Jb01_s
只_2w
同意_-1w
c_-1t
研究_0w
印尼_1w
发展_2w
俄罗斯_-1w
俄罗斯_-2w
俄罗斯_-3w
:_-3w
为_-2w
新型_1w
新型_2w
用_2w
洲际_1w
n_-1t
爆
Hf06_s
海警_2w
岛屿_-1w
东_-3w
中_1w
王毅_-3w
先_-1w
亮相_0w
陈虎_-3w
Je12_s
中_2w
海域_-1w
东_-1w
美国_1w
王毅_-1w
研制_0w
为何_2w
v_-2t
:_-1w
美国_2w
v_-1t
未来_-2w
:_-2w
解放军_1w
军事_-1w
Ka15_s
v_-3t
Ga13_s
Hi53_s
猜
军事_-3w
沿海_-2w
通过_-2w
驱逐舰_2w
Fa07_s
发展_-2w
，_1w
停止_0w
中国_2w
专家_-3w
现
中国_1w
11_2w
专家_-1w
鼓动_0w
战争_1w
If19
16_1w
Ih05_s
英_-3w
If24
恐袭_0w
大学_-1w
Hc06
Hc09
Hi18_s
大学_-2w
If26
俄军_1w
距_1w
Hc03
Hc04
武器_2w
次_-2w
Hc18
Hc19
Hc16
Hi40_s
武器_1w
Hc20
次_-3w
Hc23
差_2w
军事基地_1w
Hd02_s
群岛_-1w
次_-1w
世界_1w
生
用
政府军_2w
总理_-1w
带来_0w
Hj12_s
新_-2w
总理_-2w
台军_-1w
留
是_-1w
新_-1w
连续_-1w
疑
被捕_0w
自卫队_-3w
是_-3w
新_-3w
数万_-3w
Ha04_s
Hi05_s
航母_2w
组织_-1w
港媒_-3w
Hg14_s
组织_-2w
Hb11_s
强硬_-1w
登
联合国_-3w
试验_0w
联合国_-2w
设施_-3w
核武器_2w
-2016_-2w
泰国_-2w
新型_-3w
Hf07_s
会见_0w
监
试验_2w
参加_0w
打_-1w
威胁_0w
相
Jd06_s
6_1w
经济_-1w
对付_2w
打破_0w
大规模_1w
设施_-2w
腐败_2w
m_1t
向_2w
b_1t
b_2t
”_1w
再_2w
向_1w
Hi41_s
对付_0w
两_-2w
Ig01
m_2t
两_-3w
西方_-3w
准备_1w
Ig02
经济_-3w
伊斯兰国_-2w
录音_-1w
研
Hd14
F-22_-3w
破
两岸_1w
Hd01
售_0w
Hd26
Ga01
Ga03
Ga02
联合国_2w
确
配_0w
q_-3t
议长_-2w
回应_0w
赴_0w
Ga16
议长_-1w
q_-2t
其_1w
磋
警戒_2w
两岸_2w
q_-1t
公司_-1w
Kc08_s
F-16_1w
越_2w
其_-1w
死_2w
军事_1w
其_-2w
nt_1t
示
宣布_-1w
军事_2w
赴_2w
禁
Di25
边境_-3w
菲律宾_-1w
Di10
Di11
Di15
进行_-3w
关注_0w
ni_2t
离
作战_0w
菲律宾_-3w
与_-2w
nt_2t
称
与_-3w
协议_2w
外国_1w
太_-1w
重返_0w
印尼_-2w
太_-3w
钓鱼岛_-3w
究
空
突
窃
表示_0w
Hf08_s
叙_1w
可_1w
苏_1w
叙_2w
立
印尼_-3w
Je14_s
国产_1w
民众_2w
军队_2w
可_2w
普京_-3w
战舰_-1w
希拉里_1w
抗议_0w
普京_-1w
Jd07_s
抗议_1w
进攻_1w
恐怖_2w
指_0w
签
加强_1w
Id23_s
Ih03
Ih01
Ih02
Ih07
Ih05
Ih06
He03
He10
全面_-1w
朝_2w
Gb04
国防部_-1w
Gb03
朝_1w
难民_1w
记者_-1w
Hd04_s
难民_2w
Gb10
Gb12
Gb14
派_1w
驻_0w
安理会_-1w
承认_0w
就_2w
陆军_-2w
近_2w
捕食者_-3w
就_1w
前_2w
驻_2w
多_-2w
曾_-1w
涉嫌_1w
？_-2w
猜测_0w
多_-3w
？_-3w
派_0w
曾_-3w
r_2t
吉布提_-1w
r_1t
朝鲜_2w
朝鲜_1w
萨德_1w
马尔代夫_1w
天_2w
出卖_0w
希望_0w
Hb13_s
可_-1w
n_-3t
nh_-3t
n_-2t
空军_2w
军舰_2w
35_-3w
撤出_0w
Hc20_s
拦截_0w
选举_0w
护卫舰_-2w
Hg03_s
Hi56_s
保留_2w
10_1w
一_2w
下_1w
一_1w
表态_0w
谈_0w
La04
La03
派_-3w
外长_-1w
停火_1w
包围_0w
纪
Je02_s
确认_0w
练
组
极端_1w
磋商_-2w
外长_-3w
nh_-1t
给
绝
技术_2w
宙斯盾_-3w
选举_2w
Hg16_s
外长_-2w
应_2w
nh_-2t
Hi30_s
缓
缩
叙利亚_-1w
法国_-3w
网
Hj63_s
叙利亚_-2w
署
停火_0w
叙利亚_-3w
Hf03
法国_-1w
Hf07
Jd08_s
军机_-3w
西沙_-2w
美
nz_2t
nd_2t
Ih07_s
法国_-2w
nd_1t
"_-1w
Hf01
军机_-1w
什么_2w
Gc01
国防部_-3w
Gc02
发言_0w
耀
实力_-1w
结盟_1w
射星_-2w
民兵_-3w
草案_-1w
回击_-3w
壮观_1w
五_1w
阿桑奇_1w
旅_-3w
游行_-2w
野鸭子_2w
Dk05
培训_2w
留尼汪岛_1w
之_-3w
锁定_0w
盛赞_0w
飞行_2w
Ib21_s
增进_2w
军情室_-3w
2万_-2w
撤船_2w
保释_0w
抱怨_0w
窥探_0w
公开_0w
Di11_s
关岛_-2w
船长_1w
中断_2w
舰_2w
If04_s
杨洁篪_1w
动武_0w
扫射_0w
海参_-1w
今天_-1w
科摩多_2w
遣送_0w
7月_-1w
质疑_0w
建厂_0w
国展_-1w
倾向_2w
变性人_-3w
营地_2w
F22_1w
热线_2w
首访_0w
生产_2w
利益_-2w
动物园_2w
巨舰_2w
Hg17_s
3日_-1w
布防_0w
建造_2w
接装_1w
直击_-2w
短缺_-1w
间谍_2w
斯诺登_1w
潘_-2w
见_2w
维和_2w
巴沙尔_-1w
贯彻_2w
Hi44_s
摧毁_0w
遭_-2w
穆加贝_1w
港口_-2w
迫于_1w
阿勒颇_-3w
同声_-1w
促_0w
调_-2w
等_-2w
永兴岛_-1w
行刑式_-1w
国产_-3w
尼日尔_-1w
早已_-1w
Fa17
临时_-1w
承诺_2w
示好_0w
示威_2w
柬_2w
澳大利亚_1w
陆委会_-1w
挑战_0w
望_1w
印度洋_1w
澳大利亚_-3w
北斗_-2w
人道主义_2w
美舰_-1w
官方_-3w
攻击型_-2w
东风_2w
传达_2w
研发_0w
积极_-3w
约谈_0w
推销_2w
土_-1w
议会_1w
布局_-2w
新安_1w
核爆_-3w
拉拢_1w
建成_0w
议会_2w
新安_2w
白俄罗斯_-1w
政策_-3w
核弹_2w
出兵_0w
平壤_-1w
给予_0w
工人_-1w
白俄罗斯_-3w
梦_-2w
佐科_-1w
禁令_1w
入侵_0w
陆战队_-1w
坚决_1w
特种部队_1w
霍姆斯_-1w
答_0w
压制_-1w
亚洲_-3w
地方_2w
研究_-2w
煽风_-3w
犹太_-3w
非盟_1w
阅兵式_-1w
网络_-1w
卫星_2w
抢走_2w
会谈_-1w
准备_-3w
侵彻_-2w
迫降_0w
附近_-2w
融
4000_-2w
双方_2w
但_-1w
清真寺_2w
F15_2w
C-802_2w
援手_2w
科技委_2w
夏季_-2w
天堂_1w
考虑_-1w
至_-3w
返回式_2w
被迫_-1w
大马_-2w
精锐_2w
Dm03
第25_2w
损害_2w
逮捕_0w
/_2w
7.2_1w
极端_-2w
侵犯_-2w
某国_1w
空袭_2w
考虑_-3w
报_-1w
大韩民国_2w
抢滩_1w
射_1w
艇_-1w
12月_-1w
面临_-1w
攻防_2w
停_1w
巡逻机_-1w
卡斯特罗_-1w
停_2w
态度_1w
强化_1w
无需_1w
高清_2w
突然_2w
零星_-2w
政军兵_-2w
互相_-1w
封锁_0w
出售_0w
安插_-3w
领导人_2w
争夺_0w
摩洛哥_-1w
蔡英文_-1w
相关_2w
深度_-3w
蔡英文_-2w
蔡英文_-3w
誉
暴徒_-1w
军_2w
国家级_-3w
展现_0w
手_-3w
平安_-1w
深刻_2w
柬埔寨_1w
美刊_-1w
境内_2w
霸_-2w
最_2w
数十_2w
包机_2w
震慑_0w
Hi28
Hi10
邀_1w
拟_1w
扶持_0w
Hi20
苏丹_-2w
印度尼西亚_-1w
-11_2w
自信_1w
暗指_2w
东海_-1w
极其_2w
欲派舰_-1w
Hi42
暂停_0w
高_-3w
冲突_0w
剽窃_0w
低空_1w
不久_-2w
资料_-1w
获得_2w
戈兰_1w
Hi20_s
基文_-1w
搜集_2w
非法_2w
西北风_1w
放宽_0w
称赞_0w
五角大楼_-2w
奉劝_0w
大黄蜂_2w
前往_2w
尼泊尔_1w
缅甸_1w
箭_2w
前沿_1w
死亡_2w
朝方_-2w
恢复_0w
领海_1w
破冰船_1w
26_2w
外交_1w
撤军_2w
印尼籍_2w
国防部长_-1w
公斤_-2w
质
科考_-3w
贺
撤军_0w
2/3_-3w
赠
欢迎_0w
5500万_1w
杀害_2w
Hn10_s
手记_-2w
警卫队_2w
博科_-3w
首都_2w
国企_-2w
局长_-1w
希腊_2w
专家_1w
Di23_s
首脑_2w
威慑_0w
严
记者_1w
下水_0w
办_2w
超出_1w
4_2w
判处_0w
迅速_-3w
予
采购_0w
岸防_2w
入_-2w
逃脱_2w
迅速_-1w
介
安保案_2w
中老_-1w
土耳其_1w
巴_-3w
驱散_0w
Hj43
佩服_-1w
红场_1w
形成_-2w
约翰·基将_-1w
军演_0w
清廷_-1w
5万_1w
054A_-2w
Hj59
欧盟_1w
韩籍_-3w
逐步_1w
海豚湾_2w
乌女_-2w
出版_1w
演日_-2w
辩
北朝鲜_-2w
迎
推出_0w
46_-2w
初步_-3w
定期_-2w
航空_-1w
领海_-2w
出境_1w
成立_0w
德_-3w
重点_-1w
和平_2w
逐
逮
五_-2w
严惩_0w
点明_-1w
远程_1w
东北亚_-3w
叫停_0w
撞沉_0w
疑犯_-1w
方面_-2w
撤资_2w
内阁_2w
护送_0w
遗憾_-2w
催
钾肥_-2w
前线_-1w
鼻祖级_-3w
级别_-2w
换上_2w
装备_2w
阿基诺_2w
中航_-3w
违反_2w
主席_-2w
声明_2w
揭秘_0w
阿富汗_-3w
赞誉_0w
延缓_0w
再生_-2w
供应_0w
喀布尔_-1w
失信_0w
空军_-3w
Di20_s
新加坡_-3w
抗衡_1w
战术_-3w
Hc25_s
起诉_0w
火箭炮_-1w
军
中企_1w
兵_-2w
抛开_0w
中企_2w
练兵_0w
轰炸机_-2w
黄炳誓_1w
贵金属_2w
减
降_2w
开始_-3w
劳师_-2w
胜利_2w
B21_1w
拒_0w
当事方_-1w
主要_1w
剽
团体_-2w
劝
发文_-1w
种族冲突_2w
推_-1w
贿赂_2w
归还_0w
舰艇_-1w
缓解_0w
激战_0w
海外_-3w
《_2w
齐_-3w
美菲_1w
洪森_-1w
参军_1w
攻占_0w
即将_-3w
近海_-1w
韩民团_-1w
6K_-3w
录音_2w
野牛_-2w
卦
有利_-3w
维护_0w
联手_-1w
厂
件_2w
替代_2w
实验室_-1w
那_-3w
面战_-3w
重申_0w
重用_0w
专员_-3w
参演_-3w
Eb25
10万_2w
叫
召
监视器_-2w
新兵_-1w
成员_-2w
领空_-1w
全体_-2w
开进_0w
舟山_1w
派出_0w
爆发_2w
造成_1w
证监会_-3w
特种_2w
赶快_2w
子_-3w
联邦_1w
褐皮书_-2w
军_-2w
锁
占_-3w
工程_-1w
余_2w
法案_2w
并购_0w
Hc13_s
鼓舞_0w
OPEC_-1w
炸毁_0w
未_1w
展示_0w
负_2w
进驻_0w
入境_2w
花展_-3w
大举_-3w
掩护_0w
是否_2w
霸气_2w
展开_0w
闭
利于_1w
反恐_-2w
广岛_1w
现代化_-2w
嘲
开始_-1w
相当_2w
叫嚣_0w
检方_-1w
Hi10_s
袭击_0w
示威者_1w
总裁_-3w
几乎_1w
夫_2w
击沉_0w
嚣
信奉_2w
示范_2w
助力_2w
隶
会面_-1w
海防团_-1w
挂弹_-1w
借_2w
14亿_1w
20_1w
军事基地_-2w
围堵_0w
套_2w
据称_1w
发难_0w
核弹头_1w
2014_1w
安巴尔_-3w
现行_2w
小布什_-2w
辱骂_0w
坏
批准_-3w
静
两万_1w
最后_-1w
风险_-3w
德国_-2w
赤膊上阵_-3w
淘汰_0w
远东_1w
月球_1w
训练_0w
11日_-3w
图书馆_2w
哈萨克斯坦_-3w
发动_-1w
数量_2w
敢_-3w
正在_-1w
台海_-1w
下令_-3w
反安_-3w
堵
中东欧_-3w
其亮_-1w
对抗_2w
独立日_-2w
Bk13
陆军_2w
想_-1w
生产_-2w
渔船_-3w
立陶宛_-2w
黑客_-3w
独臂_1w
枪声_-1w
敏感_2w
清单_-2w
下令_-2w
第3_1w
埃及_-2w
经济部长_-1w
细节_2w
黑客_-2w
损坏_0w
突访_0w
预警机_2w
9_-2w
阿尔及利亚_-1w
内_-3w
Hi37_s
美媒_2w
尼日利亚_1w
Ig04_s
高地_2w
磨憨_1w
S400_1w
首
答问_0w
50_2w
强化_-3w
9_-3w
核弹头_-2w
Hm08
原本_2w
发布_-2w
纳卡_-2w
自杀_-3w
专栏_-2w
总长_-1w
迫切_-1w
日军_1w
9·3_-3w
先进_-3w
实录_2w
第三_-2w
协调_1w
周_-2w
示威_-3w
骂
公然_-1w
小时_-2w
骚
司令_2w
广东_-1w
媲
尹卓_-1w
邦_-1w
维州_-3w
席卷_1w
持续_-1w
建_1w
促进_1w
规矩_-1w
特遣部队_2w
Ed20
驱逐_0w
大亚湾_1w
守护_2w
首尔_1w
延长_1w
哥伦比亚_-1w
国会_-3w
开放_0w
云南_1w
敦促_0w
伊拉克_2w
遇阻_-2w
3万_-3w
宽
加大_1w
条约_2w
折磨_0w
电子展_2w
启动_2w
确实_-2w
雅加达_-3w
寻
封
边界_-1w
鸣枪_0w
设计_2w
山寨版_1w
休整_-2w
渔船_1w
巴勒斯坦_1w
导航_-1w
购买_0w
部长_-1w
用于_2w
分配_2w
发酵_-3w
列装_0w
屠
联网_-1w
加尼_-1w
TB3215-E_-1w
禁止_2w
守卫_1w
工业_2w
道歉_2w
40_-2w
关系_2w
别有用心_1w
东部_-2w
（_1w
052D_-1w
18_2w
Hn05
Hn02
机场_1w
枪杀_0w
外媒_1w
指责_0w
赞赏_0w
合同_1w
挪威_1w
外媒_2w
进入_1w
准_-2w
门表_-3w
嘴炮_2w
鸣
独立_2w
Hm08_s
变身_-3w
331_2w
韩舰_-1w
并
之后_-1w
干涉_0w
Hn02_s
废
成_-1w
加强_-1w
加强_-2w
罪行_-3w
追杀_0w
举办_0w
Ee05
常万_1w
成_-3w
审查_-2w
代表团_-1w
回_-3w
破坏_0w
闯_2w
Ee36
猎手_2w
政要_-2w
断然_-1w
失去_0w
措施_-3w
村庄_-1w
前景_-2w
D_-2w
会议_-3w
Ee43
If20_s
帮_0w
弱
冲击_0w
加莱港_1w
VD-200_1w
骚扰_0w
归
原子弹_-3w
获释_0w
待审_1w
没_2w
撞机_2w
突击炮_2w
北约_-3w
韩启德_-1w
微重力_1w
第3_-2w
激光墙_1w
发_2w
优势_-1w
忌
农民_-1w
31_-3w
快
接连_-3w
反驳_0w
怀
做_2w
新闻_-2w
省_-2w
易名_2w
行_-2w
日方_2w
核电站_2w
转隶_0w
恢
辽宁舰_2w
恳
人员_-3w
南沙岛礁_-1w
废弃_0w
频_-1w
便携式_2w
扣押_0w
右翼_-1w
惩
惮
激光_-3w
咋_1w
防展_-1w
旅游_2w
垂直_2w
设_2w
扩大_1w
面板_-3w
军机_1w
解读_-3w
慑
接纳_1w
争端_-1w
慌_-3w
试飞_0w
穆兄会_-2w
干预_-2w
归国_-3w
Ia10
延长_-1w
走向_-2w
审核_2w
越过_0w
俄智库_-1w
指挥_1w
声援_0w
南苏丹_-1w
英国_-2w
集会_0w
怀疑_0w
海军_2w
电力_-2w
数百_2w
轮_-3w
横行_0w
名家_-3w
敲打_2w
问_2w
扩建_0w
扫
扶
原则_-3w
飞机_2w
约_-3w
折
韩青瓦台_-1w
抛
警_2w
Ef04
抨
披
抱
前夕_-1w
押
他们_1w
参与_2w
正恩者_-3w
秘书长_-1w
记_-2w
图像_-3w
家_-3w
嫌疑人_-2w
拟购_-3w
一带_-3w
Gb11_s
射程_1w
放逐_0w
习_2w
约旦_-1w
教学_2w
予以_-1w
防卫_2w
反课纲_-3w
马_-3w
克里米亚_2w
B-2_-2w
京_-1w
T-90_-2w
正式_-2w
助打_2w
掩
温压弹_-1w
实控线_2w
教科文_2w
大学生_-3w
揭
自杀式_-3w
炫耀_0w
兰德_-1w
高超_2w
韩媒_-1w
青年_-1w
开闸_-3w
?_-3w
皆_-3w
水_-1w
可用_-3w
阿尔及利亚_1w
爆炸_1w
摧
反导_1w
东帝汶_1w
思远_-3w
这样_2w
基辅_1w
撰
教授_-3w
300亿_-3w
航行_2w
核峰会_-2w
寻求_0w
法_-2w
实弹_-1w
767万_1w
Fd08_s
金刚_-2w
待发
?_-1w
Fb03_s
核航母_-3w
即使_1w
请愿_0w
入伍_2w
撤销_2w
发射_0w
刘延东_-1w
一路_-2w
军民_-1w
敦
650万_1w
突袭_0w
炮击_0w
朴_-2w
确认_-2w
安倍提_-1w
辞职_0w
台_-2w
少将_-3w
制导_-3w
国务院_-2w
全_2w
钓岛_-1w
英国_2w
国务院_-1w
花_1w
试射_0w
二战_2w
式_-2w
首度_-3w
确认_-3w
决议_1w
获救_0w
本扬_-1w
证实_-2w
中铁_-3w
美联储_1w
取消_2w
代表_-1w
改口_-1w
30万_1w
证实_-3w
蓄势
国王_2w
改口_-2w
造_2w
暂
炮舰_-2w
近日_2w
巴东_-1w
不法_-2w
Dd15
充公_0w
忌惮_0w
意料之中_-2w
欧盟_-3w
今日_-2w
来宾_-1w
识破_2w
白皮书_2w
寻求_2w
倍_2w
架
远行_-1w
连_2w
污蔑_2w
4_-2w
绑架_0w
几内亚_1w
静坐_0w
机构_-1w
校
彭丽媛_-1w
意大利_-3w
裁军_-3w
转向_-2w
结构_2w
青年党_-2w
7_-2w
银行_2w
勤务员_1w
能源_-2w
遭袭_0w
索马里_1w
能源_-1w
瞄准_2w
重_2w
声明_-2w
引进_0w
了_-2w
教育_2w
战力_-2w
参议员_-2w
参议员_-1w
毫无_2w
议员_-1w
上台_-2w
铁杆_-2w
数字_-3w
孟建柱_-1w
抗战_1w
罢工_0w
学生_-2w
交通_-2w
型_-3w
嘲讽_0w
世界_-1w
重组_1w
无条件_1w
30_2w
轮渡_-2w
完成_-1w
红旗9_-1w
悍匪_-3w
企业_2w
撰文_0w
致死_1w
马航_-1w
示弱_0w
单位_-1w
为由_-1w
Hi28_s
英雄_2w
但_1w
马英九_-1w
集团军_-1w
欲_2w
军区_-1w
一印军_1w
软盘_-2w
很快_-1w
基本_-1w
暗杀_1w
持_-1w
轮船_-2w
神庙_-3w
政治_2w
一定_-3w
既然_-1w
群_-2w
近平_-1w
火箭弹_-1w
极大_-1w
停飞_-2w
海试_0w
和_-3w
招_-1w
兼容_-3w
群_-1w
开幕_0w
现代_2w
登_2w
密谋_2w
奥朗德_-2w
捐赠_0w
乳制品_-1w
资金_-2w
２３_2w
讨论_0w
罗援_-2w
副_2w
编队_-2w
强征_2w
,_2w
维持_2w
毁_0w
军舰_-3w
商议_0w
合影_-1w
超_-3w
邀请_2w
排除_2w
械斗_2w
调查_1w
弥补_1w
备忘录_1w
复兴_-3w
北海_-3w
小镇_2w
同_-2w
养成_-3w
闭幕_0w
纵深_2w
组织_1w
媒量化_-1w
爆发_-1w
汰
隐形_-2w
沉
水枪_-1w
宵禁_1w
规划厅_-2w
屠杀_0w
格鲁吉亚_-2w
种族清洗_1w
马来西亚_1w
610亿_2w
支持_1w
秘密_-1w
气候_-1w
日南海_-1w
订立_-3w
强盗_-2w
高调_-1w
南海军_-2w
想_2w
缅_-3w
吁_1w
塞内加尔_-2w
马方_2w
停战_2w
国土_1w
控诉_0w
海
友好_-1w
透露_2w
拆除_0w
习_-2w
叙军_2w
下周_-1w
Hi16_s
透露_0w
军某_-2w
淘
现_2w
提反_-2w
辽宁_1w
国防_1w
恳求_0w
海岛_1w
温
轰炸_1w
响_-3w
国防_2w
日巡_-3w
会_2w
会谈_1w
面临_1w
火箭军_1w
提速_2w
保法_-2w
签_0w
获_-1w
机敏级_-2w
柬埔寨_-3w
蓄势待发_0w
获_-2w
波罗的海_-2w
融合_0w
Hj10_s
仍_1w
不知_2w
探访_0w
仍_2w
第22_1w
防空兵_-1w
马_1w
多方_2w
元_-2w
部分_1w
战力_1w
公民_-2w
基地_1w
航班_2w
巴西_-1w
马尔代夫_-2w
首相_-3w
B52_1w
说三道四_-1w
不要_2w
介入_0w
催促_0w
财产_-1w
修宪_1w
造岛_-1w
抓获_0w
祝贺_0w
F-16C_1w
罕见_-3w
罕见_-1w
效率_2w
各地_1w
哈萨克斯坦_1w
扫雷艇_-2w
下水_-3w
9月_-2w
缩减_0w
出击_0w
吉斯坦_-1w
交付_-3w
如厕_-2w
拦住_0w
炫
炮
披露_0w
参会_2w
点评_0w
特使_-1w
狂_-1w
远海_-1w
解除_0w
华人_-3w
多种_-2w
Hi04_s
弹劾_2w
减少_0w
远东_-2w
东北亚_1w
库尔德_-2w
物资_1w
成功_1w
抵制_0w
陆基_1w
抵_-2w
出手_-1w
古迹_2w
隐形_2w
新增_0w
加共体_-1w
实践_1w
王毅_-2w
巴_1w
火箭_-3w
抨击_0w
媲美_0w
－磨丁_2w
发动机_-2w
危机_2w
美台_2w
驻军_0w
亮_-3w
火箭_-1w
非正式_1w
颗_2w
委内瑞拉_-1w
爆买_-1w
致电_-1w
大棒_-2w
该国_1w
购_0w
军报_-1w
海自_-2w
亚丁湾_-1w
BBC_-1w
陆自坦克_2w
未来_-3w
委内瑞拉_-3w
订购_0w
电邮_2w
决议_-3w
施工队_2w
拟建_-3w
受_-1w
单独_-3w
利比亚_-2w
潘基文_-3w
农业_1w
潘基文_-1w
部长_2w
加沙_1w
国会_1w
A321_2w
西班牙_-1w
大法院_-1w
23_1w
法国_1w
白宫_1w
军事基地_2w
中小学生_-1w
卓怡_-2w
而_-3w
纽约州_-2w
Hc13
一代_2w
中联部_1w
》_-3w
谨慎_2w
试航_0w
英_-2w
T-50_1w
遇袭_0w
知事_-1w
强烈_-1w
高压_-2w
Hc22
大阅兵_2w
群岛_-2w
危地马拉_-3w
17万_1w
美方_2w
恐袭案_-3w
加速_-1w
带来_1w
毒品_-1w
步骤_-2w
申
挥舞_-3w
安倍晋三_-3w
数万_-2w
捕捞_-2w
军援_2w
坦克群_-3w
被捕_1w
安倍晋三_-2w
确定_-1w
开展_0w
索马里_-1w
止血带_2w
使馆_2w
基础_-2w
中菲_-2w
太平洋_-1w
宪法_2w
校阅_0w
4万_-2w
非盟_-2w
场_2w
战斗_-2w
压倒性_-2w
加快_0w
点火_-2w
激辩_0w
泽曼_-2w
美术馆_-1w
炸弹_1w
形势_-1w
海盗_2w
战斗_-3w
北极_1w
新型_-2w
094型_2w
12万_-2w
点火_-1w
达_-2w
抓捕_0w
下届_1w
巨头_-3w
盛
回答_0w
苍龙_1w
会见_1w
大阪_2w
参加_1w
着眼_2w
数千_-2w
地区_-1w
谁_-2w
巴控克什米尔_1w
土库曼购_2w
妨碍_1w
弗吉尼亚级_-3w
台_1w
地区_-2w
北极圈_-1w
双航母_-1w
秘鲁_-3w
支援_0w
船_-1w
k_-2t
Fa19_s
鸟礁_-2w
新疆_-2w
远离_0w
主动_-3w
新西兰_-3w
伊斯兰国_-1w
预算_2w
昔日_1w
Hd29_s
绝非_2w
建立_0w
大陆_1w
请_1w
加装_0w
太空_-1w
罗马尼亚_-1w
南_-3w
集团_-1w
联合国_1w
超级_-2w
警官_-3w
槿惠_-3w
关键_-2w
期待_0w
东南海_2w
夸大_1w
金日成_2w
加速_2w
强大_2w
安卡拉_-1w
商船_1w
宣判_0w
日方_-1w
火箭军_-1w
磨
Ed44_s
民间_-3w
瞬间_-2w
日菲_-1w
中心_2w
Ie08_s
纳扎尔巴耶夫_-1w
日菲_-2w
拒捕_-3w
铁教_2w
神秘_1w
警察_-1w
袭_0w
军力_2w
150万_-2w
文工团_1w
ni_1t
非洲_-2w
祝
专利_2w
海滩_1w
宣布_-3w
槿惠_-1w
若_2w
朱日_2w
练_-1w
Hb12_s
边境_-2w
菲律宾_-2w
秘
管材_2w
挟持_2w
英军_-3w
一致_-1w
救助_2w
揭开_0w
军委_1w
作恶_0w
改进_0w
中将_-1w
方案_-2w
玻利维亚_-1w
来_-1w
台媒_-3w
武警_-2w
华阳礁_1w
刺猬_-2w
进行_-1w
希拉克_-1w
个性化_1w
圣地_-2w
来_-3w
表示_1w
王云飞_-1w
窥
劣质_1w
号召_0w
沙_2w
马里_-2w
涉嫌_-1w
七国集团_1w
落网_0w
6月_-1w
进攻_0w
包围网_-1w
128_1w
油市_1w
领事_1w
Hi42_s
签订_0w
核试验_-2w
答
Ih10
He09
妇女_-3w
黑手党_-3w
短程_2w
两千_2w
客轮_2w
加强_2w
捐助_0w
布雷顿_1w
十_-2w
占领_0w
6.85亿_1w
塞浦路斯_-2w
刑警_2w
风险_1w
Hi07_s
落幕_0w
交火_0w
无限期_-2w
记者_-3w
中亚_1w
通航_-2w
否认_0w
中亚_2w
冲绳_-3w
改造_-3w
环_-2w
强制_-1w
派遣_0w
塞尔维亚_1w
连续_2w
索契_-1w
保护_2w
国联军_-1w
运兵港府_-3w
背叛_2w
视_2w
致电_-3w
保法_2w
领袖_-3w
亚_1w
李克强_-1w
批评_0w
辩护_0w
可_-3w
谈_2w
不满_0w
2016军费_1w
重构_2w
日媒_-1w
萨德_2w
货车_2w
海岸_1w
村庄_2w
表态_1w
明年_2w
古_-1w
表态_2w
海_-1w
这么_-1w
平板_-3w
护卫舰_-1w
冲绳县_-2w
指出_0w
助战_0w
工作_-3w
极端_2w
约
抛弃_0w
驳斥_0w
经济_2w
三番_-3w
台德穆尔_2w
绑
危地马拉_1w
揭幕_0w
演_-1w
维
变卦_0w
永暑礁_-2w
永暑礁_-1w
飞越_-2w
驻军_-1w
斯特拉霍夫_1w
单边_-1w
罢
许_-2w
否认_2w
首席_2w
谨言慎行_2w
国际_-3w
解析_0w
乘其不备_2w
森林_2w
西沙_-1w
核潜艇_2w
东部_1w
就是_1w
受害者_-2w
东部_2w
34_1w
Id11_s
西沙_-3w
日货_1w
降温_0w
0.20043911919957097
0.06999834351349928
0.2055727310673667
0.13391865842118592
0.1127983040671927
0.17398623621141915
0.16760585055056643
0.1770058116209996
0.22445173510408195
0.17003786043478902
0.28164255512373343
0.15982630476562323
0.23259437725575996
0.24505605719120463
0.06260113383365824
0.22744984195418297
0.20594270686253596
0.18687628828132252
0.18008471712772847
0.06260113383365824
0.17711352216848195
0.38530821633698037
0.11369133588598548
0.1413298846992791
0.14689401510301386
0.12931174752616365
0.24933488534858483
0.22537397718468594
0.26218472371055573
0.2716839435315292
0.15752252693450147
0.4922410437648717
0.11718233859912944
0.13901345417937572
0.1780490206907252
0.27002475868292847
0.14668509718020345
0.1689209421369491
0.11169310159478792
0.17149027218429672
0.14553403469593781
0.2973377528263452
0.13519439629253663
0.5284211839340256
0.2862344214782444
0.49358670782418257
0.25260002921601765
0.11850992032385178
0.11063588530029601
0.14348858976788417
0.2298064139509177
0.0955852051050469
0.14943870599298487
0.3158541946242052
0.1979776801578054
0.19076441534597333
0.08039284568882805
0.2189963871171716
0.10257910495105312
0.20240589596150027
0.25783837854045927
0.11558095852394705
0.0835766138389185
0.2135549176729218
0.1884820881835206
0.24397649503650967
0.11977651852542805
0.11521653066373155
0.12298037046878862
0.2168866622152354
0.22020225064278723
0.08554808805662747
0.19951605162820296
0.11248198656188929
0.146870418844287
0.19184899434202407
0.16046810101439157
0.16284210502927648
0.13682285059567537
0.13018018013006957
0.2870125509068606
0.18057807311612395
0.14926317411994192
0.16810104811252158
0.1635524000969826
0.1258114435534922
0.15367082910529703
0.19044771827875992
0.13016317142073466
0.1708846382925582
0.1876017247694506
0.17161403181250903
0.2455323783611943
0.07963893841731622
0.19735119244512758
0.18313594689279755
0.1684096052014118
0.17549273653298986
0.10761037334929459
0.13672170814322554
0.1127983040671927
0.147602923202716
0.0991253461925559
0.11078711781363351
0.1770752508812989
0.23133140048568587
0.12981878252066292
0.22402923089599408
0.2044690826343697
0.1876017247694506
0.16557963189666866
0.12017929247415222
0.2344472872041987
0.1484077810277756
0.18118587400863956
0.06367680924028027
0.13625810907269892
0.1406367561312332
0.20241743802382522
0.14774196212385676
0.13057874553434007
0.2468890661684272
0.23964992650002398
0.15999010484942916
0.16151248264778106
0.3692641791559405
0.46586607861089435
0.14311777318827265
0.18987507389616845
0.06484809262328463
0.24581211587457336
0.1835941860347936
0.10224468559272905
0.18687628828132252
0.0828795225352172
0.15718323677123708
0.19454599756435859
0.15421946822414762
0.1738919675777162
0.22218394365809757
0.22259741163266197
0.0946767967357281
0.3301483521635485
0.1493134685801471
0.13237284270455682
0.1576572347197782
0.15483837528558508
0.1519767039767588
0.2753066584958103
0.1496001711863406
0.126282305792175
0.17705006706084495
0.26000549003810797
0.09485237624435978
0.1510347281829095
0.4227977096367359
0.1473159444441696
0.11781376592982731
0.3482431751406579
0.23848846654246178
0.20299218349272327
0.14433589449192993
0.22930939081834276
0.12715730086837496
0.19448499698278415
0.09121466018152562
0.26419699127169677
0.06568108970379075
0.1476965319258609
0.17187572164652815
0.1595789843710324
0.14914012698636034
0.1597375639372058
0.2507205839572753
0.0700586093575002
0.17349756623578313
0.20964988141252897
0.09226456739204932
0.14488278760849063
0.24118181842357733
0.15664931511297198
0.14943870599298487
0.1108579940789084
0.13631441145014855
0.23957262885079042
0.09521736901527714
0.26419699127169677
0.17518678108814664
0.12892222627452968
0.2111966583888443
0.1319217687876115
0.17082398648167557
0.23829929314314502
0.2558924094868687
0.20989161318806776
0.2266636109075554
0.09208120185053997
0.1563259105680332
0.09728816302513864
0.2175957711371978
0.06451702711141757
0.09201442359120206
0.30065701556720265
0.3832521879293246
0.1381368616464561
0.07687219464098344
0.08545406383146674
0.11485418008346555
0.5024615373595542
0.26129584358773206
0.2901908094922011
0.19775316162327053
0.19597300576721302
0.18589934925593155
0.2298064139509177
0.18561172594484274
0.2861158581688425
0.1464605811254711
0.18098212774279873
0.16046810101439157
0.14573095793974875
0.4024964430430791
0.22265559411104746
0.28986902388865415
0.19410702730849885
0.07368103377154576
0.23080417143069273
0.3259143773250267
0.15798367693201046
0.13016317142073466
0.38692111681294816
0.16288869084807386
0.1712805624742039
0.07857480282854949
0.1502975821210721
0.22220483538597413
0.1619385392622343
0.18085470680030566
0.1965775294731202
0.19915517260936852
0.17349756623578313
0.15753983987782452
0.283749616475173
0.20326315539325462
0.1603463785208681
0.2218016356579063
0.16198172898787674
0.12028424761755288
0.13805945984538812
0.20016748802316114
0.18911550697259621
0.17779139105117137
0.17102972042835882
0.1740366242747243
0.2731720751044383
0.16588569743847717
0.20551918229081603
0.19048950449284222
0.16369556327710286
0.28787105940355623
0.17809203314678654
0.18162572159735607
0.15982123821421274
0.19910553007305612
0.16803012628889663
0.2508785020001273
0.19457802479464462
0.17809203314678654
0.14729355296967117
0.25201584240245467
0.2533762197616682
0.17733564355956888
0.11646313699575027
0.3887262697690559
0.11026409417188825
0.16759847267238828
0.19726617597431614
0.2615016749329324
0.12200696526691589
0.17379679809021786
0.1420485786069576
0.2816528514838853
0.14427113905052444
0.4336288847731315
0.2643442314781791
0.27583616637322106
0.23608716436338187
0.17462114703599327
0.2973418427002902
0.12981878252066292
0.16952371706759833
0.13089302640718178
0.14245628550026954
0.2188894704698575
0.26725268371104954
0.1881318782127247
0.23093605931406505
0.1727781136657989
0.20649179799300352
0.22863770280881293
0.1972308539595757
0.16810104811252147
0.16288869084807386
0.24186015508860148
0.298217054365501
0.157216379111592
0.22614406097885767
0.21457866818994176
0.24251914287250784
0.06334139312622439
0.248785346964959
0.15934471880975046
0.28313875256427923
0.1860563637291028
0.333399504309302
0.2901216020275838
0.07287800405041657
0.19562369212460334
0.4227977096367359
0.15548372654613565
0.13753913108280313
0.20685212021085064
0.08076900240118712
0.1783987456217128
0.21485249056526057
0.1745041594147618
0.1441098976259158
0.19706757557616772
0.19281950437778034
0.1265826657663192
0.1686715417977886
0.1480806328817696
0.26000549003810797
0.12575633356421898
0.25967372885429935
0.14653684310567244
0.23608716436338187
0.1558716964079691
0.1083390553157896
0.2750859955590616
0.2891153338300436
0.08934900391728032
0.1869732134448524
0.11077618726516493
0.26164289154710124
0.14585837461980997
0.1830760458513608
0.17795048713918654
0.17459789658883643
0.1709291264882622
0.1344243726769443
0.13863298479625225
0.21557973881238057
0.15427036330410707
0.21502956651494384
0.11026409417188825
0.1810684055475916
0.18424174542186522
0.17721616669665205
0.24179538610826984
0.20933899799601619
0.19666951377789682
0.2174452953410168
0.20323136027286712
0.14559807263307373
0.3886449813184235
0.2402986503881573
0.2142152954893934
0.29280605530220943
0.15838706523487722
0.15583493557625905
0.19910553007305612
0.16817403235432904
0.1344243726769443
0.06791226971084474
0.1497938776364584
0.17047990522890713
0.28008946954693276
0.14541942806658292
0.3872799280837436
0.19652103390184553
0.1417326179280528
0.15476267823220752
0.14871376162918373
0.16707157118276306
0.1156322118078663
0.26370236165716815
0.2179091240994057
0.46291215949629083
0.08058395796517802
0.16201227011945457
0.2142152954893934
0.13304545993681166
0.1595189220055531
0.08702455550258008
0.17058918701652862
0.32909638968812466
0.2753066584958103
0.19706757557616772
0.37879340013007257
0.1396642947521162
0.11093738920246171
0.1898630034188138
0.22213857329202027
0.16952371706759833
0.09121466018152562
0.1605904898711859
0.2964054490266574
0.26784523238429786
0.20674317527845595
0.18486120191874822
0.1631677234957888
0.11289923238727641
0.2078261302569056
0.1319217687876115
0.23412231269755882
0.12822414774450158
0.07975198868720765
0.18020547019803437
0.2301999645325807
0.14488278760849063
0.21746862794377256
0.18342691576025444
0.16124165406346652
0.31484152864842757
0.15202118247535207
0.19533634193457153
0.18711445226413792
0.06871472161891397
0.12173150048912176
0.2802437189081992
0.20612347811251705
0.285445614841238
0.3594158966439008
0.31967051713301525
0.33294582962033076
0.18996180813505462
0.14418839762526806
0.21760054024513834
0.2403323621685899
0.21035374237250176
0.16536115997242906
0.17954693063533003
0.10151283405561386
0.10267735428605768
0.11176254215658052
0.13862594352810262
0.07011521054473703
0.19650506650949412
0.2901572257782
0.25783154767722727
0.15920451900002397
0.15752252693450147
0.14961111145541314
0.155235686220839
0.154236193060065
0.07002572200021408
0.18416566917527866
0.3162446269372026
0.09845825110979331
0.22804222302702828
0.5215916479650802
0.18666326889067159
0.20389019202870182
0.20043911919957097
0.2577419826301711
0.08574556726180721
0.15207867801123756
0.21694901627071533
0.1497672482349936
0.21651967538777736
0.11906624004478673
0.26370189792100884
0.15891147301544564
0.16121883211096835
0.12822414774450158
0.2048129202732395
0.23667308733996245
0.20301691672603325
0.1608253931990615
0.14617570702590757
0.18466786916424757
0.15112322964978697
0.1484077810277756
0.2628928373549663
0.24729475696383973
0.13805945984538812
0.16669578921914294
0.11063207928561457
0.24356140502501353
0.24696016080519245
0.1567215988634301
0.14726349778552167
0.1972308539595757
0.16350173077967198
0.3973682221246802
0.11063588530029601
0.21614553798864342
0.22334174408321572
0.21923407891520744
0.15907249606297533
0.13618016141744535
0.184607045635049
0.4261355254582999
0.1684096052014118
0.18492851319215048
0.27648738979870724
0.134136262658666
0.16124165406346652
0.11420974499615094
0.2734931833326038
0.1325726586057664
0.07051263736952684
0.2709314927384889
0.17169284648689975
0.20326315539325462
0.16046935589284678
0.1341872959472415
0.27622502717636516
0.2649974866445357
0.11485418008346555
0.28986902388865415
0.4180080437496618
0.25534701599574305
0.22084788679012685
0.2068935900836129
0.3733794526367401
0.22053235390871304
0.2358313792892305
0.17609809467979717
0.5029677533971876
0.16819891028436365
0.12038198403237646
0.1471049010567978
0.22737417748105354
0.14697509650758486
0.16121883211096835
0.2501169030267841
0.17760830987166182
0.2597263188195897
0.23412231269755882
0.17357904578305344
0.2610455433432454
0.19632764144289264
0.234929728205309
0.22629848287232987
0.1718954123717702
0.25139561725718457
0.3005366959758918
0.20659421780896076
0.2974354215503624
0.18716695917240933
0.16669578921914294
0.06675710128519015
0.1797719991738189
0.15363160068267911
0.17241968261582685
0.1187750250543965
0.4922410437648717
0.1684206542770798
0.1599258009106031
0.10908794980976128
0.10383144836507992
0.24093471098227331
0.09443490725511332
0.11446898476863675
0.19462949859631837
0.26005206897356886
0.17561196680505425
0.28172390138387426
0.1619385392622343
0.20098868887864085
0.2644013216694888
0.1601738103399875
0.07783630390386981
0.28793233982669825
0.20921250856620152
0.14863885791660178
0.14313579899568937
0.18561172594484274
0.13874975011582094
0.18270764406145712
0.12105736103625758
0.459152549464406
0.2305265044419927
0.184094953996413
0.09845825110979331
0.16943299998803468
0.3782257789341044
0.23100688417861703
0.17421253836946254
0.10747113747234596
0.19823542167509717
0.34891207599014207
0.20617065294984538
0.41173776804796525
0.1555983832104221
0.2495343741221894
0.22021386513220367
0.20686873251223534
0.20389019202870182
0.09369819134059508
0.20246101821801554
0.06258998079295738
0.22428444271405654
0.19910553007305612
0.21035374237250176
0.20318538270482114
0.20653155936685733
0.09725234079526712
0.5267504256290829
0.2365128853586473
0.19077944703346872
0.22684987839245566
0.18744826188758507
0.16589945794133654
0.6088936972259729
0.4747342169119499
0.24505605719120463
0.283749616475173
0.20566261618150883
0.16621785298069564
0.16760585055056643
0.2117988805228693
0.34628670950514184
0.1830683433854347
0.29713753462341763
0.2177186277247413
0.18866658340005255
0.16337094599433116
0.2980104175620874
0.13036320981263588
0.18589934925593155
0.10151283405561386
0.1455170266056449
0.22259741163266197
0.15367082910529703
0.14065920950049696
0.2022193821435509
0.15421946822414762
0.35104775348460865
0.25783837854045927
0.2491354034236708
0.20329713937406643
0.21465418529319508
0.19739272715572273
0.15907249606297533
0.23331400084080997
0.2035451747679367
0.18098212774279873
0.12910431436610176
0.11833369163734539
0.21397908230798854
0.0835766138389185
0.16333236509099916
0.3872799280837436
0.19876677846135482
0.1555983832104221
0.3594158966439008
0.23329882263074922
0.27434215958176617
0.1833658046620868
0.2730462705809125
0.2174452953410168
0.19559986368904247
0.3480905731953056
0.16085464333935234
0.2642376242737026
0.21488118181189395
0.13057874553434007
0.22699726303046178
0.17181565039124813
0.1754953596836537
0.19168453458558485
0.164302159609846
0.21811932435985837
0.2286699698635819
0.1605904898711859
0.11764723014056257
0.17060613148695628
0.1279687348872647
0.060502300293910925
0.16309682362390135
0.17021725660847
0.23329882263074922
0.2749067698153171
0.14825369264260688
0.3831158709352648
0.18085470680030566
0.32661098504944097
0.13089302640718178
0.17602353795391878
0.1765287906874329
0.184094953996413
0.20098868887864085
0.33374063860608766
0.27407281078289336
0.19860639113548056
0.4030514961597238
0.2348573015035649
0.1146945300583309
0.14169471766191036
0.3327400095983603
0.1727781136657989
0.2269337013039711
0.1970826922110039
0.16711460144135992
0.28164255512373343
0.21502956651494384
0.20796376445120437
0.15798367693201046
0.17055452442745442
0.13666640161707477
0.1801087295740044
0.248785346964959
0.19430524469680824
0.18479711257068093
0.22191955694564552
0.18632526367003865
0.34419780110851905
0.13183722157785255
0.2056060628258852
0.12528347978040222
0.3192385556527829
0.08003004115565066
0.17449151028873863
0.15936080840223096
0.1471049010567978
0.16064213360288368
0.18057807311612395
0.2365128853586473
0.16803012628889663
0.08918589822967846
0.20709167259241043
0.17754439385344672
0.24444589960861934
0.13283260871115984
0.161219979268917
0.2966556350493375
0.6368547560243433
0.19496392254194364
0.10721386990597676
0.2716839435315292
0.26630300520156364
0.15417457362461032
0.26370236165716815
0.1588127313155573
0.09521736901527714
0.19715708815701855
0.09618436252032933
0.2024326722090966
0.2837625769071244
0.3018430520801311
0.20391932724229245
0.1790817292831755
0.20296057681106636
0.2966556350493375
0.16578073988355263
0.4804211926799734
0.18617838930293112
0.2022193821435509
0.18672759456853885
0.18795461383896497
0.16369556327710286
0.14126666540783261
0.10150401510416782
0.26725268371104954
0.19374376189574613
0.24444589960861934
0.19914775296337234
0.12842775708975726
0.1277152144217324
0.1761813339548986
0.19562369212460334
0.18375975751273327
0.25609006502967807
0.16832046657066768
0.17157966997868565
0.3144125393345144
0.16111592242893596
0.1451287623648803
0.35864783257686306
0.19800621470994137
0.07287800405041657
0.11689784874175424
0.16536115997242906
0.1669235830503805
0.1923985372989572
0.3144125393345144
0.20861955210658398
0.23213771696983487
0.1770752508812989
0.23259437725575996
0.2198301241024406
0.14923296121466664
0.33294582962033076
0.1751693552633376
0.18008471712772847
0.09414581893600099
0.21179235842835462
0.07962931104550866
0.34628670950514184
0.19317794326228974
0.14697509650758486
0.18557516058959603
0.15522544468796873
0.17666329057080674
0.16421477841818166
0.20638243196493034
0.161501126919917
0.1468886239632475
0.26090298173497845
0.2848744612536863
0.18795872273772293
0.22821128286712467
0.13397286195694763
0.11373827742565175
0.402200835472228
0.21613739198266355
0.17457047962768485
0.19879764773303435
0.13104787929904801
0.20476124756057035
0.19961714568817696
0.535599322272922
0.19064082112824682
0.25637838450476225
0.15608122915923187
0.22644370968619093
0.1705612832498744
0.11428301779374693
0.2034775635090681
0.20335784651899616
0.2583214360177274
0.13834062506513692
0.19663812544736056
0.14911559637129518
0.26000549003810797
0.30420578622755434
0.41570832946272557
0.22753841343813666
0.38075151272928237
0.1597375639372058
0.21694901627071533
0.20950936055934039
0.18264540887902067
0.13115178046529694
0.21104842171421018
0.12434412031906009
0.1670674712457434
0.14083535506407546
0.2133352307866159
0.12819391116216508
0.13787211409308595
0.17721616669665205
0.1473159444441696
0.21848623606047177
0.32178414640792363
0.16482655365837492
0.1292672823814017
0.09076917730310254
0.41260522211391437
0.3134317941799133
0.14537301285329768
0.23019633739773893
0.14911252553050286
0.20659421780896076
0.12471260051067458
0.21641621284246276
0.18139637009648868
0.28460242214325215
0.20046264579501274
0.1657573317438705
0.298681141563532
0.18619114886419094
0.26370236165716815
0.1807010996706181
0.13809581016606096
0.17533310714934403
0.22293462209540973
0.13300339271412517
0.4217726263893999
0.15787201426603242
0.2132049797618048
0.1615419678873451
0.17201102309776348
0.1970826922110039
0.16748624914716861
0.14303030176525675
0.1777709784555735
0.1765287906874329
0.3624993607156983
0.1738919675777162
0.459152549464406
0.14961111145541314
0.27112016077710405
0.1293407230065502
0.29011964005099483
0.1589516460713323
0.13499778844105073
0.20476124756057046
0.1708846382925582
0.2051565695420314
0.1465612935661952
0.20323136027286712
0.17421253836946254
0.20742764225609278
0.1667933421133865
0.17157966997868565
0.3144125393345144
0.20326315539325462
0.3011349110353521
0.19613754890905902
0.20338951579749867
0.18203081092976375
0.1546418657409967
0.1284530136759142
0.2305265044419927
0.17332162210458532
0.15830799931748793
0.0878464445485645
0.20326315539325462
0.1736583982612713
0.16516634709694633
0.30918759756856884
0.1720810626699814
0.21760054024513834
0.21646131858527998
0.27594243329909424
0.18479711257068093
0.19143506835208893
0.1770058116209996
0.138928521927551
0.2817195388039023
0.13778426783469386
0.19540026703883426
0.2982075570716152
0.1386823548391986
0.3012780837066561
0.15850108337705293
0.13202685529316643
0.1362333263714296
0.14431254151715456
0.3724885382717517
0.2322237549561676
0.13835731653224717
0.10348373041596365
0.11062799975153687
0.2716839435315292
0.1455170266056449
0.14539091964330328
0.13631441145014855
0.1546303455937247
0.16952371706759833
0.20386797413310911
0.32917605828675667
0.17421253836946254
0.19076441534597333
0.13958799350651804
0.21502956651494384
0.39832514281673664
0.09485237624435978
0.1703903189160681
0.22088549486247694
0.35498166571698314
0.29713753462341763
0.1738663597338546
0.15779764444012065
0.10348373041596365
0.12981878252066292
0.27823131360237463
0.34628670950514184
0.18518068966941192
0.17745419417393446
0.20681637512799572
0.15458876067536675
0.11885308198793229
0.07975198868720765
0.15067797134082345
0.1625924548685878
0.13948884848517545
0.6368547560243433
0.14573095793974875
0.12636161459221334
0.21485249056526057
0.2850616767713756
0.38917606148883926
0.3627190489608607
0.13551934495049942
0.16912731668157563
0.1279396058154311
0.11558095852394705
0.22360590648093312
0.07051263736952684
0.31484152864842757
0.2061687194867157
0.2044690826343697
0.35104775348460865
0.12536743779944495
0.17809203314678654
0.12931174752616365
0.21199839174879745
0.2757351933347581
0.23829929314314502
0.07687219464098344
0.13463036170428638
0.16431619773414824
0.2911771516345904
0.19943870094679006
0.18894356312607652
0.22366831486419175
0.19890817192060187
0.3301483521635485
0.162466307274717
0.21856980819813726
0.22053235390871304
0.20852019972497365
0.15899969181633525
0.20017110773069013
0.14180902182404728
0.3724885382717517
0.48912434011695366
0.1277152144217323
0.3497336233895777
0.09725234079526712
0.27071449603503683
0.19971139055804882
0.14911559637129518
0.16151639027177733
0.22243062221926885
0.14358701212105138
0.23667308733996245
0.21442104429108116
0.10102202455740072
0.23670794436575798
0.17475610622686943
0.1345199170850246
0.21924523632396384
0.22243062221926885
0.22383366759110754
0.23657266010340078
0.19788946792576992
0.14721443454547323
0.07888655469850898
0.1592740575412524
0.18175445839907506
0.22910129466547144
0.1588127313155573
0.46291215949629083
0.22057200121041043
0.39065317591247556
0.16439355328724417
0.26419699127169677
0.21384843013291324
0.14457680301687503
0.18139637009648868
0.06791226971084474
0.1884820881835206
0.11877266672810687
0.15207867801123756
0.1362333263714296
0.24731332040637752
0.11346346779659652
0.14863885791660178
0.15643355232144857
0.16226103232953057
0.1734767000171113
0.18390638388965658
0.16799715711110194
0.21191044344535417
0.13497966221081342
0.15304946182279727
0.08918589822967846
0.19049880013649434
0.12796300312817496
0.35770220596640045
0.1761813339548986
0.1765287906874329
0.13300339271412517
0.09810770223540505
0.20384511333513738
0.1204988920334665
0.1774922326505635
0.21879926392009832
0.19562369212460334
0.14851705624497455
0.20042872618554075
0.19448499698278415
0.2533762197616682
0.08361132394705131
0.23804948922238772
0.2083363652752323
0.15934250793793195
0.18561172594484274
0.16619210665912126
0.12534040453595577
0.15529863212326603
0.11828231606707314
0.2233417440832157
0.1609738286036579
0.18930017978897923
0.3071169265019179
0.3237416272395633
0.17495787630999166
0.1923985372989572
0.07491863573602568
0.21811932435985837
0.38530821633698037
0.24186015508860148
0.2919467424982878
0.18144459953114372
0.18768539990099747
0.23440024991664246
0.25169604894536707
0.09575935964358231
0.13283609826968007
0.1819777526078473
0.18008471712772847
0.1802658554541651
0.23657266010340078
0.14418839762526806
0.178042663594502
0.19161481962906787
0.16366679709953535
0.14249129004016262
0.15738307568835416
0.14795514838667634
0.1736583982612713
0.27648738979870724
0.24179538610826984
0.19766037310751738
0.13648011618225647
0.20058261711776845
0.0749894644345302
0.142470484265109
0.2595790240838289
0.1476965319258609
0.17299008702537727
0.12757956284713834
0.1963674796752154
0.1555983832104221
0.1744369400773599
0.15819329393122414
0.18051586076830065
0.2164768211316815
0.2521043100634856
0.19864878012749548
0.6326956746641254
0.20541595664081722
0.25794206787367296
0.18073327100925413
0.20425021259062454
0.29900870069001756
0.16661169297820308
0.17277196686453639
0.2225050587519258
0.184607045635049
0.19915178288326552
0.564131936558803
0.20241743802382522
0.1774156296209209
0.11878594011177517
0.06451702711141757
0.21878446750959946
0.20502344900535896
0.22088543555262993
0.20702558338201904
0.3872799280837436
0.37916163498597777
0.23624409303383195
0.1691364087357103
0.2006193674286538
0.13058632784823254
0.13653608652495
0.13291744836405894
0.1165759952682744
0.1127983040671927
0.17381958225396543
0.18390638388965658
0.15711878345093108
0.11619486785609244
0.27445045061856105
0.19182742288225346
0.14651909694393783
0.16213973213306462
0.18724038245818408
0.1367069095618417
0.1729914458322184
0.18248511955046556
0.22278040261375284
0.1279396058154311
0.11514971405336345
0.16509040897667746
0.13218906806451544
0.10994859926103581
0.17255164225554917
0.18175445839907506
0.176820454756093
0.2083363652752323
0.1862835117763245
0.16048091149689586
0.11521653066373155
0.0770400480844179
0.23133140048568587
0.16530706834619482
0.1667933421133865
0.11728871747899162
0.1599258009106031
0.1770058116209996
0.18139210443781936
0.11558095852394705
0.14825369264260688
0.20709167259241043
0.14126666540783261
0.09853830835993416
0.1278523147864873
0.0955852051050469
0.17001033611818833
0.18369035125970867
0.1658335963895234
0.499256694205998
0.13606787909241772
0.2392121565698475
0.1774922326505635
0.17241968261582685
0.1875655459798335
0.17366786883375981
0.17916552429561527
0.18745178243739014
0.48409618155552825
0.1634743214872285
0.12105736103625758
0.15598572242197606
0.09728816302513864
0.16543170481343442
0.16585330452550676
0.1288435899850143
0.20301691672603325
0.14911252553050286
0.16117691306925688
0.1519767039767588
0.11428301779374693
0.17056095417023623
0.1807010996706181
0.17204661303719276
0.35498166571698314
0.06586175367608493
0.14963412822878241
0.15367082910529703
0.2480076885917636
0.09002244759829003
0.14314699326878177
0.29980165815727855
0.18795872273772293
0.14143827164588835
0.16431619773414824
0.249982509584513
0.4706786486031561
0.18073327100925413
0.21742192588955733
0.20554955791407237
0.22855659783482676
0.3158058779273559
0.2116510270797979
0.20609244978657865
0.08057331897451737
0.1576572347197782
0.2911771516345904
0.26297541029598737
0.18455740908578172
0.15478541037466848
0.22366831486419175
0.34419780110851905
0.18375975751273327
0.1963674796752154
0.1373671683450851
0.255558589039362
0.209738720869716
0.13036320981263588
0.25783154767722727
0.19147130767802484
0.35375934030844824
0.12534040453595577
0.16525950027050462
0.13778136093253004
0.22053235390871304
0.2901572257782
0.13602631874967014
0.22267042991674674
0.20258520962812124
0.18557516058959603
0.09256498448888072
0.15154915431732388
0.0955852051050469
0.1932362749788501
0.15738307568835416
0.28986902388865415
0.18139637009648868
0.20266936605373514
0.13041461086972886
0.20035319910186694
0.2043730927162894
0.163822941895939
0.31106673891292813
0.24939176161293652
0.15363160068267911
0.17003786043478902
0.235629793512162
0.15535236376209732
0.17777097845557352
0.15664931511297198
0.19876677846135482
0.11619486785609244
0.23480096121669528
0.12329827278613109
0.11859629524271918
0.18996180813505462
0.24836322651768966
0.18617643420397367
0.1684206542770798
0.2365128853586473
0.18557516058959603
0.10832660226012805
0.2820471275984806
0.1966632862948112
0.1496545739475313
0.1994934742314615
0.13885828988616297
0.29411474456899916
0.17340726200785886
0.5032229375460239
0.23494814809122017
0.1411309929153684
0.15087233696406388
0.19910553007305612
0.6176437977070156
0.21651967538777736
0.17654825717773354
0.20476124756057035
0.16659727941774963
0.08472423331135988
0.22629848287232987
0.1433770610775851
0.22289128638997208
0.10124366221538011
0.22454076713496277
0.1869732134448524
0.24860351983019996
0.32946105913864876
0.21488118181189395
0.2739909502199223
0.14871376162918373
0.14452725802950636
0.18008471712772847
0.1566828953966249
0.189504997132145
0.1779262990870555
0.11418307361590925
0.13168078755090398
0.19227346728784367
0.1441098976259158
0.153212131691094
0.1598603082000638
0.4804211926799734
0.18711445226413792
0.22752404736835158
0.08169610090158125
0.24496293234761832
0.21783899664598924
0.18175445839907506
0.3036961902645282
0.28460242214325215
0.15958861174982247
0.18606336990009967
0.2095951440784445
0.14242061077952597
0.1874077000439619
0.12970780618345967
0.18223371264202493
0.1701133571849239
0.17934282949821673
0.18342691576025444
0.30935771282757285
0.09121466018152562
0.1669235830503805
0.18745178243739014
0.06258998079295738
0.19916595598264014
0.19244995332285406
0.1588127313155573
0.12528347978040222
0.0964941790695536
0.17137217673447186
0.22368298089309094
0.14806509034813622
0.4652914441426355
0.17082398648167557
0.20337883130634948
0.13602631874967014
0.26389032595920103
0.2566436150580675
0.22804222302702828
0.14713222937819817
0.17634295938485223
0.25979078017152735
0.16368279377774797
0.16128457141912966
0.283749616475173
0.17222559793757772
0.2891153338300436
0.1738663597338546
0.19916595598264014
0.0955852051050469
0.09038860855033443
0.17299008702537727
0.1797719991738189
0.25534701599574305
0.17181565039124813
0.23848846654246178
0.1884820881835206
0.15927561545775082
0.13787211409308595
0.11958226174354249
0.257396966423626
0.4804211926799734
0.19147130767802484
0.15608122915923187
0.22445173510408195
0.2386347728901585
0.06362450866820842
0.14431254151715453
0.1709291264882622
0.21694901627071533
0.0985977316926072
0.18035947714878853
0.15183746455812402
0.11708451944903368
0.1576572347197782
0.19624769143405238
0.13346212782666755
0.11343523092647304
0.1741732560651584
0.3576667432472299
0.23377995638369914
0.17595244716846078
0.2636271335496572
0.14369823004736396
0.18225169947872844
0.5204312557320103
0.1869732134448524
0.22707918344915753
0.09787176747067086
0.24988144968396112
0.1741732560651584
0.10257910495105312
0.12341502766971692
0.23412231269755882
0.1171838364547991
0.12239527658187928
0.14065920950049696
0.2901216020275838
0.15934471880975046
0.13304545993681166
0.17583341299914942
0.18466786916424757
0.23608716436338187
0.17900248726035642
0.2821798352661641
0.23873908683901476
0.15217601663654468
0.20116111918285928
0.16799715711110194
0.13057874553434007
0.1892119600627287
0.14911559637129518
0.1253100515939907
0.22753841343813666
0.15780120171259177
0.15180285844501581
0.18436196390849083
0.17639740621215827
0.14601750628808674
0.13081947961270107
0.18518068966941192
0.1855759163445291
0.17991514589442084
0.17521152617393085
0.1970826922110039
0.17332162210458532
0.17682232408063006
0.21783599844520726
0.1325726586057664
0.26228042467741813
0.17737232712583778
0.25936607862589417
0.1830683433854347
0.1186764712085706
0.15594920259949183
0.16048437411505095
0.12435235731731631
0.15637127924395508
0.08538302246746832
0.18545089036010287
0.2339417651377493
0.13952433738429088
0.2168866622152354
0.13566980863699268
0.17907705003397198
0.16332661776589935
0.153212131691094
0.14851705624497455
0.2175360895616597
0.13862594352810262
0.1396642947521162
0.11142395181905293
0.15335863293955931
0.19048950449284222
0.20793040977133564
0.1660728431243926
0.10460538852553054
0.16370671816246193
0.222849134745559
0.18612005240072887
0.1597375639372058
0.4804211926799734
0.20335784651899616
0.1492937515141102
0.12494958594037579
0.09662287374973197
0.2821798352661641
0.19739272715572273
0.22855659783482676
0.1619684549286168
0.23877914269878336
0.18088330835193037
0.2078261302569056
0.1492156362151297
0.22997641197712526
0.165613619812191
0.14911252553050286
0.0962163609626456
0.15180285844501581
0.13602631874967014
0.20880229733477013
0.16589945794133654
0.14597274524778578
0.15522544468796873
0.11833369163734539
0.15202118247535207
0.07888655469850898
0.3178381675844853
0.17947748416674994
0.15363160068267911
0.3158501494678546
0.1862835117763245
0.10539576180603263
0.18900963227383724
0.17779139105117137
0.22684987839245566
0.17941454828491665
0.2269337013039711
0.20329713937406643
0.19147130767802484
0.23329882263074922
0.23624409303383195
0.46416152831343516
0.13270720192045812
0.20675618555277514
0.06568108970379075
0.1363301673448285
0.16982391205609315
0.12101473000758527
0.21091273490314685
0.2901470573055941
0.14961111145541314
0.21280034503041947
0.28008946954693276
0.17495787630999166
0.14500570658268783
0.12454926765843606
0.1379985256643865
0.16828889348994333
0.1836325951065003
0.18911550697259621
0.28907008917516974
0.17948659290152708
0.15711878345093108
0.18025910740840076
0.0897803330652329
0.20969578519271956
0.18607143618985592
0.10460538852553054
0.163822941895939
0.19048950449284222
0.2489876573472386
0.4387614560379295
0.2841251153766464
0.13244898331198057
0.14653684310567244
0.20872181255410605
0.21765079234454424
0.2901216020275838
0.2142152954893934
0.1468886239632475
0.19562369212460334
0.1968906128092689
0.21614553798864342
0.16535980933992475
0.19650506650949412
0.19222207994711657
0.14622937623442983
0.13099813911314892
0.15738307568835416
0.20225139727337335
0.22756078245023414
0.24065850823408377
0.16543170481343442
0.22088543555262993
0.19943870094679006
0.15844106560347293
0.2564209440298393
0.20596638478820908
0.23729967612167974
0.10348373041596365
0.2175360895616597
0.15753983987782452
0.2353028642541868
0.21780046830781005
0.3108723612372225
0.13618016141744535
0.2298064139509177
0.21383902307546993
0.4706786486031561
0.20338951579749867
0.20129387640145233
0.16368279377774797
0.27927550808489554
0.13805945984538812
0.19877072276177513
0.13875143942763235
0.13081947961270107
0.1193604998700841
0.26531707632009605
0.13497966221081342
0.1546418657409967
0.18518068966941192
0.2348573015035649
0.16867154179778862
0.21848623606047177
0.21933129259158476
0.1588753049799571
0.15422317537257688
0.1555983832104221
0.2023045070794794
0.23133140048568587
0.3480905731953056
0.10102202455740072
0.10743874264285079
0.24205969909735273
0.2034775635090681
0.17896802058797015
0.2557357557978062
0.18745178243739014
0.2159263373594356
0.13541872724549497
0.16845688285696114
0.20337883130634948
0.2106664527094902
0.15086712460019236
0.17769999859320468
0.0897803330652329
0.1046483024217988
0.10181786172472035
0.20299218349272327
0.22293462209540973
0.15122728396671514
0.15439062459570527
0.14940437929546635
0.23691109336943617
0.13863298479625225
0.24179538610826984
0.07528598497115525
0.22178498687508394
0.15845399713764222
0.16949493582761896
0.23232999036376578
0.2491354034236708
0.19147130767802484
0.20042872618554075
0.2339417651377493
0.18204981740642182
0.1345526914125515
0.1730579795844842
0.35770220596640045
0.1780490206907252
0.3031672089904996
0.25609006502967807
0.1710213493760152
0.11595560519561211
0.1313288222275498
0.16201227011945457
0.20085539855432175
0.21337933971164666
0.3259822367875451
0.06951890989519174
0.2173562902724807
0.5008323681943181
0.15711878345093108
0.1362333263714296
0.10747113747234596
0.13237284270455682
0.1065386665647197
0.1471049010567978
0.1452719397532823
0.09208120185053997
0.2973377528263452
0.1825196646700947
0.3400555534158761
0.15086712460019236
0.24179538610826984
0.19222207994711657
0.19167803465512065
0.18228056615579785
0.2030435478524859
0.26455302437905903
0.178042663594502
0.14757304507336227
0.08074301835749315
0.11521653066373155
0.16078494484233996
0.23589073172456668
0.12314031441906456
0.26843662822169556
0.3036961902645282
0.17087696045145104
0.1513692838236898
0.14608145709117082
0.11780027617804575
0.15202118247535207
0.23867790170248926
0.1759142963367244
0.28113060259899236
0.17379679809021786
0.0801478531907149
0.1946821367250343
0.11908935210594777
0.2362511318235718
0.13300339271412517
0.4118317430568364
0.23074957861701656
0.15799909595397066
0.3478385870495177
0.20035319910186694
0.26531707632009605
0.13843019975516796
0.1682307327419227
0.18144459953114372
0.30495538343212464
0.16549971546441009
0.2649974866445357
0.1736583982612713
0.16521034086398365
0.176820454756093
0.09321265585334099
0.13283260871115984
0.14911559637129518
0.31289815915131475
0.14963412822878241
0.2117988805228693
0.11366616961357125
0.15115358268360699
0.15850108337705293
0.2982104742473992
0.18911550697259621
0.15253451307541918
0.16064213360288368
0.19056541083390766
0.35594963066367274
0.13393881393831283
0.24709719126989382
0.2010481423173771
0.4280274560114535
0.09208120185053997
0.18970193849135714
0.1555361111840454
0.11420974499615094
0.23329882263074922
0.23147205864790885
0.2615016749329324
0.20386797413310911
0.1779310176579119
0.17299008702537727
0.1765287906874329
0.24801114634792298
0.21613739198266355
0.15180285844501581
0.17721616669665205
0.28950812699278666
0.14313579899568937
0.11446100400114811
0.060502300293910925
0.17916552429561527
0.28102945899320164
0.28666729655883333
0.11846125139045431
0.17295959072605172
0.1567600137577768
0.12121245407653591
0.18537770550894675
0.262399664143309
0.13834062506513692
0.13682285059567537
0.17435530981448288
0.06451702711141757
0.13300339271412517
0.22454076713496277
0.22756078245023414
0.07066937818782146
0.18076949565262942
0.30472684926393345
0.2056060628258852
0.1741732560651584
0.16085464333935234
0.08472423331135988
0.12963973197424045
0.23382695824849858
0.49358670782418257
0.10389533009936823
0.17037523360709395
0.15787201426603242
0.11521653066373155
0.1684096052014118
0.11375586247003043
0.11078711781363351
0.16557963189666866
0.17737232712583778
0.0835766138389185
0.21856980819813726
0.4360638931283045
0.2577419826301711
0.13041461086972886
0.18595645241669123
0.20659421780896076
0.10525291112579063
0.19860639113548056
0.20367893236395523
0.1566828953966249
0.22859125092477153
0.22972784193895235
0.2142152954893934
0.15459236175730312
0.153212131691094
0.17161403181250903
0.08058492923985165
0.1943150000084201
0.45841014991315365
0.15424158445052186
0.26389032595920103
0.15934250793793195
0.17126711413728454
0.15489369437768813
0.09944148451705061
0.3845218923114504
0.12957584401677433
0.38492765779942045
0.16982391205609315
0.13291744836405894
0.2386347728901585
0.1652416766905544
0.34473579730713955
0.16863924703162805
0.19071643022794288
0.3872799280837436
0.1898630034188138
0.29738068181514005
0.14232358325543384
0.08128980312867132
0.19971139055804882
0.1810684055475916
0.28980508567270685
0.26419699127169677
0.1712621014753408
0.2488214728468377
0.21879926392009832
0.16543170481343442
0.15929740608698334
0.24181041346692353
0.23153037450964778
0.7379982774965168
0.1744369400773599
0.22804222302702828
0.10320168959659301
0.12396910408670965
0.23505934850864144
0.10610599817499909
0.1367481334989774
0.2173562902724807
0.11631071833292
0.16696501066308708
0.15363160068267911
0.17899812715190727
0.2980452834269361
0.11709431455500488
0.5586820452637202
0.2782843830558848
0.14553817273952147
0.12363391488252228
0.2643442314781791
0.08744870019325429
0.18275700918823576
0.18248177329342363
0.11625339978110436
0.1592740575412524
0.21442104429108116
0.2305265044419927
0.28230303887493513
0.16837031144064163
0.1423767470038721
0.2556244788364984
0.26419699127169677
0.13527064040870349
0.18870489817640257
0.535599322272922
0.21873658720659844
0.17495787630999166
0.15876703675246287
0.1836325951065003
0.3165179560774946
0.3149746259827361
0.2495343741221894
0.34111886013460424
0.21557973881238057
0.16369556327710286
0.3158541946242052
0.1699279678274647
0.3147861780642717
0.476827198300769
0.2216636349573315
0.2634876630510749
0.24186015508860148
0.18632526367003865
0.48912434011695366
0.17672185911524002
0.17107928044890375
0.14599651002876757
0.3845218923114504
0.33294582962033076
0.3071169265019179
0.16707157118276306
0.0890988934826472
0.22259741163266197
0.16652609229131451
0.19076441534597333
0.21452530711877912
0.2106664527094902
0.23877914269878336
0.08128980312867132
0.1546303455937247
0.07829881233401394
0.20301691672603325
0.10210994775025072
0.18203081092976375
0.24179538610826984
0.13041461086972886
0.15920451900002397
0.1869732134448524
0.13455590651791569
0.18458721055871866
0.141804913812959
0.20389019202870184
0.11850992032385178
0.11375586247003043
0.18144295793608584
0.22432364074878572
0.06362450866820842
0.34851314537920697
0.13956275434614396
0.22357993783128177
0.20098868887864085
0.18518068966941192
0.13519439629253663
0.37462211814929913
0.12454841260653922
0.18866825022911982
0.17575896187216228
0.15241571436888932
0.3165179560774946
0.19684599273096193
0.157216379111592
0.21280034503041947
0.14484222515749703
0.13791015345828117
0.17656442125158467
0.2805485353697468
0.2741579799076752
0.20297132085020161
0.20617065294984538
0.18172549989084372
0.1392714301116996
0.17533310714934403
0.20880229733477013
0.17056095417023623
0.14431497770769036
0.13036320981263588
0.1999508896327888
0.1138985592230763
0.23505934850864144
0.1146945300583309
0.19775316162327053
0.23829929314314502
0.2901572257782
0.2225050587519258
0.12028424761755288
0.21191044344535417
0.13952403960770274
0.1304044101204918
0.16808627548927915
0.38032438553180514
0.18733513765748777
0.11677255236597353
0.15969535043536023
0.13099813911314892
0.18937382526983018
0.2709314927384889
0.14303030176525675
0.1769009674501217
0.3144125393345144
0.16523521097207364
0.16707157118276306
0.15598572242197606
0.23848846654246178
0.17576168053736707
0.1968906128092689
0.10102202455740072
0.32829579438104245
0.3017317094099071
0.21045235266425075
0.0898499922527173
0.22103084468124176
0.21673957597483665
0.15339425009337038
0.06871472161891397
0.17221024529964205
0.13237284270455682
0.44287484447033193
0.2891153338300436
0.16298729617929328
0.15689433931870586
0.16081873286433446
0.24524545567352238
0.19147130767802484
0.17495787630999166
0.2365128853586473
0.14935507883994767
0.11846125139045431
0.16773392013555444
0.1693178374540241
0.17777097845557352
0.1669235830503805
0.1943150000084201
0.15979285339418248
0.16031658745101712
0.13813686164645608
0.1992096736869013
0.17312583937381204
0.16048091149689586
0.15546147975205907
0.2821798352661641
0.14944125468001832
0.06367680924028027
0.20299218349272327
0.17137217673447186
0.20674317527845595
0.15608122915923187
0.2001856136875762
0.16111949527896716
0.17335533586248603
0.153212131691094
0.16439355328724417
0.18687628828132252
0.18887675861067985
0.1898630034188138
0.20225139727337335
0.23259437725575996
0.27235065277263926
0.14108017946551016
0.24988144968396112
0.19320817605817822
0.2053808832161822
0.15951259393515957
0.19624973686224834
0.176820454756093
0.20554955791407237
0.13682285059567537
0.16226103232953057
0.1984101414658056
0.17349756623578313
0.205908389560394
0.27583616637322106
0.19938455189400225
0.28230303887493513
0.138075613679389
0.18666326889067159
0.12717827676174576
0.1574620168876507
0.1884820881835206
0.20812183782146468
0.22684987839245566
0.17340726200785886
0.2848744612536863
0.2749067698153171
0.39496273019713257
0.16621785298069564
0.24603586607654004
0.24767802357186933
0.21614553798864342
0.1909703696592128
0.19955284036488502
0.17854864552578553
0.3497336233895777
0.25690070589221703
0.4095896768725179
0.20258520962812124
0.2731599649365534
0.10597408440084528
0.30918759756856884
0.21191044344535417
0.17204661303719276
0.2194395201107176
0.18425523889911538
0.1615419678873451
0.2975516977588802
0.17359710792036717
0.14369823004736396
0.2561361639479991
0.26725268371104954
0.20115893695609485
0.12855198916182678
0.2774733876345334
0.18666326889067159
0.13283609826968007
0.1310122896985893
0.1951774200669746
0.2481419397307118
0.1709291264882622
0.16536162756774828
0.27009145850158744
0.1539537913670804
0.1599258009106031
0.16482655365837492
0.19127949566676475
0.1984101414658056
0.16652609229131451
0.20871436389825426
0.1855759163445291
0.1474769888504971
0.22828809965466584
0.07128789117937687
0.16271068806480538
0.28013717648305636
0.1968969194925308
0.14348858976788417
0.33294582962033076
0.2901216020275838
0.20154643258876712
0.1857965804029338
0.17592570182082506
0.2386679843399328
0.09485237624435978
0.28113060259899236
0.1418178458464205
0.298217054365501
0.15780120171259177
0.3627152897727022
0.14071740593851895
0.1165759952682744
0.38492765779942045
0.19161481962906787
0.2616911993122071
0.16298729617929328
0.31547909608562646
0.1345526914125515
0.34173856378478806
0.21091273490314685
0.3742272692808189
0.3383368562077363
0.13728694872050867
0.28113060259899236
0.3969802182469552
0.20491650181861112
0.22828809965466584
0.1923715823429571
0.15388919779348453
0.3173611588595603
0.16543170481343442
0.334592811883285
0.6094576244056367
0.38329677668532186
0.16049340143718757
0.15389854291270103
0.2362511318235718
0.2179091240994057
0.14295841723550284
0.29980165815727855
0.12715730086837496
0.15798367693201046
0.23657266010340078
0.12787860973148715
0.17495787630999166
0.12755025421540056
0.3342195954972434
0.11375586247003043
0.2901908094922011
0.16682521171536055
0.2106664527094902
0.18589934925593155
0.23088720518669387
0.27927550808489554
0.14348858976788417
0.1660728431243926
0.1783546831270817
0.1598634113889867
0.19077944703346872
0.2820471275984806
0.0962163609626456
0.11960413052072558
0.163822941895939
0.16288869084807386
0.19860639113548056
0.1642359141224115
0.4804211926799734
0.26090298173497845
0.1741732560651584
0.20641137280379945
0.15971735197035358
0.1389508785077176
0.21869234097568147
0.11977651852542805
0.23384697339447091
0.12534040453595577
0.20551918229081603
0.26014801336791094
0.14457680301687512
0.1564769226578968
0.13828612394700604
0.17459789658883643
0.13602631874967014
0.20554955791407237
0.20256090693577805
0.15424158445052186
0.1855502179224446
0.18620989723973233
0.23088720518669387
0.3162446269372026
0.20551918229081603
0.18887675861067985
0.14457680301687512
0.16549971546441009
0.1658709662797832
0.18290177726780826
0.13115178046529694
0.15920451900002397
0.16543170481343442
0.10747113747234596
0.13631441145014855
0.2901572257782
0.19161481962906787
0.1108579940789084
0.19684599273096193
0.16408737226192388
0.2862344214782444
0.18866658340005255
0.1621340107681732
0.1914261816980753
0.14974689960945078
0.33294582962033076
0.35104775348460865
0.1857965804029338
0.14070994517290258
0.14958931456689664
0.10267735428605768
0.14500570658268783
0.3742272692808189
0.26725268371104954
0.1418708243324299
0.17222559793757772
0.20301691672603325
0.2649974866445357
0.18549466199178669
0.28164255512373343
0.1689209421369491
0.1420485786069576
0.14242290174081632
0.18416566917527866
0.11485418008346555
0.13393881393831283
0.16609096169450088
0.11036974900065986
0.13952403960770274
0.1750051792167979
0.18578787383024753
0.1682307327419227
0.20017110773069013
0.12494958594037579
0.22265559411104746
0.12285798936673985
0.10404033557934114
0.09842731444368959
0.2083363652752323
0.15637127924395508
0.2656362286204049
0.1590643078637234
0.31585086433839604
0.16298729617929328
0.26228042467741813
0.08744870019325429
0.22752404736835158
0.11588055826750364
0.1427714355676103
0.21802912138803596
0.09521736901527714
0.08667242815563296
0.19161481962906787
0.20554955791407237
0.1836325951065003
0.21035374237250176
0.12344040228867503
0.20950936055934039
0.1564470956256619
0.16366679709953535
0.37916163498597777
0.25826256512469437
0.21653622454662333
0.19775316162327053
0.19597300576721302
0.2468890661684272
0.18864014820336375
0.21776146078730085
0.11221141694120869
0.26577861048315077
0.1299284768321937
0.294204406574604
0.10577032738686644
0.16707157118276306
0.1505277672791771
0.1546303455937247
0.1950200888227167
0.38571817115683793
0.2841251153766464
0.154236193060065
0.21845889424968315
0.19524817716013146
0.24835576547205113
0.12312652794398372
0.18302210539883765
0.34851314537920697
0.19454599756435859
0.18518068966941192
0.16752338992774637
0.1299284768321937
0.1224671435027302
0.3238907964684946
0.16099826221655944
0.13391865842118592
0.12060385394182915
0.19568446077492763
0.18390638388965658
0.23783883058849334
0.1345199170850246
0.15497550611680477
0.24731332040637752
0.16606865750742067
0.16046810101439157
0.19540026703883426
0.20964988141252897
0.3178381675844853
0.14431254151715456
0.17405073782053473
0.15810830823511152
0.18062077888014136
0.17179696030411556
0.17809203314678654
0.1684096052014118
0.09263523297997273
0.15459236175730312
0.28065056547760364
0.07050404826443185
0.23074957861701656
0.1605904898711859
0.2056060628258852
0.16233672759501241
0.13755261771895844
0.2857886496593377
0.2044690826343697
0.16431619773414824
0.7362449491926972
0.23559543071661845
0.1706207362330615
0.09799423605699971
0.1727781136657989
0.218047654977077
0.2402986503881573
0.100080316281019
0.18144459953114372
0.18756554597983352
0.10181547177739164
0.21843658860110293
0.32067095226331255
0.19035721217677717
0.18687628828132252
0.06791226971084474
0.23503616820811346
0.24846447151764264
0.20207617248906082
0.14358701212105138
0.15819329393122414
0.19061103113173017
0.14446834542691514
0.07050404826443185
0.11446898476863675
0.1710213493760152
0.20212194050064972
0.31484152864842757
0.15301691579160273
0.20612347811251705
0.2519767573386589
0.23074957861701656
0.16578073988355263
0.20391932724229245
0.13813686164645608
0.14270356536998827
0.16121883211096835
0.17664745584525662
0.2870125509068606
0.14347943104147404
0.10908794980976128
0.20353845130684733
0.18510867328887262
0.14825369264260688
0.22445173510408195
0.24939176161293652
0.20326315539325462
0.19430524469680824
0.18290177726780826
0.0659719197065124
0.20015729111458627
0.7903966657052971
0.15421946822414762
0.19284885900886223
0.1830760458513608
0.2068935900836129
0.13438580256452506
0.14126666540783261
0.25783154767722727
0.29573389061763994
0.11877266672810687
0.1484077810277756
0.14427113905052444
0.17106395051964796
0.235629793512162
0.16803012628889663
0.15522544468796873
0.18008471712772847
0.1745041594147618
0.23056552544004527
0.24496293234761832
0.19147130767802484
0.2911247523057065
0.1576572347197782
0.1944272574201054
0.14893351036619143
0.3162446269372026
0.19044771827875992
0.2229794816678097
0.07888655469850898
0.4948318547984756
0.21442104429108116
0.1738919675777162
0.17106395051964796
0.1555983832104221
0.14143827164588835
0.20389019202870182
0.22259741163266197
0.2976612325620712
0.19971139055804882
0.1291449155798594
0.34177406797209686
0.18744826188758507
0.2709314927384889
0.21465418529319508
0.30935771282757285
0.11908935210594777
0.21924523632396384
0.15936080840223096
0.20551918229081603
0.2083363652752323
0.18887675861067985
0.20797808701618756
0.18335821062749855
0.20617065294984538
0.10958391738486747
0.19860639113548056
0.17459789658883643
0.1496545739475313
0.19739272715572273
0.1619385392622343
0.27622502717636516
0.16256403259487553
0.138928521927551
0.34111886013460424
0.16226103232953057
0.17495787630999166
0.1862835117763245
0.07491863573602568
0.2269337013039711
0.17721616669665205
0.29738068181514005
0.15008149004460616
0.41260522211391437
0.184094953996413
0.16273492304784612
